34 128
12 0.0025873198 0.002534645 -0.002029004 0.002384938 0.0019227117 0.0036824762 -0.0013078502 6.609327E-4 1.4212637E-4 -0.0034125808 -0.0028986197 0.001075047 4.9395446E-4 -0.0012707287 4.3432118E-4 0.0011958042 -0.00205442 -0.0025840672 -0.0032278097 6.8062E-4 0.0019224272 4.9567834E-4 0.0010531269 0.002914301 -0.0030448302 -6.8992533E-4 -0.0011361109 8.308605E-5 0.002433688 -0.0027769182 0.0020471595 0.0024238245 0.0021183705 -9.733759E-4 -0.001265905 -0.0018696876 0.0021054782 0.0033739447 -4.8745063E-4 -0.0027603146 0.0019204875 -0.0021003806 -0.001849971 -5.085173E-4 0.0024569577 -0.0010732324 -0.0021039345 -0.0012928009 -0.0020336553 0.002650622 -0.0014488603 -0.0037757533 -9.642457E-4 -0.0036385139 -0.0016199765 -0.001586567 -0.0038753585 -0.0010576247 0.0036139768 -0.0026384455 -0.001917855 0.0023413713 -0.0020224268 3.244302E-4 -3.6457E-4 -0.0023173862 0.00115323 0.003904645 -0.0025027134 -0.0014044396 0.0017316238 0.0035522936 -1.1981279E-5 -0.0011357786 -0.0010245484 0.0025639993 0.0031066346 -0.0023091559 0.0038892727 -6.5725634E-4 -0.0035506014 8.9334766E-4 6.686217E-4 -0.001093957 -0.0039565586 -0.0014018917 0.0020967186 -0.0031348423 -0.003742937 -0.0012022407 0.0014601253 -0.0017633084 2.799678E-4 0.0037754225 -3.4005888E-4 -0.003309117 -0.0036783423 -0.0019202445 0.0028098016 -0.0034878536 -2.220202E-5 -0.0020316988 -0.0016363119 -0.0034283877 -0.0032755644 0.0029441502 -6.4581935E-4 1.5997778E-4 0.0031312073 -0.0014275725 0.0016206582 -0.002809327 7.3540775E-4 9.5589826E-4 0.0015850002 0.0011102762 7.376571E-4 6.5854524E-4 2.2152264E-4 0.0031918432 -0.001693012 -0.0011479754 0.0012167675 -0.0016037527 3.6267246E-4 -6.55124E-4 9.507571E-5 0.0016272699
27 0.003576016 6.502798E-5 -6.3208513E-6 -0.0031406153 -0.003049181 3.9106913E-4 1.3046233E-4 0.0026130981 -0.0034981696 0.0027190617 -0.0027542186 -0.0036893773 -0.0019030756 7.542578E-4 0.001846764 0.0027450952 9.1565447E-4 5.427855E-4 -0.0034973617 -7.1858446E-4 3.9202734E-4 0.0037385079 0.0038259556 -0.0011112556 -0.0035785246 0.0022452676 9.968762E-4 0.0023122884 -1.3113576E-4 -0.0036526793 -0.0018386666 0.002290107 0.0018499419 -0.002735411 -0.0012519395 -0.003761001 0.0023808351 9.0413255E-4 0.0030676397 -9.834695E-4 -0.0033974792 0.0016705402 0.0027802852 -0.0030403836 -0.0023525613 0.0016968773 0.0020630548 0.0026341947 0.0029318964 0.0010254668 0.0027633791 0.0037306289 0.0020479895 0.0021482587 -0.003449591 0.0010770742 0.0024150976 -0.0013679323 0.0014155215 0.0011822376 -3.5047502E-4 0.0026200246 0.0036692107 5.8626273E-4 0.003017524 -0.0026206656 -0.0032209905 0.0023680846 0.0022409703 0.0015271391 -0.0021880346 0.0015893104 -2.826631E-4 2.0084612E-4 0.0017546911 -0.0018459314 -0.0025128913 -0.0034352194 0.0023876464 0.0028322232 -0.0031071696 0.0024663191 0.0033681206 -0.0036484513 -0.0025832413 0.002086804 9.224492E-4 4.7714345E-4 -0.0035180917 0.0013395026 -0.002129836 -8.31433E-5 -0.001424635 3.0328712E-4 -0.0029353725 -0.002942733 0.0010449437 -0.0019472238 -0.0020140614 1.8263375E-4 0.0013562511 -0.0011597103 -0.0024047934 0.0035386502 -1.08670145E-4 -0.0010867162 -3.4280273E-4 0.0016691207 0.0030106546 7.7354896E-4 -0.0015029301 -4.8267335E-4 -0.0019215596 0.0028882879 5.4603675E-4 0.0024391676 5.840968E-4 0.0012480858 4.1389078E-4 9.620246E-5 -0.0024332665 -5.422891E-4 0.0015102273 0.0027561898 0.0035993375 -0.0027752644 -0.0019796158 -9.918219E-4
23 -6.794168E-4 -0.001721567 0.0026100548 -0.002879601 -4.9691944E-4 6.412339E-5 -9.918336E-4 -0.0035586886 0.0028051957 0.0036900917 8.8068994E-4 0.0022575783 0.0012714681 -6.728795E-4 0.0033821403 9.4267883E-4 0.002870297 0.003094467 0.0035250466 -7.14192E-5 0.0013465392 -0.0035559717 -0.002491245 0.0010394863 -3.3952913E-4 -4.6673566E-4 -4.9229284E-6 7.1873784E-4 -0.0035269388 -0.0012629403 0.0034820896 0.0020292222 1.6790653E-4 -0.0028683548 3.6743953E-5 -0.0039357455 -0.0030727228 -0.0011130522 -3.8243094E-4 -6.083322E-4 -0.0041470374 5.671728E-4 0.0014728322 -6.559126E-4 1.11710775E-4 6.160556E-5 0.0029356433 -7.9783594E-4 0.0016750976 -0.0036197815 0.0017509598 -0.0016825672 -0.0013877545 -0.0017420633 -0.0014659977 -0.0015213144 -0.0015345037 -2.7043236E-4 0.003925925 0.0024062807 0.0030600475 0.0023767932 0.0027500358 0.0038607921 -0.0013553911 -1.4315298E-4 0.0011523952 -0.0013146254 1.1723151E-4 -6.9338066E-4 -0.0040188427 0.0020991946 0.002079655 -0.001195237 0.0015294513 -0.00398328 5.0940097E-4 0.0014583258 -0.0028865156 -0.0029861664 -0.002608688 -0.003775085 0.002046518 3.2892884E-4 4.7200496E-4 0.0025324395 0.0036084685 -0.0010042933 -0.0035960607 -1.8548113E-5 0.0025347401 -0.003475156 2.0974515E-4 0.0015815095 -7.1595015E-5 -9.772788E-7 -0.0012210103 -0.0031963284 -0.002103196 0.0027668572 -9.987266E-4 -0.0027680155 -0.0033356475 0.0030611414 0.001138211 -6.1834615E-4 0.003505581 0.0010425642 -0.0022328857 0.0029583843 -0.0023730218 6.875035E-4 -2.81763E-4 0.003256291 9.841262E-5 0.003938289 -3.1392722E-4 -0.0024842208 -0.0027054595 -0.0014249572 0.0021790576 -0.0038471306 -0.0019877923 0.0023722588 -0.0030748036 0.0029866023 -8.5906923E-4 -0.0012225407
16 0.0022469563 -0.0030059956 9.238787E-4 0.003500514 0.0020874562 -7.270432E-4 0.0010151587 -0.002211484 -0.0028357154 -0.0023204302 0.001027896 -7.9241913E-4 -1.0726416E-4 -0.0014925804 6.7688944E-4 1.7214016E-4 7.30419E-4 0.0029491822 0.0018960105 -8.8808214E-4 -0.0020686253 -0.0030616974 -0.0011627816 9.230074E-6 -6.9465634E-4 -0.0031164992 -0.0015697752 -4.7619085E-4 -0.002943402 -0.0037784083 0.0021177968 -0.0021236967 -8.6241035E-4 -0.002269579 2.5869414E-4 -7.017257E-4 -0.0035834596 -0.002079212 -0.0034685656 0.003945317 -4.580073E-4 1.2892204E-4 0.003097142 0.0029268959 -0.001201115 -0.0037862482 -0.003423546 -0.002871178 -0.002833114 0.0012015174 0.0029657136 -0.0031782086 -0.0030436928 0.0030726434 -0.0022021108 0.0020942055 0.0023521194 -0.0038171357 -0.0031924068 0.0016561964 7.297958E-4 -6.627222E-4 0.0024738759 -0.0020394404 8.9849596E-4 6.283284E-4 -7.766654E-4 1.0646206E-4 -0.0018740629 0.0024112458 3.5719972E-4 -0.0029572404 -0.0027598566 0.0035588874 -0.0026057523 -1.3313328E-4 4.7967583E-4 3.5211843E-4 -0.0037431414 -1.9906275E-4 0.0024973145 -6.9846015E-4 -0.0017973334 -5.5272103E-4 -0.0013185914 5.72386E-4 0.0015604516 9.333421E-4 0.0033180104 0.0013697639 0.0023301756 0.0031753555 -8.4415585E-4 -0.0030119997 0.001942039 0.0024002555 0.003350513 0.003000592 -2.2044787E-4 -0.0020491884 -9.7524805E-4 0.002940042 0.0030891497 -0.0026358578 -0.0022342184 -0.0020404423 0.002568681 -0.0034474235 -0.001900751 0.0037752122 0.003687092 0.0021501142 0.0013138409 7.737481E-4 -0.0017755117 0.0032536944 0.0022724883 0.0020364404 0.0028697667 -0.0016682668 -0.0017687149 -0.0019245935 -0.0015707844 -4.6343027E-4 -0.0028351683 0.0031819835 -9.3970867E-4 -0.00263854
10 7.710368E-4 8.4873755E-4 -0.0036332675 -0.0016253445 7.595351E-4 -0.0019156162 0.0022787007 -0.0029413602 9.910198E-4 -3.2858702E-4 -0.0014443158 -0.003381398 -0.0016071793 0.0012833998 0.0030794146 -0.0037411395 -0.0017920713 2.597203E-4 -0.003729186 9.953638E-4 0.003667824 -0.0026013681 0.001519193 -5.246831E-4 -0.0017453685 -0.0021311624 0.0023027614 -0.0030540742 -0.0032695064 3.7702604E-4 -0.0020167865 0.0014237518 1.2293979E-4 -0.0010561931 0.0025830849 -0.0015196592 0.0013664789 -0.0022753666 3.3960034E-4 -0.0034950676 2.1079578E-4 -8.460149E-5 -0.0033781163 0.0026860763 0.0032081245 0.001706611 9.862764E-4 0.0038757434 -0.002994434 0.0028847 -0.0016915099 0.0037808958 -0.0022562493 0.003683223 0.0034458744 -0.0038965766 0.0033716282 0.0036295494 6.0496293E-4 9.0672215E-4 0.0031662176 9.00714E-4 0.0024570513 -0.0012027973 0.0017520224 -0.0018776082 -0.0036593836 0.0035002436 0.0014056104 -0.002417603 -0.001110231 -0.0033447975 0.0016096105 -0.0033530362 -0.0021827181 0.0017563428 -0.0030365812 -0.0017064334 -2.7874467E-4 -0.0011896373 4.8010173E-4 -0.0026690862 -0.0017974766 -1.2495767E-4 -9.905166E-4 -0.0019353417 4.302594E-4 -4.1831433E-4 -0.0019852694 0.0030045 -0.0011096742 -0.0030743298 0.0025787137 -0.0036728063 -0.0022537143 -8.6868514E-4 -9.2535483E-4 0.0027022182 -0.002262338 -0.0028462256 -3.4756758E-4 0.0020214508 -0.002453238 0.0011252924 0.0013960105 0.0014867893 0.003883544 -0.0022388075 0.0034833862 -0.002875519 0.0020715545 0.004001839 -0.0015138215 -0.0028001126 0.0036314437 7.13656E-4 0.002275258 -0.0025231182 5.1999843E-4 2.8907161E-5 -0.0034986944 -0.0017624369 1.2283822E-4 0.0013718565 -0.0027779073 0.0023954252 0.0016161014 -0.0035638644
21 0.0041052136 0.0021588183 0.0026561453 -0.0012493049 0.0024140356 -0.0032068407 -0.0020252618 6.792259E-4 -8.9386606E-4 -0.0016701834 -8.448361E-4 -0.0014982506 -1.20205834E-4 0.0033394673 -8.399599E-4 -1.2039744E-4 9.446492E-4 0.0029573543 -0.0026578016 0.0011175803 0.0019633889 -0.0033960047 -2.2681124E-4 -0.0020581805 -0.0027595288 -0.0032082344 -7.5124024E-4 -0.0013789532 -0.0014838708 6.938872E-4 0.0019327811 3.520572E-4 0.0012778895 0.0029522993 -0.002956015 -0.0031070784 -6.0325774E-4 -0.0025192064 0.002364637 -1.6120191E-4 0.0028588711 5.374891E-4 -1.5228848E-4 0.0011390251 0.0012186335 -0.002004888 -0.002479171 0.004106028 -0.0030376299 0.0029945457 2.697096E-4 0.0038066 -0.002573259 -0.0028407315 -7.411315E-5 -0.0033098625 4.484464E-4 -0.0013554255 0.0024804617 1.365907E-4 -0.0018273684 0.0014374679 0.0027090728 -0.001727545 -5.0789915E-4 -0.0034572156 0.0027341812 9.964509E-4 0.0028657669 -0.0023379466 2.618037E-4 0.0024867477 -0.0023078774 -0.0023048387 0.0028246413 -6.9061667E-4 0.0035048125 -2.7665205E-4 0.0021530178 -0.0023334532 0.0017753149 -0.0011886123 -0.0017077494 -0.0022016307 0.0020727224 -0.0037181205 -0.0025782536 0.0011409738 -0.0018831276 0.0038854575 0.003646882 0.0022303043 -0.0021813188 -2.9939206E-4 -0.003067262 -0.0012219301 0.0015690613 -0.0012169445 -0.0022885932 -0.0019296781 -0.0026341456 -8.315548E-4 -0.0033914042 -0.0028588858 0.0016379016 0.002693218 0.003185852 0.0026809936 -0.003300062 0.0026063626 -0.0036251717 0.0030101484 -0.0023189893 -0.0016654816 0.0017797654 0.0028213244 0.0021337792 0.0035169018 -0.003046118 0.0035797623 0.0023749268 4.2187906E-4 0.0015745905 3.8987855E-4 -0.0026679535 -0.0026513403 0.0014315941 -0.0034254706
18 -7.118266E-4 -0.0010590673 -1.2023541E-4 0.0021553424 -6.9200713E-4 0.0021819377 -0.0031218354 2.4023432E-4 -0.0015369005 -0.0035019165 -3.4388335E-4 -7.062565E-4 -0.0037701982 -7.943169E-4 5.799147E-4 -0.0020273 -2.0306742E-4 -0.001901976 -0.0022124683 -0.0030066106 0.0012068453 -6.538037E-4 4.2103638E-4 -0.0036369727 -0.003140087 -0.003310094 0.0023498596 -0.0016546934 0.0032038547 0.0036840574 0.0017255978 -0.0025559019 0.0012706554 -0.001747548 -0.0031155087 0.0029383148 -2.2560907E-4 -0.0016634805 -4.1972645E-4 0.0014080922 -2.3312282E-4 -8.5297093E-4 -0.0031636711 -0.0035070542 -0.0032758461 -0.0017693791 -5.32336E-4 -0.0020953598 4.0152553E-4 -5.694136E-4 0.0012246342 -0.002663356 0.0016159202 0.0012711737 0.0025932204 0.0014908639 -0.001598304 -0.0011221388 -0.0029466427 -0.0025665576 -0.0013594149 0.0011943708 -0.0016265817 -0.003004341 0.0032198017 4.332781E-4 -0.0018794314 -4.98042E-4 0.0031140684 0.0029076831 0.0021989206 -0.0035459262 -0.003909818 -3.0689937E-4 -0.0040095956 -0.003559507 8.2570186E-4 -0.003806187 -0.0012912628 -0.0011068572 -5.054459E-4 -0.002015087 0.0013274774 -0.0038710663 0.0015392079 -4.195518E-4 0.0010942635 -0.0011631859 0.0017898582 -0.0034179382 -6.731373E-4 -0.0013016188 -0.0015421999 -0.002768868 -0.0016884708 5.560465E-4 -0.003840895 0.001475853 0.0014642283 -0.0038771352 0.0034042967 4.0350185E-4 -2.2128073E-4 -0.0017612728 -9.1950694E-4 0.0031896671 0.0015217691 -0.0033199207 -0.0010289113 0.0015708175 -7.8190555E-5 0.003706531 4.6988484E-4 0.001986104 -0.0026488518 -0.0034704339 -0.0021831093 -0.003636897 8.4574195E-4 0.0024279826 -5.3458917E-4 0.0038857076 2.04323E-4 0.0036716387 -0.0012828807 0.0033478772 0.002684205 0.001063414
22 -0.0033070736 -0.003359716 0.002896711 0.0018558018 0.0016916766 -0.003546535 -8.4130996E-4 3.1795868E-4 -0.0023677188 0.0012390217 9.733853E-4 0.0015710521 -0.0029056754 0.0018476902 8.072651E-4 0.003654646 3.3940974E-4 9.746486E-6 -0.0022217198 -8.3754E-4 0.0014059216 0.0027907952 0.002448455 -0.0034124549 -7.717052E-4 7.9079013E-4 0.0015521557 0.0029281918 0.001999315 0.0014906431 -0.0013568363 -0.0038248016 -4.647304E-4 -0.0019971768 -0.0034741675 0.0036679395 -7.59116E-4 3.7904092E-4 0.0012629686 -0.0023057228 -0.0013771071 -0.0012103226 -0.0011808609 6.8361865E-4 -0.0021879575 -0.0027585998 0.0026091689 -0.003602541 -0.0014925342 -5.029544E-4 -0.0027933135 0.0031387701 -0.0022376326 -0.003438096 -0.002451036 -1.1994519E-4 -0.003190315 -0.0012512021 -0.003812778 -0.0026509408 0.0013203791 0.0022261422 -0.0010841883 0.0015448248 -0.002494917 3.3848046E-4 0.0033088622 -0.003228488 -2.1823854E-4 0.001170006 0.0035232082 -0.0028459555 -2.0868926E-4 -4.2747433E-6 0.0038491378 -8.711095E-5 -0.0016885054 -3.8058052E-4 -3.916906E-4 0.001997547 -1.8856059E-4 7.53433E-4 0.0028500943 0.0010832591 0.0033061649 0.0023163802 7.271055E-4 -0.0023761722 -0.0013795793 0.0038371328 -0.0023599518 0.0013956996 0.0023063025 0.0015453072 1.2118788E-4 0.0029289434 -0.003916743 -6.080361E-4 9.4697915E-4 -0.0037212546 0.0022475854 -0.0015404816 -0.0029676545 -0.0026227997 0.0034639037 1.8047915E-4 0.002120886 6.7677227E-4 4.070002E-4 -5.658798E-4 -9.702342E-4 8.845486E-4 -0.0029477708 -0.0029982007 8.8052015E-4 4.0922192E-4 5.196607E-4 0.0012277319 -0.0030729014 -5.787845E-4 -0.0027105606 -0.0036314256 -5.17816E-4 0.001729907 -0.002106256 -0.0025493894 -0.0037771945 -0.0024701585
15 0.0017528153 -0.0036669783 0.0024389485 -9.506149E-4 -0.0028508808 2.4205273E-4 -4.7107483E-4 -5.968838E-4 0.0036626004 0.002265772 -0.0013734136 -0.0028787896 2.6795184E-4 1.4488457E-4 0.003096299 -0.0017909975 -0.0026951032 0.0010779965 0.0022755098 0.0028166345 2.7947524E-4 -0.0030856512 -2.6639164E-4 -5.3663104E-4 -3.105323E-4 -0.0022489692 5.837076E-4 -0.0021030651 -0.0028707169 -0.0030874044 -0.0037342235 0.0010589499 -0.0035927873 0.0020047277 -0.003687155 -0.004166452 -1.0195388E-4 -0.0014211555 -0.0029378126 0.0017941172 -0.0023559886 -0.002176936 0.0027239162 8.3292765E-4 7.476942E-4 5.732141E-4 0.0028309973 -4.326733E-4 -0.0012676002 -4.7491275E-4 0.0027851597 6.867547E-4 -0.0034687186 -0.0030260866 0.0036371264 -0.0015640975 -0.0018050295 0.0026501778 -0.0033288503 0.0033919828 0.0025648256 0.0031555248 0.0030558454 -1.7038271E-4 8.592948E-4 4.0261375E-4 0.0028797816 5.192905E-4 2.3591258E-4 0.0024650714 0.0022338731 0.0013140416 0.0027405163 0.0010419425 -0.0025147484 0.0013075334 0.003708473 -0.0019303083 -7.620934E-5 -0.0038143906 -0.0015447162 -0.0016406383 -2.9735526E-4 -5.2746007E-4 0.0016768181 -0.0019657193 0.002898394 0.0036800643 -5.7362614E-4 -0.0021154648 0.0026903115 -5.0416426E-4 0.002591598 -0.0034453175 0.0034152612 -0.001317607 -0.001599791 -0.0014609543 0.001377034 -0.0014406665 -0.0014105949 0.0027106558 -7.326008E-4 0.0015807401 0.0018731807 0.0011140838 1.5298987E-4 -0.0038054173 0.0033242258 -0.001123147 1.3417097E-4 6.160221E-4 -0.003482779 -2.0821077E-4 -0.0023596124 -0.0018460642 -3.8095994E-4 -0.0012625984 0.0010084377 -0.0033118038 -0.0011973133 0.0018026774 0.0014218315 0.001839537 -0.002688501 0.0031895288 -5.309257E-4 5.7606143E-5
17 -4.981569E-4 0.0028798683 0.0014762151 5.347376E-4 -0.0037723477 0.0014924287 -0.004140877 0.0017555037 -0.0034470896 3.0942942E-4 -5.701537E-4 0.0018277095 0.0039572413 0.0021574092 0.0012845495 -3.3896157E-4 -0.0032083031 0.0024754582 6.1114377E-4 0.0010027316 0.002915677 -7.733164E-4 0.0026026792 -0.0035189781 -9.967316E-4 -5.27431E-4 -8.45614E-4 0.001604978 1.08480934E-4 0.0029184397 -4.6625384E-4 0.0034215236 -3.9043935E-4 -0.0025301469 -5.9835374E-4 -0.0014299001 -8.8122836E-4 -0.003792076 -1.5692328E-4 -0.0017946477 -0.002263072 -0.0012376979 -0.0012845614 -0.0022154045 -0.0036810362 0.0014181769 -0.0023323973 0.0030072723 0.0017361849 0.0025125553 0.0029603946 4.8083264E-5 -0.0040411036 -0.0021731632 8.52845E-4 -0.0020074951 0.0018768148 0.0032376472 0.0027146782 0.0027822582 -0.0012269593 -6.5152696E-4 -0.0015867171 0.002744831 -0.001275684 0.0029665437 0.0016167783 1.7930732E-5 -0.0043151346 0.0018008709 0.0041396823 -0.00416393 -0.0019901325 0.0012683697 0.002098525 -0.0025348184 -0.0016515384 0.0037814004 -1.3633555E-4 -2.959768E-4 0.003332067 -0.0017111927 -0.0024289011 9.702565E-4 0.0027810524 -0.0013936524 0.0029202863 -0.0030942655 -0.0018371952 0.0012109953 -2.4547774E-4 0.0035316995 -0.0015599454 -0.0024187695 -8.4527174E-4 -0.0017375904 -0.0018328916 7.527374E-4 4.9237744E-4 -0.0022960755 -0.0010313976 -7.164438E-4 0.0013504457 9.372984E-4 -0.0030652152 -0.0024297084 -1.3140503E-5 -0.0010111975 0.0023719505 -0.002651943 -4.3087036E-4 0.00306888 0.003231527 8.265794E-4 4.6656245E-5 -6.903464E-4 -9.771534E-4 0.001287379 -0.0037849736 -8.406362E-4 -0.0020564024 0.001146479 -0.0020737855 -0.0032663434 0.0033037553 7.6568866E-4 -0.0038093145 0.0030203764
13 -9.335651E-4 -0.0012235366 0.0023175087 0.0035864105 0.0028402384 -0.0022398178 -0.0013775716 -5.6989426E-5 -0.0017708445 -0.002599804 -0.0038249106 -0.0016661182 0.0036816928 0.0019389231 -0.0018442067 0.001231405 2.6038382E-4 -0.0022427589 -0.0028393404 0.0035954318 0.0032912877 -0.0030609255 -0.0030174481 -3.1799963E-4 -0.0018470701 -0.0014571747 -0.0015527821 0.0029949057 0.0013648847 -0.0019909714 -0.0030121645 0.0036033825 0.0035445616 0.0030849578 -2.701156E-4 -0.0021852157 -0.0029807745 -2.693578E-4 9.1295654E-4 0.002221694 -0.0016821525 0.0018840877 2.0622907E-4 0.0026119887 -0.0038986045 1.7146606E-4 -6.684847E-4 0.0028801365 -0.0024627622 -0.0033119153 -9.500159E-4 0.0028164447 0.0014625537 5.4388476E-4 0.00281404 -0.003638788 -0.0027574932 1.560785E-4 -0.0025089923 -0.0012225675 0.0026556065 -0.0013312862 -0.0037468786 -0.0027186857 0.0035110135 0.0018695244 0.0024412912 -0.0023940797 -7.9852383E-4 0.0013048922 0.00214005 -0.002564992 0.0014127679 0.0027098423 -2.6632214E-4 -0.0030684539 -0.0036797002 2.9247275E-4 -5.3015805E-4 -2.895634E-4 0.0027183706 0.0022793515 0.002864662 2.1752373E-4 0.0018808509 3.780829E-4 -0.0015656694 -0.00292858 -8.1547716E-4 0.0032968717 0.002043417 -0.0033560744 2.7719749E-5 9.680714E-4 -3.4680907E-4 4.343624E-4 -0.0030241986 0.0023736754 -0.0020806557 3.2817206E-4 -0.0031058197 0.0021173703 -8.79459E-4 0.0020111166 -0.0024228022 0.0010069209 0.001209902 9.471696E-4 -0.0031705042 -0.0034364066 0.0039759763 0.0031815167 -6.2750507E-4 -0.0019429122 0.0021193237 -0.002891989 3.405463E-5 1.14096314E-4 -0.002369299 -6.762354E-4 0.0031660858 0.0019094963 1.5666107E-4 -0.0014356474 0.003574314 -0.0018538748 0.0011684749 0.001372348
19 8.0874015E-4 0.001860659 -0.00158331 7.369254E-4 0.003655998 -5.583274E-4 0.0017299594 0.0023984925 0.0025330277 -0.0029927245 -2.4595935E-4 -0.0017138283 6.699284E-4 0.0029890009 0.0036834853 0.002081904 0.0027317926 -0.0022129705 -0.003255349 0.0014762683 -0.0023684134 8.2082755E-4 0.002242255 0.0037809012 -4.5511403E-4 0.0034822559 -0.0027346157 0.0022811897 -7.2099955E-4 -0.0037590705 -0.0029650165 0.0021064153 0.0020624073 -0.0012841392 -0.0023144037 -0.0036580241 0.0011154645 0.0031480896 0.0026238451 7.8766525E-4 0.0022718452 0.0017565388 0.003620495 0.0033703798 2.450025E-4 -0.00328934 0.0031182691 0.0040555266 -6.765843E-4 4.703929E-4 0.0026152572 -0.0023963973 0.0029107642 0.0011325806 -0.002795428 5.4146344E-4 -6.079716E-4 -0.0033286666 1.1608308E-4 -0.0011230169 -0.002083948 0.0015682767 -0.002465028 0.0024643287 0.0019592384 -0.0010497839 0.002324396 -0.0017723627 0.0031956718 0.003269237 0.00344876 3.7189663E-4 2.3911199E-4 0.0017272532 5.241765E-4 7.9740677E-4 0.0024282818 -5.430432E-4 -0.0018955744 -0.0018609508 -7.479876E-5 0.0024330951 0.0028457893 0.003972829 0.0011503866 -0.001199029 2.833574E-4 -0.0012243618 0.0024968057 -0.0018283384 0.0011366521 0.0010348735 6.676301E-4 0.0016224135 2.1114093E-4 6.506157E-4 0.0024441648 -9.59546E-4 0.003323354 8.3268875E-5 0.0010220683 -0.0020016683 -0.0037520195 -0.00295054 0.0013796753 -0.0016151338 -0.0014824511 0.0012058933 0.0022817894 0.0035889598 9.477941E-4 0.0033977856 2.0446171E-4 0.0029750725 0.0018754951 7.5840054E-4 0.0020442167 0.0038664935 -0.0014215767 0.0014239259 -0.0012887617 4.380433E-4 -5.408575E-4 0.0013093682 0.0017318056 -0.0030941684 -0.001344447 -0.003314433
26 2.1756414E-4 -0.0011532622 -0.002842784 0.003279008 0.0035557617 0.0015571576 0.003621267 -0.0022301127 -0.002937209 -0.002879711 9.03988E-5 -0.003246529 0.0013199033 -8.150925E-4 0.0015750804 0.0012803698 0.0024161956 -0.0017737523 0.0010780375 0.0023824838 -0.0037259727 -0.003553861 7.588937E-4 0.0046417625 -0.003081501 -0.0018876224 -0.0034072024 -0.002020941 0.0033112462 0.0018361056 -0.0034515297 -0.0029193053 -9.991535E-4 0.003994396 -3.605675E-4 0.0015552379 -0.003105345 0.0024787153 1.036078E-4 9.0748235E-4 -0.0019264768 0.0013205912 0.0026283518 -0.0012298459 -0.0026172388 0.0024434305 -0.001107753 0.0033457584 -0.002755095 -7.892607E-4 -0.0021306346 3.864454E-4 0.0033430364 0.002681905 0.002073731 0.0035635806 -8.3712174E-4 1.9392079E-4 -6.7884795E-4 -0.0032682829 0.0027659626 0.0025552511 0.0036884984 -0.001573088 3.9637566E-4 -0.001511725 -0.0025076363 0.0019477353 0.0011415748 -0.0037263844 1.5605384E-4 -0.0023206652 5.044056E-4 0.002436254 0.003384572 -0.0032111066 0.002257926 -0.0030593479 -7.526112E-4 0.0014058155 -0.0025096622 0.0010005805 0.0026173552 0.0011453003 2.798504E-4 0.0014406599 -0.0036046128 -0.0021714463 0.0022629583 -7.304492E-4 6.452573E-4 -0.0038616278 0.0023304068 0.0015872617 0.0029734364 0.0014470159 -0.002127252 -0.0034255844 -0.003795051 0.0024128375 0.003641623 8.1431914E-5 0.003399824 -0.0013276519 -0.003550815 -6.9251895E-4 0.0029287683 -0.0010008118 0.0026507166 -9.923021E-5 0.0041498975 -0.003601002 0.0036609324 -0.003919676 0.0031113103 -0.0013412427 0.003499979 6.890973E-4 0.003463753 0.002108047 -0.0015912618 5.9253455E-4 -9.4389194E-4 -9.133475E-4 -7.088414E-5 -0.0040252483 6.1414394E-5 0.0015912282
5 -0.0031386476 5.2824157E-4 0.0016589344 0.0026899418 1.9522452E-4 0.0023393643 0.001446615 -6.186445E-4 -0.001270136 0.0018083781 0.0023212174 0.0037214858 0.00378583 -0.0033661711 -0.0029093737 9.709176E-4 -0.0022131095 2.991322E-4 -0.0021994028 -0.0018301051 0.002699927 -0.0012895712 -9.769411E-4 0.0014227246 -8.7498385E-4 3.0602806E-4 -0.0027401242 -0.0029399076 -0.0024856052 0.0016965976 2.1931932E-4 0.0013466177 1.9362189E-4 2.7666503E-4 2.1341909E-4 0.004070045 -0.0019066328 -0.0027734952 -0.0011267416 -3.8812964E-4 -0.0035963946 0.0040348773 -0.0035273663 -0.0021921804 -0.0022321604 -0.002664265 0.0035468 -6.315788E-4 -7.1861746E-4 -7.655932E-4 -0.0038601314 -0.0032684703 -0.0011596234 -0.0010081934 1.880282E-4 -0.001971801 6.313896E-4 0.003435216 2.5245632E-5 -0.0036333434 0.003870832 -0.00316419 0.0034446397 1.729125E-4 -0.003099661 -6.314543E-4 -9.906427E-4 -6.678046E-4 0.0011424441 0.0032002341 4.1605622E-4 -0.0038756256 0.0010013778 0.0026416972 0.003100411 -5.7050673E-4 -0.0026086045 0.0017536435 -8.908449E-4 0.0016110389 -9.80518E-4 0.0022232549 0.0030812828 -0.0026786057 0.0028316863 -3.9258084E-4 3.2813428E-4 7.5429666E-4 -0.0029423807 -8.1162323E-4 0.0018463483 -0.0010185672 0.0025086452 -9.5026E-4 -0.0025337 8.571148E-4 -0.0034783608 -0.0013228214 8.214683E-4 -0.0034560831 2.198597E-4 -0.0018321739 0.0032428699 6.7411904E-4 0.0016120173 -0.001290257 0.0031192156 -0.0025985504 0.002946228 -0.0034801015 6.247112E-4 0.0015117282 -8.7552595E-5 -2.0812226E-4 0.0034301747 0.0024916506 0.0015401827 0.0014139729 9.3525084E-4 1.8090509E-4 -0.001961808 -0.0033944454 0.0011126956 -0.0016113601 0.004058429 0.0022820747 -0.003162867 0.0034056283
25 -0.0019113425 -0.003236978 -5.685203E-4 0.0010804762 -8.5505133E-4 0.0012916496 0.0029179864 -5.080583E-4 0.0029090964 0.0026502423 -0.0028634642 0.0030585264 -0.0034176633 0.0033726979 0.0038414956 -0.0032139164 0.0022704157 -0.0012229141 0.0025415581 1.4256066E-4 0.0029296305 0.003007204 0.0021436105 -4.734745E-4 -1.8062055E-4 -2.0800424E-5 0.0024797875 0.0023136055 -0.0025830436 9.675163E-4 -0.0036635762 -0.002778701 0.0012213967 -0.0023688069 5.311571E-4 0.0034072394 -0.0024206394 -0.0018769031 -7.109567E-4 0.0016848599 -6.7149487E-4 -0.0013935497 -0.0013564171 -0.0037329595 0.0038768852 -0.0010671776 0.003857015 8.810558E-4 -0.0018130045 0.0020451848 0.0036748874 0.0030331237 -0.0012542405 0.0024866017 0.0032498564 -0.0013198142 -0.0012048014 -0.001991235 -0.001657712 2.913431E-4 -0.002213003 -0.0037617122 0.003829666 -9.020196E-4 -2.5224252E-5 0.0014402238 0.003995913 -3.570183E-4 -0.0028871067 0.002432898 0.003103983 0.0014239183 -0.0031122086 0.0022971188 2.4978837E-4 0.0014967176 0.0014045514 0.0031446584 -0.0020937559 -0.0022985092 0.003756588 3.2483917E-4 0.0010254205 0.0025505577 0.0037483212 -0.0035725462 0.0013929779 -0.0036089194 0.0022584859 0.003359202 -0.0028625967 4.1146122E-4 -5.3499674E-4 -0.0035126945 -0.0025111586 5.273348E-4 -0.0034246044 -1.01134756E-4 0.0021206208 2.2031962E-4 -0.002630526 -0.0026208602 0.0025844527 1.810895E-4 -2.2951496E-4 0.003887796 0.0021644894 -0.001398544 -3.2873862E-4 0.0041541164 -0.0018547068 -0.0016389546 8.032044E-4 0.0031436775 -3.3051743E-5 0.0030838274 0.0030030797 9.7197806E-4 -8.912717E-4 0.0034726176 1.9676043E-4 2.9372136E-4 6.0292287E-4 3.7259797E-5 0.0024529726 0.0012415396 -0.0023485136 -0.0015515095
11 -0.0040670065 -2.3988074E-4 0.0012504207 -0.0014161001 0.0017081443 -0.0040325043 -0.002836129 -0.003565476 -0.0037212363 -0.0036702608 7.09725E-4 -0.0012771505 0.0029533457 0.0032822576 -0.0025762126 4.2075996E-4 -0.0038625207 -0.0020890315 -0.0014519228 -9.6076535E-4 -0.0038996208 0.0031668888 0.00286568 0.0011319431 0.0025683995 -0.003464375 -0.0019875595 -8.294409E-4 -0.0038681421 0.0016138164 0.0025498199 -0.002210206 -0.0016460358 -0.004139208 -0.0019763827 0.003906397 -0.002902778 0.002958502 0.003623205 -0.0019948243 0.0011201961 -0.002958667 0.0010580464 -5.145306E-4 0.00328212 3.1940383E-4 0.0017237269 2.0364218E-4 0.0021930314 -0.0013605853 -0.0019458778 -0.0020934802 1.0966488E-5 0.0019748046 0.0024051645 -0.0019005047 5.6818605E-4 0.001191116 0.0016466262 -4.1949566E-4 -0.0029982305 -0.0016704289 0.0010486516 -8.7805465E-4 0.003268916 0.0012541409 0.0012577362 0.0034525369 -0.0013127596 0.0020608238 0.0018678263 -0.0029089765 -0.002123305 0.0028017915 -0.002285996 0.0040671956 0.0012622535 -0.0012448258 -0.0014593217 -6.987332E-4 5.435797E-4 5.317341E-4 9.44795E-4 -0.002541365 -0.0039909706 0.0018450548 0.0020420125 0.003291219 -0.0017317398 -0.0014833824 8.8738056E-4 0.0026416485 -0.001072171 -0.0017586756 0.002466856 0.0030913851 0.0027424903 -0.003252567 0.0038699012 0.0015131576 -0.0019999053 0.0015174221 0.0025278018 -9.618892E-4 -2.2883217E-4 -0.0012315044 -0.002343058 0.0020896578 0.0020486375 -0.0028268734 -0.0015798797 -0.0026998897 -0.0033222754 -0.0034163806 -0.0026292102 -7.04894E-4 -0.0029925168 0.0015845955 -6.0581416E-4 0.0021424883 0.002136991 -8.523108E-4 -1.7297058E-5 -1.6448545E-4 -0.0025252942 -0.003022162 0.003531666 -0.0018316661
31 -0.0019474679 -3.699074E-5 -0.0026290054 4.0481967E-4 4.4949955E-4 -0.00278524 -0.0020332036 0.0017205285 6.602704E-4 0.0041536246 -0.002787339 0.0018531645 -1.05642706E-4 -0.0023481697 0.0016615369 0.003091447 -0.0025209594 0.002717182 -0.0012128497 -9.698059E-4 0.0010436252 0.0015415606 4.8546933E-4 -0.00294569 -0.0034690248 0.0033007627 -0.0020872527 -0.0010828833 7.956306E-5 -0.0031047473 0.0034690439 0.0011571144 0.0012214918 -0.0011591045 -0.0035151357 0.0016271985 -6.500307E-4 5.656841E-4 -0.0013997041 0.0019464558 0.0017145876 0.0026577644 -0.0011576787 0.0035954977 1.9954494E-5 0.0011112597 -1.5520543E-4 -0.0011744157 0.0027094963 -0.0035481937 -8.69776E-4 -6.2483957E-4 -3.4212306E-4 -0.0013659183 -0.0025626537 -0.0022676862 -4.5945856E-4 -0.0031580138 -0.0019614343 0.0010319606 -4.76949E-4 0.0034866964 0.0013568007 0.0010338471 -0.0037162628 -0.0013228321 -9.982124E-4 0.0021222474 -8.082663E-4 0.0021873047 6.2445505E-4 -6.0947856E-4 -0.0020882457 -0.0029093924 0.003554175 -0.002366097 0.0027128165 1.8725776E-4 -0.0018632907 -0.0013319502 0.0022569615 -8.5188E-5 -0.0038232997 -0.0011977905 0.00393073 3.8829268E-4 9.5501286E-4 -0.0033185726 -7.840712E-4 0.0023546543 -5.2574545E-4 0.0029412557 -0.0033385688 -0.0015016604 -7.538653E-4 0.0013740537 -0.0031117 0.0030388248 0.0025019667 0.002801331 0.0012717152 -0.0020128253 -0.0037853143 -3.6741543E-4 -0.0013881596 0.001396536 -0.0014340908 -8.885679E-4 0.0035537102 0.0033396275 0.00219978 1.4020057E-4 0.003484389 -9.0458215E-4 -0.003967035 0.0020024516 -6.2706973E-4 -0.0024180852 -0.0033028054 -0.0019440331 0.00173531 -0.0010222746 0.0035788314 0.0019134379 0.003397144 0.0014257445 0.0022186672 0.0016232411
29 -4.6893914E-4 0.0010750582 0.0032545032 -0.0024325226 8.860109E-4 0.002473341 0.0031488047 0.0031412803 -2.3972664E-4 -0.0030669128 0.003239556 0.0033141107 0.003320705 0.0012224988 0.0025790404 0.001329125 -0.0014010486 0.0031563938 0.0010020728 -0.0029839687 0.0017402854 0.0028185265 -0.0011223168 -5.8018655E-4 3.4160813E-4 8.4801024E-4 -2.1837496E-4 -2.47222E-4 5.5499584E-4 0.0011929529 0.0015639241 -0.0035046202 0.0013767127 -5.7969966E-5 4.4714406E-4 -0.0016776184 -3.504798E-4 0.0032205041 0.0012064492 -6.217519E-4 0.0024397827 -3.5015805E-4 9.436186E-4 0.0030180197 2.123564E-4 0.003205417 -0.002485481 0.0024321345 0.0011238225 -0.002619508 -4.1350434E-4 0.0010348305 0.0039659874 4.977404E-4 -0.0022233299 -0.0038267183 0.0015101108 0.0013728823 6.7853177E-4 -0.0014654547 0.0029424792 -9.63216E-4 0.003132047 -0.0023820365 -0.002195659 -0.0013464984 0.0027486375 -0.002028306 0.0014547633 -0.0023931449 0.00161338 2.0582904E-4 0.0020057093 -0.0034820882 0.0012473855 -0.0032127644 -0.0015028125 -3.2473417E-4 -0.0024850836 0.001035435 -0.0022176486 -0.0033875282 0.0011139414 -0.0013529569 -0.0016206153 -0.0039216606 -7.259338E-4 -0.0021585843 -0.0012849867 0.003083498 -4.704434E-6 2.623371E-4 0.0038928546 -0.0038211425 -0.0011870528 0.0020716253 8.714698E-4 0.0023033586 4.490454E-4 0.0025435153 -0.0022428299 0.0013554088 0.0039038162 -3.0253187E-4 0.00173377 3.1997735E-4 0.0031390467 -0.0031967552 -0.001815986 -0.0017400862 0.0031887197 7.4115186E-4 0.003610034 -0.0029115651 0.0021177623 9.7080786E-4 0.0033566293 0.0014833701 -0.0017468632 -0.003410894 1.33865E-4 0.003004448 0.0030915383 0.0020481227 4.7253133E-4 3.736463E-4 0.004073368 0.0011226711
20 0.003350904 0.0026641833 0.0033442518 -0.0018419254 -0.0037918913 0.0016062116 -9.15473E-4 -0.0038072437 -0.0033796101 0.0033398748 0.0018740173 -0.0012802365 0.0038717536 -0.0017473642 0.0017529404 -0.002447454 0.0037369432 0.0025473195 -0.0034966257 -9.870038E-4 0.003549194 0.0019748716 0.0023360837 -8.2100224E-4 0.0017692996 7.36765E-4 -0.0024730559 6.8187475E-4 -0.0019395053 0.0036608109 0.0023077598 -0.0038462877 -7.904017E-4 6.7358016E-4 -0.0018049018 7.2867604E-4 -8.00882E-4 0.0037322438 -1.05483006E-4 -3.220474E-4 -0.0016155625 0.002255811 -2.0901626E-4 -0.0017964124 0.0018582222 0.001256455 -0.002613144 -0.0038505604 -0.0032408522 -0.0024101206 -0.0014697105 0.0028231954 -0.002946249 -4.224481E-4 0.0031975862 0.0023492654 -9.0158277E-4 1.1333357E-4 0.002442984 0.002570631 0.003252571 -0.0038054965 -0.002779679 0.003869869 0.0026460653 -0.0010370949 -9.017824E-5 0.0034442476 0.0031914318 -7.4250065E-4 -0.0010648436 2.1945179E-4 -0.0029813352 0.0026775198 0.002433004 0.0010796154 0.0024927328 0.0019598147 0.0011008017 -0.003661159 -0.0020865642 0.0022131726 0.0034664087 0.0010298829 0.0011650389 -0.003033549 -0.0032330127 0.003053925 0.001260983 -0.0026058604 -8.444521E-4 -6.106296E-4 6.585711E-4 -0.0024045254 0.0025516625 -0.001994303 3.8214633E-4 -0.0036422287 -2.4993188E-4 0.0034675736 -0.0011387547 0.002985324 7.309036E-4 0.0010147492 0.0012738346 -0.0035928686 0.0020688185 -0.0026555713 -0.0025171228 0.0035480016 -2.4123193E-4 0.0024311973 -3.6795027E-4 8.602622E-4 8.53113E-4 -0.0014395509 -7.3618704E-4 -0.0037343595 0.0033129074 0.002375617 0.0026115954 -0.0012216176 0.0011049196 -8.4037083E-4 -0.003728609 -0.001784432 2.590322E-4 0.0014457717
30 -0.0012531233 0.0040068566 -0.002649317 0.0034597828 -0.0031984397 -6.865316E-4 -0.0024508643 0.001937647 0.002617189 7.2357967E-4 -0.0023373703 -0.0023325484 -0.0031472028 -0.0031377673 0.0018948977 0.003780949 0.0010711474 6.4782443E-4 -0.0021266828 0.0016445572 -0.0023121757 7.456993E-4 0.0034043451 0.0036322302 -0.003923126 7.9667004E-4 0.0010178613 -0.001959439 0.0037078408 0.0031206657 -0.0035340865 -4.2349604E-4 0.0033312042 0.0022630391 0.003524329 -0.0017490882 0.003007585 -0.0020018108 2.2256139E-4 0.0013629936 -0.0024440668 -0.0031448784 2.9320845E-5 -7.9681416E-4 -0.0022415768 -0.002068507 -0.0020634397 1.6385767E-4 4.89999E-4 0.0019110972 0.0027150868 -0.0023493778 -0.0031415238 3.7484203E-4 -0.0034727117 0.0029259007 -0.0020724214 9.3553733E-4 0.002917076 0.0025569769 0.0018115948 0.0026860007 -0.0012486001 3.3415016E-4 0.0028915075 0.0027194817 3.6662017E-4 -0.0017371958 -0.0027845502 -0.001977202 -0.0014114672 6.474988E-4 -0.0012007848 9.413894E-4 0.0025571357 0.0011594843 0.0030742679 8.9511345E-4 -6.940103E-4 -0.0024169504 0.0039095706 -0.0029014384 0.0022075877 -6.489154E-4 -0.0035838946 -0.0034561234 0.0033427882 -0.0022739647 0.0035244133 0.0040805074 0.0017687052 -3.6843034E-4 0.0033567995 7.5816683E-4 -0.0010401141 0.003897853 7.436896E-4 -1.05495776E-4 1.4937588E-4 3.255972E-4 0.001008266 -6.9019814E-5 -1.8226674E-4 -0.0036830085 0.0010636684 0.002825768 0.0033870828 0.0025404533 0.0027306648 -0.0010588622 0.003211675 7.2552044E-5 -0.0018706195 9.884232E-4 -2.2282281E-4 -0.0035071475 -0.0034028888 -3.0747947E-4 7.3900615E-4 0.0028318458 1.9970845E-4 0.0036689788 4.6025473E-4 1.6541367E-4 -6.396931E-4 -0.003170612 -0.0031535046 6.641952E-4
9 -0.0026371593 0.0032576579 -0.0031070344 0.002562614 2.0689507E-5 -0.0010269453 -0.0011141568 -0.0018305646 -0.0032967504 0.0012912524 6.141278E-4 9.22633E-4 -4.046551E-5 2.1434829E-4 -0.0017070415 -0.0015565817 -0.0029779822 0.0019864198 -0.0031613773 -0.0028373913 -7.6862756E-4 0.0014864313 -0.002539787 0.001387271 -3.0099633E-4 -0.0018155003 8.449872E-4 -0.0033348908 -0.0022410722 -0.0015412515 -0.00102114 0.0014022142 0.0024550753 -0.002512544 -0.0028658418 0.0034976094 -0.0017315424 -5.065648E-4 9.106835E-4 0.0037054766 6.326657E-4 0.0034895944 -4.997984E-4 -0.0032382489 0.0038617179 0.0030128756 0.002533094 0.0034080204 4.1527947E-4 -7.390226E-4 -8.333685E-4 -7.3610856E-5 0.0040128566 -0.0023123436 9.0989005E-4 -0.0033957516 3.5769647E-4 3.52511E-4 -4.7503138E-4 -0.0038328192 -6.797195E-4 6.148354E-4 0.0014544439 -0.0026028878 0.00281826 0.0029728513 -0.0035681706 -0.0011095938 0.00335994 -0.0038806302 -0.0021540043 -0.0021882122 0.0037309907 -0.0036081977 -0.0034256156 -8.0012745E-5 0.0029867154 0.0010115528 0.0025936214 0.0018611884 0.0016961467 -0.0011552807 0.0022031826 0.001109587 -4.5031568E-4 -0.0040077195 8.522513E-4 -1.0463328E-4 -8.5344166E-4 0.0024610742 -2.725871E-5 0.0037847909 0.0019018344 0.003013424 -0.0034371058 -8.522542E-4 -0.002132036 0.0023005365 -1.9659348E-4 -0.0018806395 0.0030337307 0.0013956502 0.0023032469 -2.409796E-4 6.8172446E-4 0.0029453195 -0.002480406 -0.0013143881 -0.0029189938 5.844732E-4 -0.002622844 -4.251355E-4 0.0036705304 0.0018937947 -0.003131702 -0.003133838 0.0010516628 -0.0038540326 0.003863284 -0.0019174162 -0.0037086268 -0.0034141836 -0.0022629537 -0.0016303245 -6.051582E-4 -0.003767404 0.002624121 -0.002158674
28 0.0017511098 -0.0023263874 8.928676E-4 0.0016080715 -2.993024E-5 0.002347069 6.8019464E-4 0.003062296 0.0031411017 -3.4339112E-4 8.6408894E-4 0.0012223547 0.0010648253 0.003604009 0.0019256535 -0.0027522184 0.0020828696 2.0364056E-5 -0.0034102972 0.0034775082 8.557057E-4 0.0022294815 -0.0028565782 -8.240688E-4 0.0010517115 0.0010479271 0.0032721495 0.0029195712 1.2968486E-4 0.0021351427 -0.0017340067 0.0011834521 0.0010099884 0.002865035 -0.0012906588 -6.6687865E-4 -2.89578E-4 0.0037999568 7.422704E-4 0.0010597474 -0.0025482553 -5.1627157E-4 -5.3486874E-4 0.0027335552 2.4426365E-4 0.0029326086 0.002520632 -0.0036650437 -0.0014544723 0.0019339075 -0.0020519316 0.0017651004 -0.0023915996 3.8961487E-4 -0.0033849392 -6.644138E-4 0.0034459834 0.002451984 -0.0011007373 0.003568192 8.985124E-4 -0.0010098569 -0.0018899422 -9.773655E-4 6.340336E-4 0.0012826022 0.0020291824 -0.0033937662 -0.0017843497 0.0032282607 -0.0023864247 0.0027885896 2.3081203E-4 -0.0029258355 -0.0015023312 -6.4687704E-4 -0.0032059203 -0.0031415508 -0.0013702357 0.0038533355 0.0019247296 -0.0018002122 4.6585803E-4 0.0011893014 0.0019082777 0.0017717588 0.002983872 -0.0014350784 -9.0817997E-4 -0.0022982694 0.0032884453 0.0016119708 2.4645491E-5 0.0032643653 0.0032052887 -3.4264405E-4 -0.0020788745 0.0036334791 0.0015345339 -0.0012911935 0.0031492508 0.0017651174 -0.0015614193 -0.002873321 -0.0026860866 8.546428E-4 -0.0037610994 -0.0018658964 -0.001356835 0.0024536354 5.6929316E-4 0.0031904934 0.0016117112 6.116051E-4 -7.368361E-4 5.312997E-4 -0.0025917978 -7.814185E-4 -0.0020542482 -0.0018866777 -0.0028805744 2.6785178E-4 0.0035060705 -0.002718214 0.0014602023 0.0019202082 -6.535765E-4 -0.0038101028
7 -4.4882722E-4 -0.002359453 -0.0039383243 -8.478752E-4 0.0013553681 -0.004060792 -0.0026574102 7.390588E-4 -0.0043219025 -0.0038375598 -0.0011906427 -0.002226768 -0.0011422684 -5.9267227E-4 0.0013705473 -0.0017293681 -5.849004E-4 -0.0020339733 0.0022862242 5.344121E-4 -0.0013805749 0.0033510558 0.0018949354 5.3269843E-5 0.003863838 -0.0028412414 0.0022071183 1.7222122E-4 -0.002836052 -0.0015943913 -8.535211E-4 6.614141E-4 -0.004128733 -0.0039733406 -7.3397177E-4 0.0029305248 -0.0014277683 0.0012082839 0.0026626426 0.0031483578 0.001451633 0.0025687553 -0.001106512 0.0018352028 -0.00217629 0.0015631253 -0.0027469266 0.0021537666 -0.0016675823 0.0036216546 -0.002151297 0.0022506649 4.1189312E-5 -0.0026858153 0.002796519 0.00326078 -0.0023672986 0.002914498 -0.0030115717 0.003690449 -0.0017761063 5.996004E-4 -0.001275877 5.9377094E-4 -0.0032994263 9.7236596E-4 0.0014070385 0.0012977638 7.9148106E-4 0.0039430773 0.0027565018 -0.001891066 -0.0035286045 -0.0031269775 -0.002683013 -8.707578E-5 -0.0035369573 3.1352238E-4 -0.001182195 -0.002638758 -0.0031017526 0.0017571424 -0.0026236358 -0.0045958995 -5.537187E-4 0.002937569 -0.001447083 0.0015371072 -0.0039906325 -0.0038483394 1.3158159E-4 0.0014199124 0.0010202867 -0.0019540424 -0.0027457767 8.935382E-5 -0.0015232323 -0.0019369652 0.0036708286 -0.003438251 0.002835518 0.003601555 0.0030998439 5.969204E-4 0.0011479487 0.0021573962 -0.0033655637 -0.0026424746 -5.7290244E-4 -5.906635E-4 -0.0028229784 0.0028944341 -0.001580377 9.2802546E-4 0.0035065177 -0.002935514 -0.0014931667 0.0038659957 -0.0026043574 -0.0013405083 -0.0037054361 0.0037551676 -0.0026971104 -0.0011694856 0.0020969976 -0.0017827456 0.0015095775 0.004226326
6 4.2673407E-4 0.0018159662 0.003729949 9.208461E-4 -0.0030094536 0.0012642518 -0.0034703715 9.167125E-4 1.2405727E-4 -0.004230158 0.002451146 0.0026102092 0.0040628216 0.0031475374 -0.0033082804 -0.0025350153 9.4360934E-4 -0.0029338242 -0.0010077113 -0.0011547722 2.0179586E-4 0.0012362631 0.0010546914 -0.00363211 0.0016237206 -0.0022996766 0.0024312006 0.0016545474 -0.0027284846 -2.3465844E-4 -0.0037898899 0.0035599424 -0.0029464015 0.0027097387 2.4382224E-4 0.0045487457 0.0036550665 -2.1992163E-4 -1.414196E-4 -0.0019010525 0.0041614375 0.002099507 -0.0041801417 0.0038780738 -8.4902527E-4 -0.0037691048 0.0024920912 5.452159E-4 -0.0030764064 0.003118846 -0.0042205243 -0.0037758765 -0.002761033 0.0033899464 -0.0028770072 9.822642E-4 -0.002094046 0.0030853539 -0.004256443 0.0040117623 0.0046187663 1.4125621E-4 0.0024089974 -0.0014440021 -5.5573235E-4 -0.0032078614 0.001310893 0.0012707681 -0.0029255126 0.002999849 -0.0023114802 -2.9559087E-4 -0.0043970007 0.003556932 -3.6011508E-4 -3.6571943E-4 -0.0023246885 -0.0031810133 6.705766E-4 -0.0037532416 2.903403E-4 -0.003671344 0.0034102637 -0.0037797506 -2.1338747E-4 9.9220815E-5 0.0028378516 -0.0026159924 -0.0016535099 -0.0025870586 -0.0028666498 0.0017153329 4.4283377E-5 0.0014295203 0.0016756451 0.0030382478 5.35827E-4 -4.2620522E-4 -0.0016701068 -0.0037674282 0.0014430598 0.0015328283 6.3325895E-4 -0.0038945638 -0.0031392085 -0.0015448234 8.0084056E-4 0.003905055 -0.0024810843 -0.0041751466 -0.0023128442 -0.0022794555 -0.0020439941 -0.0029279008 0.0012510081 0.002466971 -0.00222681 -2.5609985E-4 -0.0031483031 -0.002067953 0.0025602803 0.0036755397 0.0012149349 0.0021077832 -0.0018441781 0.0017699545 -0.0022281252 -0.0017378561
8 -7.3914656E-5 4.550199E-4 -3.6998965E-5 0.0015862106 -0.00288515 0.0040579266 -0.00295536 -0.0015157872 0.0026083994 0.002778033 -0.002688744 -0.0017993548 1.6635505E-4 -0.0038433254 9.2023023E-4 0.0010677482 -0.002466984 -0.0023808063 0.0027298408 0.0017877506 0.0031467516 -2.6207278E-4 -0.0017746679 -0.002598537 0.0015886714 -0.0017078827 0.002450107 -0.0018864431 4.7191244E-4 -8.2054286E-4 0.0038008892 -0.0024347568 -0.0026585325 -0.001953715 0.0038531965 1.6148937E-4 -8.3935016E-4 -5.5621396E-4 -9.579071E-5 0.0034214351 0.0034116236 0.0028246662 -0.002504224 -0.0028073562 0.0024392593 -7.5622136E-4 0.0037608854 -0.0032943103 -0.0024627524 -0.0018787126 0.0033953567 0.0038707508 -0.0014723417 0.0025802664 0.0032633806 -9.946109E-5 0.0017805482 7.679275E-4 0.003288282 -0.0031775732 9.7579206E-4 2.5238458E-4 7.407684E-4 -0.0014352589 -0.0023035514 0.0012003825 0.0027995137 -1.4246226E-4 0.0025435085 -0.0031779998 -0.0020731268 -0.0029326328 -8.790849E-4 0.0032459677 0.003525993 0.0025410324 -0.0027281418 -0.002444534 0.0034176179 -0.0010273319 0.0017047839 -7.869163E-5 -5.3416064E-4 7.0206187E-4 -0.0011782718 -9.31611E-4 -0.0036201058 -0.0018780418 0.0010861093 -0.0018088782 -1.1779611E-4 -0.002703919 -0.0032751462 0.0035011435 1.4904131E-4 -0.0022552935 -8.673457E-4 2.4109395E-4 0.0023531036 6.5544306E-4 0.001518464 8.732911E-4 -0.0012700428 -7.1038236E-4 0.0026784781 -0.00346496 0.0035901037 -4.280338E-4 -0.0029305958 -0.0021864534 0.0038768281 0.0017116686 9.049591E-4 6.7060656E-4 -0.0011306123 -0.0036857175 0.001304732 -6.9695606E-4 -0.0029279657 0.0015937476 0.0032186327 0.0036656403 -0.0017282972 -9.4672566E-4 -0.0029496164 0.002622909 0.0013781631 0.0018845802
24 0.0012962527 -9.112866E-4 0.002680976 -5.6365603E-5 0.004357428 0.0029644668 0.0031272226 -0.0024922676 0.001996566 0.00458758 -0.0045186654 -6.703697E-5 -0.0013660002 -0.0032485733 0.0038184354 -0.0021145272 -0.0026421223 5.615459E-4 0.0031889644 0.004506556 -7.849217E-4 0.00400821 -0.0013144928 0.0036671364 -0.0032360181 7.8386796E-4 7.528512E-4 0.0019563949 0.0011110691 4.0473492E-4 -0.0012647046 0.0013418568 -0.0014502504 0.0023667344 5.02703E-5 5.6116347E-4 -0.0036035664 -0.0025290966 -0.0049821744 0.0038447701 -6.382306E-5 -0.0045414357 0.0016817977 -0.0030704394 0.001822612 0.0015785211 0.003986596 0.0031413164 0.0019507835 -0.001079102 0.0018389099 -0.00272111 0.0017888255 4.7362162E-5 0.0032550187 -0.0028798373 0.0033419707 -0.0024364349 -5.107122E-4 6.927679E-4 -5.2412576E-4 0.0015069313 8.358456E-4 -0.0031726994 -2.740229E-4 0.0011063995 0.0035882571 0.002857092 -0.002146135 0.002740735 -0.0029912589 2.0362926E-4 6.1981694E-4 8.462815E-4 8.9372194E-4 -0.0042714854 -0.0013058482 -5.655239E-4 6.1266683E-4 -8.102342E-5 -0.002103303 -0.003571611 0.0012964559 0.0017548569 0.003957122 7.6527125E-4 0.003610323 -0.0022864393 0.0033189268 0.003145857 0.0015029717 0.0016223993 0.0021056805 4.2932148E-5 -0.003198199 -0.0020078067 -0.0026975004 9.907151E-4 -0.003133607 -3.3936687E-4 0.0024415338 -0.0032237861 -0.00357891 0.0030213224 3.9935892E-4 0.0031055235 -0.0011433635 -0.0011994881 0.0036229012 0.0019673582 3.6810662E-4 -0.0014983666 7.0529967E-4 -0.0012800391 2.2229857E-5 -0.0021084053 -0.0019008595 -9.725296E-4 -3.7880562E-4 0.0024744528 0.003139053 0.0035624309 -0.0015850873 -0.0024532545 0.0028280583 0.0016382973 3.1802288E-4 -2.1895894E-4
14 -0.00224447 -0.0012228112 0.0023500058 0.0037182337 -3.425956E-5 0.0013143455 -0.0014189081 9.5759775E-4 5.333159E-4 0.0013962578 0.0017703555 -0.003021838 0.0027121394 -0.0019981663 0.0015424456 -8.429565E-4 0.0014128684 0.0016449542 8.703863E-4 0.0021585575 -0.003449725 -6.959545E-4 7.0125025E-5 0.0012011159 -0.0022785054 0.0015966434 0.0030392776 -0.0038001998 -5.230398E-4 -0.0015704542 -0.0030510551 0.0019627197 -2.0119258E-4 -6.842883E-4 3.4580138E-4 -0.0023792116 -0.001774221 -0.0021520534 -0.004206747 -0.0027375862 -0.0023431587 -0.0029083497 -0.0010863742 -0.0028506974 -0.0023090919 0.002255179 0.0011285967 0.0017947773 9.862652E-5 -0.0024616916 0.00393821 0.0021949331 0.0010466004 -8.9696713E-4 5.7205406E-4 -0.0018537956 -2.9463615E-4 5.374259E-4 0.0019587849 -0.002039582 -0.0011366885 0.002603635 -8.3537056E-4 0.001743998 0.0038258831 0.0033673372 0.0015169736 2.1929188E-4 0.0015212712 0.0021967783 0.0028202748 -2.6425437E-4 3.1947272E-4 0.0027101787 -0.0011494455 0.002168913 -0.001521045 -0.003895917 -0.0038642809 0.003007166 4.435742E-4 2.1393869E-4 0.0025144499 -6.89919E-4 -0.0013558196 -0.003480305 -1.0888533E-4 0.0019309823 -0.0012819227 0.0035966274 -0.003760421 9.1191113E-4 0.0014254831 -0.003054044 0.0029297855 -9.352814E-4 0.0027302608 -0.0011064523 0.00354327 0.0029258367 -9.982168E-4 -0.0038661186 0.0036906123 -0.0020115585 -4.7734063E-4 0.002301327 9.804645E-4 -0.0016899446 -0.003447019 0.003130716 -0.0021348165 0.0022038685 0.003839796 -8.2670624E-4 0.0037755803 -0.0023255732 -0.0023288634 -0.0028292602 0.003723983 -6.4561603E-4 -0.0017088716 0.0011074864 0.0016552614 -0.0035639005 -0.0031453988 -0.0022378655 0.0034861881 -0.002305499
32 0.003945992 0.0035835244 0.0014456352 0.0017761746 0.0026693898 -0.0022030482 -0.0017414575 -0.003958169 0.0028885505 0.0038205169 -0.002693005 0.002149698 7.204174E-4 0.002221979 0.0012686207 7.4494636E-4 -1.6537214E-4 8.2175946E-4 -0.0025341897 -0.0019413967 0.0015865178 -0.0011642576 -0.0016739462 0.0039709597 -0.0030268 -5.215189E-4 -0.0030799536 0.0035012513 -0.0017629134 0.0013855833 0.001184015 0.003848592 0.001955106 0.0016818226 5.801726E-4 0.0013841654 -2.464711E-4 0.0024243225 3.6363784E-4 -0.0016468639 -0.0013254464 -0.0019091851 0.0017277132 -0.0027966227 0.0022470118 0.0032604965 0.003310619 0.0018169882 -9.7029627E-4 0.0030491045 0.0032152038 3.0731477E-4 0.0018170669 -5.495796E-4 -1.5661723E-4 0.0032800662 -0.0014080197 -6.077384E-4 7.146798E-4 -0.0010295277 -0.0046537127 -7.03909E-4 4.3081742E-4 -0.0010255254 -0.0010939147 0.0025508218 -5.416489E-4 -0.002939261 -0.0019256119 -0.0029943865 -0.004402649 0.0037115787 -9.5747906E-4 0.0034229944 9.306491E-4 0.0029489242 -0.003504454 -0.0022164541 0.0015858633 8.668423E-4 5.206094E-4 -1.901268E-4 -0.0029402366 7.6292106E-4 -0.0014674714 -0.0015712078 -0.0032214895 -0.0037303031 0.0030419843 7.894026E-4 4.3676788E-4 0.0023448379 0.0013403321 -0.004268817 0.0037392084 0.0029145514 -0.0029582346 -6.5292836E-5 -0.0031678702 0.003981913 -0.0017868446 0.0029004163 -7.3361193E-4 0.0031582608 -1.355939E-4 -0.0022930757 0.0022700955 5.5810495E-4 -0.002379417 -0.0012669539 -0.001067459 0.0024718866 -0.0022633441 -0.0031708642 -0.002382504 0.0039617787 -0.0017252938 -0.0031721087 0.0039361822 7.003546E-4 0.0028854355 -0.0018972764 0.004021444 0.0025679693 -6.772878E-4 -0.001600368 0.0018084311 -0.0026257827
4 -8.4131234E-4 0.0036714743 -6.0476887E-5 -0.0024954635 0.0010873133 0.0025390123 -4.960314E-5 0.0015111825 -0.0017142771 0.0031113161 -0.0028434177 0.0041189473 -0.004505165 -0.001075086 -0.003535684 0.002209041 7.608237E-5 0.0017145941 -0.0023834063 0.0016472475 -0.0018171896 0.0029518825 6.4401693E-6 -0.0036562744 0.0018716899 0.0030363647 0.002089954 -0.0035155977 -0.0043708575 -0.0023532026 -6.349115E-4 -4.8251613E-4 5.620787E-4 0.002331723 0.0012671775 -9.053821E-5 0.0014484503 -0.003749961 -0.0026898037 7.306984E-4 0.002821297 -0.0014140549 0.003770165 -0.0020257763 0.0025226802 -0.003947086 -4.2798076E-4 5.81055E-4 -4.2911162E-4 0.0033207338 3.2261983E-4 -0.0023477694 -8.108927E-4 -3.05832E-4 0.0023890163 0.0027066178 -0.0010840107 -8.2394574E-4 -0.0037623283 -0.002704747 -0.004299789 -0.0022197084 -0.0038815427 8.740946E-4 0.0020858722 -0.0039530606 0.002781339 0.001036022 0.0018359096 0.0021781693 -1.7219812E-4 -0.0014021375 -0.0023571097 -0.0013964542 -0.0029764508 0.0014288463 0.0019493172 -0.0031764114 0.0011637599 -4.7224484E-4 0.003875748 -0.0031841164 -0.0018438873 0.0025129262 0.0041074883 -0.00166046 0.001179247 -0.0042073433 -0.0033445514 0.0032216578 0.001074844 -0.002249996 0.0010430611 2.047056E-4 -0.0026599593 -0.0012992708 -0.0021356926 0.001280208 -1.7966269E-4 0.0021596863 -0.0025636426 -0.0017115157 -0.0030686173 0.0038266454 -0.0017890019 -0.0020072781 0.0035437392 0.0016403003 0.0017403368 0.002223335 0.003343635 -3.006678E-4 -0.00241425 -0.0037626992 3.6563657E-4 0.002172374 0.003896991 0.0013006459 -5.0358934E-4 -0.0029235755 0.0016469972 -0.0023731024 -9.701058E-5 0.0014495539 0.0037983572 0.0016324025 -0.0013931675 0.0013613851
2 0.002927425 0.004046734 -0.0025821233 0.0019396467 0.0014175795 0.0025254637 0.0040047956 0.00250104 9.5305813E-4 -0.0025538013 0.0038679368 0.0019557192 -5.5119005E-4 -0.002105403 8.8922103E-4 -0.00356229 -0.002664505 -6.8015704E-4 -0.0016861681 0.002740648 1.5666644E-4 0.0017292293 -0.0017958567 -0.0014158444 0.0035990623 0.0010376151 -0.0019093081 -0.0016869552 -0.0029420045 0.0011277305 0.0028655652 -0.0023150053 0.0014466911 0.00110412 0.0013187217 -0.0034561956 -0.0016537542 0.0030637179 -0.0022420594 -0.0022748506 -0.003529797 8.266916E-4 0.00382032 0.00195821 5.7841756E-4 -0.0010079402 0.0038216712 5.0015154E-4 2.3543146E-4 -0.00326341 -0.0037062482 -0.001153855 0.0020172982 5.1770185E-4 -2.1625483E-4 8.442168E-4 -0.003658889 -0.002398458 -0.0013351934 0.0020609428 -0.0015174652 -0.0036261394 -0.0023601535 0.0033788898 0.0030483042 -5.813462E-5 -0.0016271225 0.0034419005 -0.0033584686 -0.0015846001 -5.6481885E-4 -7.2413136E-4 0.003823557 0.0038219036 0.0026589625 -0.0020854159 0.0020329922 6.351721E-4 -6.251111E-4 -0.0037266132 -0.002770213 -9.2874933E-4 0.0024030071 9.018057E-4 0.0037687495 3.8196502E-4 0.003762777 -0.003613224 -4.2684056E-4 0.003800429 0.0036287766 -0.001820938 -0.0027266766 0.0013302526 1.2865347E-4 0.0035178438 -0.0024854965 -7.889865E-4 -0.0018153075 -0.0018984581 -0.0041877604 3.978034E-4 0.0032865691 0.0025658463 -6.824074E-4 0.0012688881 0.0021123649 -0.0036381576 7.573587E-5 0.00240142 0.002840886 -0.0031786698 -0.003366335 -0.002800964 0.004006498 -9.3881896E-4 1.8080132E-4 0.003067603 0.0012711138 -0.0037336089 -9.6258393E-4 0.0027149671 0.0018082074 0.0026661318 8.227129E-5 -0.0019784542 0.0013292035 0.002849225
3 0.00312162 0.0019507663 4.0492753E-4 0.0022618265 0.0043952856 3.3529082E-4 0.0027604226 1.9587496E-4 0.002649375 5.585497E-4 -0.0022108397 6.3972666E-6 -0.0023789727 -0.002506413 -6.338803E-4 -0.0026763761 0.0038993373 -2.3730175E-4 0.002611394 0.002986019 -0.0035180328 -7.8350893E-4 -0.0021555144 -3.0001145E-4 0.0011943408 0.0015737581 5.654827E-4 0.0014574659 -5.8202515E-4 0.0014220894 -6.464497E-4 -7.876432E-4 -9.045225E-4 0.0030957186 -3.4577804E-4 0.0011038258 -0.0019285338 0.0018957646 -0.0026008105 0.0010511355 9.5261354E-4 0.0033772353 -0.0019071862 -5.582217E-4 -4.226952E-4 6.8046723E-4 -7.9883944E-4 -0.0022601325 0.0020361873 -0.002767319 9.4832404E-4 4.938402E-4 0.002697412 -0.0019914971 -0.0012092246 0.003992446 -3.085167E-4 -0.00405939 0.002081846 -0.0035877856 -0.0033580703 -4.5788853E-4 0.0022172434 4.9681857E-4 -0.0035118186 -0.0022966233 -0.0013472716 -0.00398524 0.002131059 -2.788389E-4 -0.0017580288 -0.0021826476 -0.0016672905 -5.518081E-5 -0.0016559062 -2.760772E-4 -0.0018757962 -7.234723E-4 3.672475E-4 -0.0015011345 0.003264222 0.0034193387 -0.002356584 0.0016207239 -6.9592986E-4 -0.0039197598 -0.002494253 0.0010574998 0.0033539522 3.9318146E-4 -0.0013930592 0.0026499836 0.0032575782 -0.0013380882 -0.0023372811 0.0021011857 -0.0031003004 9.185747E-4 9.4582554E-4 0.0034873935 0.002730299 2.155242E-4 6.5241696E-4 -1.2420784E-4 -0.0031158084 3.7881845E-4 -1.198281E-4 -0.00263134 -7.4094033E-4 -0.0017786504 0.0028537011 0.0011830708 0.0035457567 -0.0023828894 -0.0011029587 0.0028383336 7.9218054E-4 -0.0017430955 0.0039076563 0.0010241925 0.002718131 -0.00416737 0.0042091943 0.0022442632 0.0017914554 -1.4616494E-5 5.712251E-4 -0.001550746
33 0.0026287264 0.0015791717 -0.0021637892 0.001031622 -7.835088E-4 4.508921E-4 0.0014906308 -0.0043297694 0.0046794275 0.002808735 7.67888E-4 -0.0013703423 -0.0030157217 -0.0020488314 -1.161658E-4 0.0021717194 1.1915108E-4 -0.0025682577 0.0039819744 0.0013670794 -5.203535E-4 -8.149662E-4 -0.0016576492 0.00222788 -0.003424809 -5.7330716E-4 -0.0043577724 -0.0012178255 -0.0016326722 0.0010769779 -0.003422618 0.002897491 -0.0028603117 -0.001968126 -2.6889588E-4 -0.0020048607 -0.0024771544 -0.0028572248 -0.004668031 5.2551494E-4 -0.0035773541 -0.0035105895 0.003298436 0.0032397604 0.001521336 -0.0034013006 -0.0010792079 0.0028930542 0.0033225159 0.002332199 -0.001203269 -5.513177E-5 0.004404242 -0.0019858587 -0.0019293365 -0.001390629 4.445416E-4 -0.0035642157 0.0036294444 -0.0014607089 -0.0051047225 -0.0016631703 0.0024128468 0.0029483144 -8.917611E-4 0.0034897376 0.003320298 -0.0022678287 0.0047526164 -0.0035460955 -0.0048622047 -1.2733451E-5 0.0036889948 -0.003257406 0.0032507554 -0.0044915797 -0.0028559996 0.0024315552 -9.806802E-4 -1.8166447E-4 0.0015460678 0.0030919027 0.0014711217 0.0031839618 0.0035143497 -0.0014984686 0.0015220554 0.002194685 0.0036940684 -0.001305193 -0.0028619957 1.48766E-5 -0.0034667468 8.010308E-4 8.041811E-4 -3.0673778E-4 2.388681E-4 -5.116346E-4 0.0010527321 0.004742212 -0.002051927 9.5123996E-4 -7.902852E-4 0.0018454731 -2.3497564E-4 -4.1729034E-4 -0.003338092 -0.003725318 0.0050595454 0.0027072118 0.004149981 0.0026611337 -7.556348E-4 5.701694E-4 0.0019128836 0.0030250368 9.782192E-4 0.0021420908 0.0029443437 2.751423E-4 -0.004048293 0.0029578211 0.0010424746 5.46299E-4 -0.003454728 -0.004774601 0.0020347363 8.134934E-4
1 -0.0048465617 -0.0011305518 -0.0024778233 -0.0011119585 0.0028757716 -0.0021659327 0.0036384542 0.0024241556 -0.0021267533 -0.0034299039 0.0022438688 0.0037052114 -0.0031994733 1.27121E-4 -0.0014030378 -9.278273E-4 0.0035085024 0.0037366636 -4.6344777E-4 0.0034655943 -0.0025719248 3.5810495E-5 0.0017948984 7.226E-4 0.003778742 9.399113E-4 -0.0019704583 -7.141398E-4 -0.0029089048 0.0012077166 -0.0013111974 -0.0013373432 -0.0020413706 -0.0044427146 4.6381E-5 -0.0027524114 0.0035272697 -5.935129E-4 -2.912269E-4 0.0030168903 0.0038037805 0.0032114147 -2.8447105E-4 -0.0026322082 -0.0015860124 -7.373743E-4 -0.0019900228 0.0026297877 6.52915E-4 4.648149E-4 0.0021024873 -0.002357563 0.0029379283 -6.3661835E-4 -0.0035469993 0.0014503627 0.0027341775 -0.0022643148 -0.0030063593 -0.0032802012 0.002608932 0.0012405235 4.4270928E-4 0.0018226574 0.004269222 -0.003235884 -0.001499651 6.646594E-4 0.0014022549 -1.4190644E-4 0.0040299664 -0.0047054077 0.0015290044 0.0012132026 -3.8327478E-4 0.0042054653 -0.00414335 -0.004450049 7.144249E-4 0.0022854756 0.0020934946 -6.1556575E-4 -0.0011112083 -0.0029856719 -0.003831191 0.0037760672 0.003739966 6.984331E-4 -9.118439E-4 -8.5736974E-4 -0.002661781 0.001113766 7.1255513E-4 0.0022211575 -0.0027840054 -0.0012112191 0.002609867 -2.5166365E-4 0.0033274696 1.6709688E-4 -0.0036460746 -0.0040497403 -0.0030836873 0.0011671546 -0.0013106375 -0.00253781 -0.0034372876 7.448584E-4 -0.0047488096 -0.0030857355 -0.001320107 -0.0028816909 0.0022803934 -0.004317995 1.9571044E-4 -1.4780294E-4 5.290704E-4 0.0033792225 -0.0012948625 -0.0040339283 2.819472E-4 -0.0013167647 6.017021E-4 -0.003449825 0.0026795138 -0.0015365995 5.4545526E-4 9.95066E-4
34 0.0047667013 0.0014453172 0.003851731 -9.279138E-4 3.3950421E-4 0.0044829515 -0.0037874242 0.0012994695 0.004689867 0.0037254733 -0.0055017527 0.001342415 -0.0037226796 -0.005395934 -7.986239E-4 -0.003185565 0.0024211293 -0.0042443057 0.0060127643 0.004752266 0.0014167127 0.0020497523 0.0010073883 0.006658879 0.002600671 -0.003831053 -0.005773968 7.762763E-4 -0.0015355358 -0.004166153 0.0019656885 0.001978731 0.0044297203 0.0031763327 -0.005034456 -0.0049061934 -0.0011872108 0.0013365155 -0.0067884387 0.005102125 -0.0044955574 -0.0051756185 -5.70643E-4 -0.001642215 0.0029432725 -0.003144523 0.0038521148 0.005999986 0.0027347899 0.004596232 0.0038369303 0.0023801152 0.001183086 -4.4467338E-4 0.0010468153 0.0018012354 2.9468467E-4 3.9478142E-5 0.002781955 -7.071441E-4 -0.0056025744 0.005184252 -1.1565277E-4 0.0023728185 -0.00514326 -6.5193017E-4 0.0010245237 -0.0031480547 0.005063518 -0.004919296 -0.005326848 0.0044625727 0.005568769 0.004493145 0.0052050496 -0.0041999333 6.72886E-4 0.002449915 -0.003761055 -7.1297516E-4 0.0041580754 -0.0010050663 0.0026083689 0.0064632935 0.0024985685 -0.002668659 -9.6819666E-4 -0.0043950654 1.7706507E-4 0.0022819536 -8.5968955E-4 -0.0020655969 0.0024738486 -0.0027316713 0.0034668655 0.003916361 -2.042966E-4 0.004340063 -7.2620437E-4 -3.8688866E-4 0.0019510386 7.452686E-4 0.0045147557 0.0010457054 0.0023410188 0.0029969388 -7.6146843E-4 -0.0057570697 0.004260826 0.004326411 0.003747608 0.0030869634 0.0020454202 0.0018115757 -0.0038888848 0.0013964364 -0.0038784104 0.0042321556 0.004685622 0.003561028 -0.0038839018 -0.0045547467 0.0015954543 -0.0022946203 -0.006102442 -0.0057616387 0.0032281794 -0.0013252868