34 128
12 -0.029561838 -0.009234837 0.008597733 0.007764027 -7.375245E-4 -0.014997615 0.026814353 0.0024847283 -0.0031308886 -0.04449432 -0.016676944 1.8532953E-4 -0.016313862 -0.010229856 -0.0131781995 -0.010782714 -0.01735122 -0.005556387 -0.016457848 -0.0050171595 -0.03980437 -0.009807528 0.010458193 0.009175607 0.0033704867 -0.004061266 -0.004036464 -0.019066447 -0.03865844 0.022816263 0.0090743 0.008805503 0.00894062 -0.01938073 0.0035630823 0.002452781 -0.0067218714 -0.003012244 0.008267729 -0.007877933 -0.008715523 0.0135217095 0.028117785 -0.0102235265 -0.027496312 -0.028612003 -0.008548519 -0.006172583 0.008167076 -0.023330957 -0.026046095 0.029538058 -0.015842864 -0.004101601 0.0035779227 -0.0054521305 -0.001978125 0.014078034 -0.011966522 -0.0064871605 -3.7759263E-4 0.014050883 -0.016235765 0.0022823836 -0.0041612275 -0.031329934 -0.016373806 0.019858833 0.018220728 0.001749114 -8.875887E-4 -0.025518525 0.0076443274 0.019689932 0.014952773 -0.03443481 0.011019259 -0.0027716921 0.010167322 -0.010443351 -0.0064784423 0.039547578 0.010774933 -0.008436044 0.014773219 -0.008857331 0.0041248742 0.022553088 -0.0011989926 -0.0076162913 -0.004736442 -0.018851323 -0.0124436775 0.006747968 -0.0016966 0.0061846566 0.00981973 0.027396105 0.0141438 0.008903218 0.0042395885 -0.002387786 -0.024681786 -0.023594303 0.028642785 -0.014925897 0.0016832749 0.0037510283 -0.03236171 -0.0034784505 4.042133E-4 -0.024639629 -0.008664749 -0.01816816 -0.0048376573 0.018914385 -0.008511475 0.015036666 0.014322399 -0.025021836 -0.012174127 -0.021656876 0.023434011 0.009048975 -0.0059878994 -0.011584887 -0.015866451 -0.0051483605
27 0.03805967 0.0083383685 -0.003572396 -0.008657412 5.6975E-4 0.017111886 -0.008899836 5.483568E-4 -0.009292167 0.057814598 0.04118683 -0.0042751525 0.030666301 0.0038764966 0.030099709 0.009727895 0.005442625 0.017214028 0.026553897 0.025685763 0.06002726 0.0080360295 0.00464831 0.010522792 -0.010333901 -0.01363838 0.0017517052 0.037990868 0.033161465 -0.009193478 -0.006513153 -0.009593342 -0.015536864 0.010716908 -0.009369382 0.007230279 0.005697257 0.008501864 -0.0037215296 -0.015548964 0.017381586 -0.018225018 -0.04385793 0.013802986 0.018905206 0.03102925 0.009065032 0.028453162 -0.008116943 0.021678925 0.018870858 -0.038492918 0.002374562 0.004597596 -0.007642006 -0.0013531385 -0.007846433 -0.020438585 0.023441005 0.021185838 0.0025961266 -0.03581587 0.017231233 -0.014728259 0.0019108114 0.03884815 0.031335644 -0.008674659 -0.007170653 0.005426824 0.014923749 0.015070043 0.002301958 -0.01894776 -0.008333223 0.050706506 -0.002539467 0.023357539 -0.010762147 0.0030669337 -0.003997167 -0.055959504 -0.0012859872 0.021763317 -0.021564526 -0.0029194667 -0.014060617 -0.003903897 -0.0026314086 2.1944876E-4 0.005692965 0.00828527 0.0135236075 -0.005873974 -0.024237059 -0.0058529912 -0.0023571036 -0.042638376 -0.022847598 -0.009709095 -0.007625099 -0.003441522 0.014623567 0.03296857 -0.03825989 -0.0029073253 -0.011747262 -0.011759004 0.038119256 0.017323337 0.011238698 0.02535698 0.01992713 0.033075526 0.01783974 -0.0066945995 0.0033864668 -0.026462331 -0.018861596 0.033128563 0.0201696 0.03430563 -0.049055908 0.0038920587 -0.0031434575 0.025797887 0.031139757 -0.005532679
18 -0.054476544 -0.016565049 0.008126093 0.023235446 -0.0050199875 -0.013129697 0.049592707 0.015062333 -0.004041445 -0.068951175 -0.038484223 -0.0018376899 -0.031858634 -0.01485886 -0.016531924 -0.019805454 -0.022770822 -0.01810982 -0.024719108 -0.008780603 -0.07008067 -0.02680312 0.03094854 0.01547232 -0.009347511 -0.0030524074 -2.438825E-4 -0.03367594 -0.066694394 0.03328318 0.0076250453 0.011756725 0.013773982 -0.049308065 0.013420305 0.0053989 -0.03075391 -5.269425E-4 0.012570423 -0.015176331 -0.015586269 0.024373703 0.041608598 -0.018339703 -0.046137407 -0.04820839 -0.027240057 -0.006699788 0.011005866 -0.03557625 -0.047769226 0.06483151 -0.028493818 -0.012526461 0.0070633525 -0.0036186716 0.0010797562 0.019938223 -0.021431651 -0.018168673 0.010458414 0.030746367 -0.037681215 -0.005218731 -0.01003826 -0.054039825 -0.017559074 0.034455225 0.036307834 -6.269482E-4 0.013888132 -0.041337807 0.020098679 0.02902735 0.020469364 -0.06388003 0.035032284 -0.010247014 0.016502343 -0.028023653 -0.020405265 0.06729108 0.008648864 -0.013473623 0.02151597 -0.009714585 0.011005344 0.044735964 -0.007076266 -0.02555398 -0.007836684 -0.040664535 -0.029362926 0.006203824 0.0016047868 0.00779205 0.010980883 0.046705272 0.028354015 0.015895749 0.006703702 -0.010165441 -0.0378627 -0.037482284 0.053911056 -0.023265565 -0.0014272747 0.015434989 -0.057215765 -0.0022581804 0.013551283 -0.048481587 -0.010197482 -0.043459903 0.0067109135 0.03075554 -0.0025373516 0.025206331 0.015940601 -0.037922617 -0.018520333 -0.04147076 0.040991675 0.015787961 -0.00395193 -0.025355007 -0.028102795 -0.0070784353
10 0.0072909743 3.9814223E-4 -0.0027996285 1.6690952E-4 -0.0020646811 0.0055095446 0.010934484 0.009150749 -0.007477446 0.017689582 0.017391326 -0.0033513524 0.007877099 -0.0021955417 0.018463537 5.9265434E-4 -0.006691836 0.008320732 0.006136023 0.015531109 0.020275394 -0.0046704602 0.009189271 0.011310121 -0.01731255 -0.004311202 0.007024362 0.018829878 0.0027106137 0.0026715396 -0.0053788116 0.0024742808 -0.0047549256 -0.01304443 0.0026685977 0.013071462 -0.01011584 0.009131151 0.0025828967 -0.014640647 0.0034651882 -0.002618316 -0.012637701 0.00930005 -6.702226E-4 0.002119418 -0.0054994277 0.01938977 0.0031122495 0.008802338 -0.0014930734 -9.84172E-4 -0.009271622 -0.0025194625 -0.0059561264 9.26267E-4 -4.6643658E-4 -0.0089941025 0.010693343 0.010789628 0.010128179 -0.015650392 -0.0029499845 -0.012479532 -0.0011338476 0.0069924677 0.018228024 0.0055978624 0.006357049 -5.890291E-4 0.0143156145 -0.0019315731 0.0130598685 -0.0037816276 -0.0030180085 0.014409881 0.010806875 0.010537727 -0.0031550082 -0.006012572 -0.010528332 -0.01203936 0.004585014 0.005913958 -0.009062748 -0.0030233331 -0.0035170845 0.011933903 -0.00656541 -0.008616511 0.003057372 -0.0048768953 0.0026169333 -0.00171055 -0.015064791 0.0023491543 0.0025513803 -0.01834484 -0.010706399 0.0024134952 -0.005359062 -0.004833756 -0.006753948 0.012577628 -0.0079898015 -0.00900061 -0.008825761 -9.487285E-4 0.005265036 0.013215036 0.01842245 -0.0016186783 0.015614503 0.006585816 0.010902122 0.012489273 0.0053136856 -0.011557787 -0.013643299 0.009426093 0.011442347 0.003989179 -0.015638955 0.009092664 0.0021559626 0.0068465313 0.004869426 -0.0041829417
19 0.031034881 0.008850324 -0.0052517555 2.7896528E-4 0.002083197 0.018507803 0.004852636 0.00827314 -0.013300548 0.04975859 0.040969353 -0.004998329 0.022845548 0.0025251869 0.029143509 0.0044901967 0.0020075317 0.01781047 0.02247392 0.02749211 0.05477932 0.010219777 0.008343512 0.013644999 -0.01908732 -0.013945518 0.009749817 0.039706774 0.023668911 -0.0040125195 -0.008196253 -0.007669459 -0.010835307 -0.003940903 -0.0049113333 0.0114649 -0.0012765073 0.010086673 5.913018E-4 -0.023988167 0.015839439 -0.011013707 -0.035804633 0.012408531 0.01757831 0.025687454 -0.0054864413 0.027827285 -0.0069302497 0.016266886 0.008505209 -0.024366174 -0.0068246312 -3.224076E-4 -0.015547039 -0.004196003 -0.0071887053 -0.02369274 0.024514578 0.020320201 0.0045415866 -0.034536082 0.01447491 -0.016337262 0.0019877204 0.03302781 0.03534451 -0.0074882056 -0.0020421252 0.0017449956 0.01686225 0.0035942579 0.009239031 -0.008923859 -0.012701048 0.04155766 0.0048699155 0.024243912 -0.010671933 -0.006118192 -0.0066888053 -0.051249515 0.0018585806 0.021914925 -0.019573646 -9.0662215E-4 -0.011625626 6.456927E-4 -0.006937499 -0.0099591995 0.012424889 -0.0036112135 0.014332995 -0.0045692525 -0.027399413 -0.0020575037 -0.00212683 -0.03694988 -0.020974403 -0.0068017575 -0.010075639 -0.007451577 0.0045170947 0.026511187 -0.024997836 -0.015413147 -0.009656556 -0.008276684 0.031847123 0.020327011 0.018335832 0.019463237 0.024221629 0.024276339 0.019940373 0.005907374 -0.0025850078 -0.028937312 -0.020422567 0.035686832 0.019567648 0.02684951 -0.04432721 0.0060185757 -3.2883516E-4 0.024880178 0.02974146 -0.014692758
16 0.040584512 0.004621348 -0.0053140786 -0.004672832 -2.9361923E-4 0.013045734 -0.01427493 0.003941717 -0.011068163 0.053403556 0.030727688 -0.004742403 0.025013452 0.0063284524 0.027406616 0.0052067293 0.0060611116 0.019862887 0.024417704 0.023945753 0.05195398 0.012727412 -7.857981E-4 0.008419804 -0.010644616 -0.005616604 0.005427798 0.037438773 0.02998114 -0.00998285 -0.004711919 -0.010390027 -0.009044121 0.015156925 -0.009234577 0.006305695 0.007992209 0.009650243 -0.008020222 -0.009725048 0.017850537 -0.012909167 -0.036755785 0.018904217 0.025763357 0.030585626 0.0080902465 0.022287793 -0.0033970878 0.021026982 0.018312803 -0.033411354 9.385428E-4 0.005508081 -0.011493116 0.001736561 -0.004845229 -0.017407754 0.021467915 0.023797609 0.0045072823 -0.027602252 0.016940635 -0.014073814 0.004295018 0.033028215 0.029264277 -0.017114336 -0.012015757 -1.3366871E-5 0.005366816 0.019717313 0.0058696605 -0.01428018 -0.010875114 0.04148379 -0.0027895195 0.019504964 -0.00983564 0.00875995 -0.0011460746 -0.050116632 0.0031977838 0.023211516 -0.015672093 8.4760756E-4 -0.016096137 -0.009252964 -7.839222E-4 -0.0013874713 0.009016377 0.008208239 0.01588046 -0.0019082511 -0.0171726 -0.0031163215 -0.0070954063 -0.042206988 -0.020135982 -0.007386376 -0.008973908 0.0013204654 0.014674109 0.028711658 -0.033452563 -0.0014328682 -0.008482306 -0.009376164 0.040959243 0.012731442 0.010780647 0.027787741 0.01579788 0.029873323 0.012274204 -0.008567414 0.0023147813 -0.03130646 -0.017755909 0.029628383 0.016723335 0.028240446 -0.039098393 -1.7686166E-4 0.003582736 0.018459188 0.028541923 -0.0032772536
17 -0.032813378 -0.0056848205 0.010489944 0.016066674 -0.0060645416 -0.017759532 0.028484179 0.007999397 -0.0085614 -0.05045757 -0.02104578 -0.004522586 -0.020687627 -0.01399614 -0.0115577355 -0.012313515 -0.019259198 -0.005032443 -0.02398304 -0.007831687 -0.047971744 -0.0067375577 0.01969881 0.011013284 0.0014282267 -0.01562952 -0.004566824 -0.02420993 -0.049137544 0.031165231 0.0039459867 0.0056940895 0.005704081 -0.026011594 0.005700822 0.0049638283 -0.012980029 -0.0034163664 0.004793914 -0.012622772 0.0020943284 0.01874427 0.031099783 -0.02134838 -0.03284783 -0.027865797 -0.01765156 -0.008388082 0.0024438705 -0.021573756 -0.03287503 0.04008864 -0.015492511 -0.008229359 0.013285625 -0.0032334002 0.0039713015 0.022954242 -0.0145398 -0.008997783 -0.010473775 0.01555114 -0.018824942 -0.0057055783 -0.0061376765 -0.033061955 -0.021926913 0.024109922 0.029236108 -0.0074910424 -5.2113156E-4 -0.031079944 -0.0027289812 0.025729124 0.014899164 -0.034506656 0.014068969 5.3376134E-4 0.01685044 -0.014584815 -0.0029051886 0.045514446 0.017692791 -0.008636455 0.024769926 -0.01653967 0.005840439 0.029220602 -0.0025806143 -0.014838396 -0.010506864 -0.024168985 -0.009766496 0.0031241514 0.003972917 0.0032102966 0.008526939 0.037076406 0.023016673 0.006905874 0.0019294474 0.0030163375 -0.036102246 -0.0227027 0.024634117 -0.016501253 0.007685912 0.002909857 -0.043583725 -0.00960191 0.0026516754 -0.021913592 -0.004717088 -0.022656832 4.3611942E-4 0.016986828 -0.0116863195 0.020000288 0.019574173 -0.022158757 -0.008566546 -0.01390586 0.034778457 0.01199097 -0.013316434 -0.013849475 -0.014108651 -0.01143057
13 -0.052447923 -0.010732924 0.008855674 0.020196795 6.5378076E-4 -0.014114816 0.05046718 0.016269349 -0.008560843 -0.068749845 -0.031466573 -0.0030606638 -0.030014437 -0.0132739935 -0.013474658 -0.02178638 -0.028748974 -0.012873097 -0.02272476 -0.0040975856 -0.06513489 -0.018622048 0.033440337 0.014868826 -0.012361532 -0.008340748 -0.0055936384 -0.03268364 -0.06918462 0.035635848 0.009395947 0.01359442 0.008632231 -0.044711474 0.010000026 0.0092981905 -0.027614832 -0.002117872 0.0152111985 -0.018598441 -0.013328384 0.028286701 0.044326477 -0.019850446 -0.04142013 -0.048016295 -0.0295846 -0.0013452184 0.0077202423 -0.033922847 -0.05401433 0.058596376 -0.028504523 -0.016528707 0.005775475 -0.006255089 0.004207435 0.019970322 -0.013576871 -0.0123557225 9.0901874E-4 0.020301625 -0.037043493 -0.008290316 -0.006423477 -0.05388452 -0.015602818 0.03631738 0.043457825 5.561594E-4 0.016363876 -0.042731684 0.018491777 0.029026134 0.018542167 -0.057574917 0.032638147 -0.0014775934 0.017149298 -0.023295121 -0.019158306 0.06460822 0.01386383 -0.015149813 0.024731105 -0.013574889 0.00865621 0.043340467 -0.005475933 -0.027523227 -0.0086278925 -0.039591014 -0.024411097 0.012006571 -0.0021875694 0.009218227 0.015636817 0.038319282 0.023113 0.012315968 -4.5023288E-4 -0.009848907 -0.043645248 -0.03196128 0.04568792 -0.028347848 0.0018807439 0.012509183 -0.058415007 -0.0041447384 0.0094703855 -0.042831633 -0.0059868894 -0.034291685 0.0068252296 0.032020442 -0.008952756 0.025557537 0.019011373 -0.036597036 -0.013276347 -0.03330433 0.039795365 0.014118162 -0.0079306755 -0.022538068 -0.032301918 -0.0047832695
21 0.039583903 0.004378922 -0.0023125464 -0.0064164135 0.0014158752 0.016102033 -0.0068733846 0.0062521524 -0.012093472 0.053375624 0.038368195 -0.0013341581 0.022985237 0.0010337926 0.02472169 0.010346159 0.0046051694 0.018173588 0.024896223 0.026285388 0.05934758 0.008651689 -8.1404396E-5 0.014927812 -0.016532544 -0.007340207 0.002892009 0.040723246 0.031149218 -0.00658499 -0.010776645 -0.0056551434 -0.012511003 0.0124008 -0.005419392 0.00997655 0.0029278924 0.00611968 -1.6516773E-4 -0.019770026 0.017371584 -0.017409744 -0.0419719 0.017657395 0.022742426 0.029340213 4.088834E-4 0.028202254 -0.0071314657 0.025196526 0.017805437 -0.036997966 7.37495E-4 0.002015035 -0.008991164 3.8936696E-4 -0.007803237 -0.024845686 0.024078855 0.022218106 0.0036172688 -0.028822714 0.015951272 -0.017852325 -4.0876082E-4 0.034912203 0.02948065 -0.013334937 -0.0061966525 0.005359177 0.015818158 0.013773338 0.008893319 -0.018394785 -0.010142501 0.041184083 -0.0021781598 0.02755339 -0.011538792 0.0014481716 -0.0018980254 -0.052805018 0.0047293724 0.024811516 -0.017206432 -4.5449895E-4 -0.015335915 -0.010357441 -0.003530084 -0.004338476 0.007249112 0.0024088793 0.015397983 -0.004232217 -0.021531595 -0.0044363807 -0.004127486 -0.04208533 -0.020117726 -0.011827834 -0.0060497755 -0.0061161146 0.01195888 0.030220099 -0.036391605 -0.007124278 -0.008615854 -0.014046206 0.03883045 0.020293595 0.017628783 0.025063513 0.02065191 0.0320719 0.017745731 -0.00498175 4.9561076E-4 -0.03213514 -0.020882038 0.034151606 0.01940506 0.025946543 -0.045819737 0.0024960027 0.002683178 0.024560662 0.025073789 -0.008235548
23 0.043520235 0.00661256 -0.0067216023 -0.014557637 0.004607856 0.019407429 -0.020685997 0.0010632311 -0.0028579624 0.05634607 0.033003762 0.0012078581 0.027078046 0.01005612 0.021196958 0.008787796 0.009945686 0.019744415 0.022332888 0.017228615 0.060497556 0.01532013 -0.007123838 0.0051525217 -0.0022167906 -8.3637866E-4 0.0013933085 0.034243427 0.0420736 -0.015162938 -0.010388634 -0.007878236 -0.013494535 0.018110313 -0.008342278 0.006777638 0.013420172 0.0055985404 -0.0042528105 -0.0069924314 0.012561133 -0.020473326 -0.0403556 0.0191503 0.028533945 0.034689527 0.009673551 0.018746134 -0.0071085347 0.02554543 0.02513803 -0.03975491 0.0065931114 0.0030724625 -0.007340527 -8.17035E-4 -0.0033589795 -0.023579493 0.024535347 0.020215727 0.004833502 -0.027098428 0.01993243 -0.008444304 0.0045368974 0.0390879 0.023659226 -0.017351788 -0.018583966 0.0014846114 0.0068932767 0.023492891 5.289016E-4 -0.023762494 -0.017669763 0.05077291 -0.015532245 0.015404133 -0.018177038 0.009620332 0.007654746 -0.052146465 -0.0025543757 0.020337798 -0.018105997 0.004726385 -0.011153899 -0.019492647 -0.0011171665 0.008237547 0.01303824 0.015383401 0.015471807 -0.0050805155 -0.008575678 -0.0029005788 -0.0056513026 -0.044108152 -0.02522428 -0.010865075 -0.00998484 -6.639351E-4 0.022012021 0.030220201 -0.03725507 0.008924912 -0.009512601 -0.012289931 0.045345027 0.017024418 0.003963533 0.02894328 0.01465813 0.031137422 0.011900086 -0.009600656 5.3323974E-4 -0.031351022 -0.014587122 0.036397237 0.018082557 0.033546057 -0.041551568 -0.0036607876 0.005662212 0.017362567 0.027531685 -4.7519605E-4
15 0.036244582 0.009583811 -0.0014511688 -0.006706198 0.004188625 0.018038433 3.278639E-4 0.00488721 -0.019032896 0.057950396 0.035827186 -0.006956167 0.026093265 0.0035687773 0.03508526 0.003225601 0.004366885 0.020671211 0.026863076 0.03443005 0.05738525 0.0070914137 0.010145023 0.016858209 -0.021579739 -0.015494018 0.00873428 0.04375525 0.02445566 -1.0977922E-4 -0.0063233203 -0.0056490465 -0.008650225 -6.7623705E-4 -0.00750105 0.0132760415 0.0029677716 0.011394024 -0.004854718 -0.029862292 0.023733588 -0.018752916 -0.042598195 0.015074599 0.015932342 0.028432233 -0.0028312893 0.029298589 -0.003708673 0.02228915 0.00977005 -0.03197722 -0.0049416614 -8.8492816E-4 -0.013751582 -3.5838055E-4 -0.008084524 -0.027859438 0.02545677 0.027010351 0.0047773253 -0.036634263 0.01481382 -0.020907022 0.0014994076 0.0377265 0.035401277 -0.0032813482 -3.0698575E-4 0.0050947545 0.022122337 0.008800395 0.015157665 -0.0142896 -0.015053891 0.041704733 0.00477048 0.025027355 -0.011903587 -0.0061423094 -0.0070546977 -0.055235308 -7.010663E-4 0.021986276 -0.021818878 -0.002013352 -0.014766194 -9.96249E-4 -0.008047473 -0.0029425798 0.009811168 -0.004913926 0.011994564 -0.001193676 -0.028236508 -8.7501365E-4 -9.5266424E-4 -0.04239487 -0.02427615 -0.0074687772 -0.010160291 -0.0016028908 0.0075228717 0.028091902 -0.030176554 -0.008768254 -0.008499992 -0.0074805683 0.03266723 0.020398287 0.019068368 0.018142793 0.026864717 0.034283448 0.022104183 0.004779181 6.961353E-4 -0.034188125 -0.022179302 0.039145853 0.02527604 0.031429168 -0.045892294 0.007807379 -0.0019776265 0.020687653 0.031849835 -0.008245084
22 -0.04825228 -0.007245511 0.0075661717 0.014351227 -0.0058464166 -0.019601097 0.02575671 0.0034428907 0.0051503642 -0.059478343 -0.037163757 -0.0014738338 -0.029841278 -0.009689397 -0.023151923 -0.014046581 -0.015092389 -0.014966147 -0.02637226 -0.017608888 -0.059537735 -0.018939909 0.014901826 8.771894E-5 0.004136639 0.0053009656 -0.0017004387 -0.03237019 -0.049064312 0.02043019 0.0057870937 0.012555888 0.010925967 -0.023920681 0.01419769 -7.360569E-4 -0.016149549 -0.0024321591 0.012481724 0.0015503094 -0.01804326 0.016784709 0.045097765 -0.014583702 -0.031505752 -0.03399739 -0.01804064 -0.017608086 0.009554739 -0.030013613 -0.031814355 0.045238916 -0.010375838 -0.0018104505 0.009541343 0.004375812 0.0025488476 0.02440679 -0.023135215 -0.022821799 0.0047212993 0.027091261 -0.02524813 0.00582311 -0.0080278 -0.04271104 -0.025180312 0.025341835 0.023194293 -0.002099272 0.0035066598 -0.028485136 0.00238241 0.02157971 0.012298457 -0.053471915 0.012934859 -0.012812774 0.016421288 -0.012045112 -0.0073205903 0.062238995 0.0026981358 -0.021707073 0.016540473 -0.0077691968 0.014719665 0.026327956 0.0027425613 -0.0062286197 -0.0076431637 -0.01787328 -0.024546824 0.0040120464 0.009286379 0.008784889 0.0070380243 0.0415699 0.019927701 0.013016735 0.008233518 -0.0051761544 -0.024753422 -0.03553985 0.04550457 -0.010512896 0.0066425684 0.014271674 -0.045526154 -0.015676063 -0.0017092879 -0.036371503 -0.0094765145 -0.032542452 -0.0023080944 0.017466009 -0.0044031544 0.03072717 0.0148747675 -0.03245507 -0.022753198 -0.0384073 0.041644923 0.004515155 7.775306E-4 -0.023426374 -0.026390553 0.0051677707
20 -0.026746018 -0.009634166 0.0063083284 0.006187181 -0.003918869 -0.007976003 0.024915392 0.004767088 7.4316317E-4 -0.027575301 -0.010933448 -0.0023032385 -0.014892239 -0.008644372 -0.005767029 -0.012884773 -0.008719518 -0.00782237 -0.013392798 -0.0016978371 -0.024735127 -0.012056597 0.017021105 0.0057421545 -0.0046119876 -0.0020304283 -0.002729167 -0.015351584 -0.026423559 0.010701866 0.0017240118 0.0037812283 0.0015396675 -0.02754783 0.008321116 0.0032707357 -0.012572297 -0.0011289214 0.008212169 -0.010258069 -0.008879038 0.008489096 0.014519189 -0.003930659 -0.018250927 -0.023940973 -0.013647349 0.0024391126 0.007163902 -0.014447102 -0.0231574 0.028895209 -0.014337433 -0.0075276294 0.005445353 -0.0041010957 4.0934293E-4 0.008840753 -0.009569521 -0.009437158 0.009748328 0.009689796 -0.013023872 -3.45598E-4 -0.006753821 -0.019243497 -0.0020413394 0.016182825 0.01891046 -0.0010328614 0.011456626 -0.02246998 0.011606421 0.013478936 0.00644673 -0.027812684 0.012987293 -0.0035422042 0.0015968912 -0.011386113 -0.009117963 0.02531647 -0.0014589456 -0.004267343 0.0045354245 -0.0054345815 0.005994562 0.022237822 -0.0057405136 -0.010646801 -0.003218556 -0.019796593 -0.015284147 0.0028646977 -7.163706E-4 0.0053053866 0.009615578 0.01672275 0.012269015 0.007663365 0.0041841725 -0.0071747587 -0.01953658 -0.013690032 0.02596809 -0.010509021 -4.7580438E-4 0.006483377 -0.02046854 1.1694921E-4 0.0074184784 -0.022940801 0.0031708265 -0.013202722 0.0014345169 0.018741092 -0.0017912693 0.012728309 1.6022605E-4 -0.018553576 -0.0036235815 -0.020545864 0.018967414 0.008785257 0.0024467437 -0.009166874 -0.014679196 0.0013792012
11 -0.09117139 -0.018228801 0.018416932 0.037610322 -0.0031844163 -0.041862447 0.06850705 0.022741169 -0.008140392 -0.12953365 -0.049934853 -0.004334541 -0.056088235 -0.026018744 -0.0349699 -0.035574004 -0.044206306 -0.027524464 -0.054972775 -0.020219725 -0.11453427 -0.030681768 0.041944355 0.018456517 0.0057124686 -0.020440482 -0.005325441 -0.059685513 -0.11538561 0.061736673 0.021196613 0.015743926 0.014972089 -0.056853622 0.017962638 0.003601572 -0.029739603 -0.00946591 0.01719067 -0.014154177 -0.014766223 0.049369954 0.083282284 -0.044134125 -0.07659256 -0.073466554 -0.031813726 -0.018170629 0.012193486 -0.055796705 -0.08017473 0.095056474 -0.035554104 -0.020902082 0.021270122 -0.009379029 0.002374596 0.050129525 -0.031238362 -0.01988503 -0.013331352 0.03901645 -0.05181165 -0.0064479318 -0.012492596 -0.08436119 -0.04521059 0.050857265 0.06355796 -0.0033982734 0.0031832813 -0.067569286 0.0033020067 0.056464627 0.04087463 -0.084835455 0.04132146 -0.0079728905 0.042960245 -0.038480673 -0.012471269 0.10608215 0.03346427 -0.027601348 0.052596107 -0.027950374 0.01975506 0.07020834 -0.009231688 -0.03609262 -0.02242066 -0.057642996 -0.028080603 0.009413905 0.0071064145 0.0072295363 0.023302497 0.0803829 0.05077957 0.024034034 0.005119259 -0.0029973711 -0.071078405 -0.059325065 0.069485895 -0.037768036 0.014994934 0.012910348 -0.10810299 -0.01818325 0.0075727697 -0.06319303 -0.016688729 -0.062427938 -0.003946285 0.04095261 -0.025871933 0.059425227 0.046031773 -0.063711606 -0.030278496 -0.05330743 0.08374335 0.018686904 -0.018541282 -0.04018051 -0.042448845 -0.014404353
31 0.007677067 -0.0043024602 0.002554014 0.010168661 -8.9480105E-4 0.01465112 0.026509527 0.012273182 -0.017802313 0.02009893 0.023579666 -0.0063555543 0.010662868 -0.009543865 0.025112199 -0.008307966 -0.009913525 0.00910567 0.012235424 0.022938946 0.028116152 -0.0058216155 0.021112205 0.025426216 -0.02738364 -0.010937179 0.004932064 0.030350067 -0.008118566 0.01022949 -0.004390121 0.005965869 -0.009493649 -0.027531335 -0.0017149408 0.02244088 -0.012970855 0.010657848 0.011005177 -0.038254183 0.013371467 -0.0050410065 -0.017678194 0.009091437 -0.0034814146 0.0010557561 -0.012378253 0.026112925 -0.0014990821 0.0042125965 -0.01802369 0.0051257573 -0.022175984 -0.0037254728 -0.008513187 -0.0029895066 -0.005845244 -0.01706561 0.018218303 0.016834555 0.01676016 -0.019017968 -0.001115499 -0.023425233 4.7496153E-4 0.007042427 0.027323391 0.011135729 0.01710995 0.0036170315 0.02814349 -0.013941588 0.020838454 0.003762083 -0.0011029529 0.015033547 0.025770703 0.024492666 -0.0040180157 -0.012749974 -0.013924653 -0.020985028 0.0097981095 0.01401742 -0.01201443 -0.005211054 -0.011627619 0.021965155 -0.009271852 -0.016771724 0.009902353 -0.02449287 2.7448547E-4 5.2959647E-4 -0.028686747 0.0073749865 0.0048922854 -0.019805228 -0.010427 -0.0025443893 -0.0092912065 -0.006553556 -0.016841851 0.014535241 3.6764544E-4 -0.022060217 -0.008861432 -0.0055978424 0.0046466766 0.019810716 0.029705739 -0.009292647 0.022804776 0.007417722 0.028061539 0.01915344 0.004505384 -0.019356532 -0.017483337 0.019564942 0.014640555 0.009044118 -0.025263483 0.018315662 0.001412664 0.011476087 0.014718423 -0.017317895
25 0.0154326055 0.0072328583 0.009948992 0.022559939 0.0014445533 0.011069369 0.06742767 0.04062359 -0.046946306 0.032553393 0.055698942 -0.025654959 0.02144556 -0.026095152 0.05790396 -0.024167083 -0.039652936 0.027182616 0.024593377 0.06636005 0.044358082 -0.005312966 0.06330732 0.067014344 -0.038991388 -0.052407864 0.015554304 0.05936486 -0.04910391 0.053831898 -0.008163319 0.0060575916 -0.01868448 -0.047513954 -0.01115594 0.056869216 -0.009991153 0.009922439 0.014886737 -0.08916707 0.040617783 0.0057109585 -0.039826725 0.010060437 -0.02614092 -0.0022542148 -0.03123747 0.065828815 -0.0042459005 0.003480761 -0.057900585 0.012716453 -0.06537799 -0.02652211 -0.013602506 -0.018181736 -0.011928439 -0.010937626 0.045160927 0.047107864 0.00899618 -0.055051614 -0.019289427 -0.0587708 -0.0045055547 0.008092254 0.05130306 0.03519205 0.050804675 0.003974237 0.05413431 -0.049516313 0.03797427 0.021075556 0.011505341 0.039202593 0.050581567 0.074251965 0.0034104295 -0.04746813 -0.027439954 -0.036925305 0.043912213 0.03736521 -0.0023924662 -0.03601494 -0.022895303 0.08296295 -0.039065104 -0.05365763 0.009897327 -0.0693135 0.011270945 0.004142708 -0.07355553 0.004280553 0.015600812 -0.034336094 -0.0068072327 -0.010590174 -0.023592882 -0.01521589 -0.06459909 0.029117268 -0.023782207 -0.076503694 -0.022801748 -0.015572938 -0.011373671 0.04219731 0.06134792 -0.011555358 0.047621418 0.023695145 0.056119498 0.05595431 -0.018311767 -0.028555484 -0.011478329 0.03237553 0.036605462 0.034508053 -0.0538498 0.036083583 -0.02056987 0.025268951 0.034175884 -0.055386122
5 -0.08291072 -0.010764689 0.017241798 0.029511753 -0.0031868927 -0.03207246 0.06762059 0.018388204 -0.0063890424 -0.11785888 -0.04597498 -0.0064820508 -0.05263514 -0.023237722 -0.030279359 -0.03319291 -0.044857614 -0.026418207 -0.04898431 -0.017001644 -0.105265655 -0.023058461 0.037356693 0.01975333 -0.0026850023 -0.015609286 -0.00625886 -0.053574637 -0.10673131 0.057068907 0.013713158 0.018647447 0.016504724 -0.058703966 0.016377347 0.0041587492 -0.025990473 -0.0083297845 0.016633097 -0.014768885 -0.012285377 0.04310986 0.074163534 -0.037613697 -0.070436314 -0.065945484 -0.033110175 -0.015798325 0.017285934 -0.05506961 -0.07919062 0.094592914 -0.035236925 -0.015415939 0.019035125 -0.0043295706 0.0062716505 0.04384415 -0.029322762 -0.019914595 -0.005460701 0.031756513 -0.046516795 -0.0031897302 -0.010992524 -0.08156166 -0.03958165 0.046568565 0.056601215 -0.003988627 0.003179074 -0.067696415 0.011120444 0.047986366 0.03473894 -0.0834986 0.04275236 -0.002880217 0.032189205 -0.034118947 -0.016922686 0.10075824 0.032335654 -0.024180805 0.04813584 -0.028124882 0.015593833 0.063484564 -0.0062312013 -0.03490232 -0.019701658 -0.052064516 -0.032529444 0.010821705 0.0075143 0.009930349 0.01971402 0.075470455 0.040643875 0.018738206 0.00969124 -0.005520843 -0.063795276 -0.054614637 0.067139894 -0.03675663 0.009457335 0.013100621 -0.0938391 -0.013389372 0.009627012 -0.057879113 -0.01826769 -0.056669272 -0.0056226235 0.045118313 -0.02205997 0.049276553 0.03561733 -0.058104277 -0.029753624 -0.052218493 0.07500625 0.021933418 -0.010419008 -0.037191514 -0.04222419 -0.016461605
29 0.0044253133 0.0029006817 0.006768202 0.017479166 0.0047486853 0.013195741 0.059766706 0.03178292 -0.03128654 0.02378469 0.040922247 -0.012159479 0.0136755 -0.019741539 0.047498323 -0.022891104 -0.03626832 0.014501403 0.012544394 0.046670996 0.03448703 -0.0060934755 0.055362493 0.051609706 -0.042090908 -0.036005933 0.006851725 0.043495283 -0.040804088 0.041717652 -0.0056524407 0.003301502 -0.012326357 -0.052444417 -0.0041853846 0.03845936 -0.022147657 0.013068111 0.01593372 -0.0742337 0.029475205 0.0044380603 -0.028261436 0.008605865 -0.023574775 -0.0047805654 -0.033601873 0.054811716 2.8904506E-5 -0.0034706064 -0.047045615 0.01414446 -0.054509517 -0.021002324 -0.015847363 -0.012743294 -0.006391483 -0.01656221 0.033669803 0.03246595 0.013086242 -0.04185117 -0.0139954835 -0.047564536 -0.0060867025 0.004251733 0.04927647 0.028047955 0.042821243 0.0043401946 0.056780662 -0.037991975 0.039627563 0.01640244 7.6187117E-4 0.021703944 0.043891184 0.050171856 -0.0071850354 -0.04048062 -0.03284467 -0.01956391 0.029017773 0.022764817 -0.0025766469 -0.022774745 -0.013396325 0.061541986 -0.026914848 -0.04296114 0.004379854 -0.050645974 -9.1227324E-4 0.007791615 -0.056966066 0.007061284 0.013848325 -0.0314341 -0.008479533 -0.0028869289 -0.012955426 -0.014114372 -0.048762027 0.024557292 -0.0075201895 -0.06008401 -0.018546905 -0.0024675252 -0.015624958 0.034787774 0.050826717 -0.016471082 0.04143991 0.009736856 0.048055515 0.05275418 -0.008485247 -0.02399785 -0.011070426 0.025680587 0.022665668 0.02094419 -0.0375479 0.032254912 -0.0104231695 0.020322219 0.020519976 -0.03985347
26 0.011943467 0.003502738 0.014844935 0.030876001 0.0049734944 0.012994988 0.089883715 0.046577685 -0.056676924 0.027208423 0.0641574 -0.03093394 0.01833844 -0.031069608 0.0688383 -0.0331571 -0.055611778 0.026384978 0.026535818 0.07568424 0.044362128 -0.002784948 0.08207581 0.07698569 -0.051775314 -0.06327902 0.013980718 0.06170671 -0.06157097 0.0630277 -0.008787668 0.0029998047 -0.01918004 -0.06527349 -0.01226668 0.06691646 -0.020572636 0.013838995 0.01377187 -0.11488639 0.052774556 0.006784736 -0.042267635 0.0053791543 -0.039983746 -0.001519693 -0.042107068 0.075493105 0.0033101155 -0.006439879 -0.07752425 0.018629406 -0.07407192 -0.02903711 -0.014295211 -0.018515134 -0.016073637 -0.0170479 0.052723773 0.05217967 0.012098769 -0.06443293 -0.026956242 -0.06858709 -0.009281502 0.0050511677 0.06511126 0.047057137 0.06742229 0.00647996 0.07421933 -0.06187045 0.05062532 0.031524435 0.0076183225 0.03434507 0.06717999 0.08555922 7.6195865E-4 -0.059719805 -0.041905463 -0.034005087 0.046627503 0.043423466 0.0028823935 -0.037544344 -0.023170056 0.102941684 -0.045257952 -0.06196882 0.0048967428 -0.08381799 0.013008355 0.007459658 -0.08868246 0.005066627 0.017184215 -0.04377668 -0.007243394 -0.0074385838 -0.021695243 -0.019356295 -0.08134538 0.037228208 -0.0204584 -0.09714977 -0.026287908 -0.016429733 -0.024761405 0.05326286 0.07834987 -0.01782568 0.059589487 0.023896664 0.0664514 0.07507218 -0.01740697 -0.031410247 -0.009374556 0.038269054 0.04164657 0.037059452 -0.062197633 0.049029984 -0.021742119 0.032985955 0.03333772 -0.06237745
7 -0.06659077 -0.007530347 0.014554147 0.021971405 -0.0055734757 -0.038336996 0.03496865 0.011089442 0.0043138694 -0.10668589 -0.04619174 -0.0011045325 -0.04988735 -0.014911511 -0.039327927 -0.023051519 -0.031446926 -0.023228696 -0.042094212 -0.03070955 -0.09777649 -0.014275694 0.014772356 -0.002510619 0.015794035 -0.007749627 -0.0071159583 -0.05805578 -0.07878376 0.039188683 0.013667124 0.010983222 0.015078169 -0.030845534 0.011067843 -0.0063086026 -0.0133310305 -0.014748259 0.0049569528 0.0018576809 -0.011255065 0.032430716 0.07253111 -0.034933243 -0.05683553 -0.0553702 -0.020372871 -0.023896705 0.011755836 -0.04459563 -0.04881968 0.06554278 -0.014470756 -0.009941037 0.023617892 -0.0049629924 0.0032275072 0.046932053 -0.031235581 -0.022491127 -0.018700544 0.031260554 -0.032117527 0.0054284474 -0.008804007 -0.068925254 -0.04972008 0.032496758 0.041628815 -0.008870359 -0.017554719 -0.045895267 -0.011664247 0.040551063 0.02818912 -0.06916647 0.016381977 -0.010413537 0.03654707 -0.015957016 0.0014775089 0.08441486 0.028636362 -0.030823437 0.0410021 -0.023340043 0.017615011 0.039742444 -0.005010948 -0.015891826 -0.02112388 -0.03537206 -0.019405471 0.0022460474 0.022968607 0.003965605 0.019422255 0.07424585 0.039707575 0.01890893 0.013774628 0.0055631846 -0.049170606 -0.052005816 0.045569237 -0.022618363 0.017578298 0.013789242 -0.07768752 -0.024708737 -0.011956975 -0.03707594 -0.02937049 -0.049185794 -0.018411156 0.02324894 -0.021513192 0.053582016 0.04086705 -0.05549998 -0.031721704 -0.037369736 0.07344461 0.0052146767 -0.020184895 -0.03432262 -0.03347948 -0.0059857434
6 -0.082015194 -0.010655565 0.020330532 0.0330316 -0.0066554444 -0.040876642 0.06649164 0.025213437 -0.008965883 -0.12074316 -0.04334332 -0.00997947 -0.05392916 -0.022165855 -0.023027057 -0.03357362 -0.046866097 -0.020518146 -0.049304567 -0.02044727 -0.10233013 -0.024506232 0.03881508 0.018402629 0.0015332791 -0.02014242 -0.0077218562 -0.055717666 -0.11147356 0.06390234 0.016626164 0.019471455 0.012593852 -0.056073807 0.013126284 0.01259329 -0.024448836 -0.012719965 0.014860257 -0.024082039 -0.00811578 0.04072508 0.076894596 -0.042794954 -0.07763882 -0.07079166 -0.0333536 -0.016844245 0.01836752 -0.05814485 -0.08291906 0.090785146 -0.038629185 -0.016962472 0.023340402 -0.004250534 0.0012743575 0.050349317 -0.024148392 -0.019520257 -0.013780636 0.027151171 -0.048730798 -0.0029528288 -0.009631012 -0.077581845 -0.037183244 0.048691534 0.066184096 -0.008906012 0.0019586785 -0.072677255 0.0035161711 0.049583174 0.03722547 -0.080948725 0.03791349 0.0012523821 0.041508205 -0.038281083 -0.018197726 0.09691216 0.03637298 -0.025299748 0.04988435 -0.03375521 0.019045347 0.06951341 -0.015230763 -0.032175094 -0.02070643 -0.059658527 -0.026673062 0.011540464 0.007244047 0.004244002 0.019710781 0.070833534 0.04244545 0.016166393 0.0067519373 -0.0017850923 -0.06778138 -0.051112518 0.061613873 -0.03989514 0.009950082 0.014975368 -0.101954214 -0.018217128 0.007902161 -0.0627851 -0.020199114 -0.051336586 -0.003938319 0.042155176 -0.02616994 0.048448723 0.03786955 -0.062122617 -0.025106166 -0.042253923 0.073822096 0.0203236 -0.020514833 -0.03313686 -0.041152332 -0.021485604
9 -0.0061036004 -0.0030713116 0.0049501373 0.013905632 6.9867045E-4 0.004030501 0.034278985 0.01268532 -0.016297283 0.0035025522 0.011697105 -0.005548625 -0.0020640553 -0.0111348685 0.019347565 -0.008620673 -0.019074783 0.0065164366 0.003529914 0.02043984 0.008727026 -0.005444755 0.028425224 0.028312493 -0.019685071 -0.016124843 0.006519805 0.019362807 -0.019197626 0.019278925 5.6412723E-4 0.0035310884 -3.101639E-4 -0.029493822 -4.6069824E-4 0.02186519 -0.01988654 0.006804899 0.009207684 -0.031689003 0.010205411 0.0030660415 -0.007222633 3.7923036E-4 -0.017446121 -0.0064815385 -0.01465521 0.027101453 0.0036410466 -0.001544946 -0.024814693 0.01418105 -0.025824074 -0.0056582997 -0.0035465914 -0.0014152179 -0.0077886377 -0.008064181 0.01191281 0.007588278 0.00845651 -0.014404928 -0.010713485 -0.019403137 -0.0042941156 -0.0038429846 0.02302494 0.020634515 0.021290129 0.007143805 0.026935821 -0.02114598 0.023261534 0.0075795697 -0.0013193454 3.6048683E-4 0.029101668 0.021219406 -0.003663968 -0.023013933 -0.020008873 -0.0013295959 0.011801477 0.0072310413 0.0019115611 -0.010682206 -0.0040028207 0.026760163 -0.0073185144 -0.024446972 0.006644191 -0.024315652 -0.0028318632 0.0020841635 -0.02309434 0.0033583236 0.009121766 -0.010084488 -0.005941793 0.004076831 -0.009586299 -0.00764888 -0.024241671 0.008475495 0.004156445 -0.024331272 -0.008205416 -0.0017664747 -0.012652002 0.016972862 0.027098097 -0.0137173105 0.014657542 -0.002884929 0.019827284 0.02350166 -0.0036133206 -0.0082062185 -0.0067222835 0.004058471 0.011792937 0.0039254637 -0.014921449 0.019799896 -0.002136239 0.0031747418 0.0076259305 -0.014504637
8 -0.11198562 -0.031874467 0.012872046 0.04530023 -0.0048878733 -0.022295557 0.10987142 0.032147784 -0.008821156 -0.1288813 -0.06037734 -0.0021782704 -0.06506729 -0.027673041 -0.01339011 -0.04399146 -0.060974568 -0.026218317 -0.045307197 -0.0024632541 -0.11416259 -0.055244274 0.07545 0.04593845 -0.03714923 -0.008783189 -0.0023472311 -0.052696697 -0.1367283 0.068043865 0.01336997 0.03521705 0.018947195 -0.11100567 0.030867785 0.028632645 -0.06498778 0.005044467 0.040465932 -0.04939474 -0.023646602 0.045736518 0.07999408 -0.034387443 -0.098418534 -0.092902854 -0.059333067 0.0061521498 0.024757676 -0.067820854 -0.119854264 0.13101104 -0.06802501 -0.024299327 0.015844554 -0.005993074 -0.003259677 0.031041214 -0.03117481 -0.034484424 0.021315975 0.04695952 -0.07481491 -0.020331806 -0.017690415 -0.108379714 -0.01684695 0.08043957 0.09266 0.009751691 0.053384397 -0.0910059 0.05743798 0.06404024 0.034319423 -0.11460101 0.077961326 0.0017943906 0.028474104 -0.061322313 -0.045704674 0.12974815 0.020785043 -0.029917963 0.037063126 -0.025632678 0.01996496 0.10472563 -0.014814105 -0.055636983 -0.00816341 -0.09467851 -0.051019046 0.022450102 -0.023511559 0.028966596 0.027596025 0.07012216 0.04163757 0.031147568 0.007942214 -0.027286926 -0.08337059 -0.06470435 0.10716533 -0.062414132 -0.009131381 0.03354331 -0.11795283 0.005103989 0.04068706 -0.105304144 0.00364132 -0.07729174 0.023767794 0.086365886 -0.0060556564 0.0480126 0.017775854 -0.06746424 -0.030490816 -0.0741746 0.06648775 0.04540217 -0.003364667 -0.03705395 -0.057630695 -0.019345773
30 0.064777 0.012607246 -0.00726818 -0.0033781086 0.011201411 0.039125312 0.008505244 0.02193129 -0.03821212 0.107509255 0.08743363 -0.014841873 0.050340917 -0.0038484517 0.06798082 0.0016020637 -3.7157308E-5 0.04353376 0.050684962 0.07051652 0.11309019 0.019595645 0.02492673 0.045402892 -0.03873478 -0.031135708 0.01123967 0.08986966 0.042538416 0.0059472676 -0.017152512 -0.01046846 -0.028616846 -0.004282893 -0.021388302 0.033032116 0.0033665195 0.018188823 1.271835E-4 -0.065611966 0.04226683 -0.02629489 -0.08284789 0.031080302 0.029899785 0.046464942 -0.002438329 0.07027969 -0.0074655963 0.039479293 0.0076744347 -0.057617348 -0.02078215 -0.007320972 -0.027882295 -0.0123336185 -0.013874956 -0.049859628 0.058422666 0.053881355 0.010086087 -0.07091645 0.027118186 -0.04259014 -0.001965452 0.06488045 0.07230745 -0.0047975997 -4.8360095E-4 0.009059995 0.049957827 0.009991031 0.031050341 -0.018072495 -0.021137504 0.09180831 0.015559308 0.06627416 -0.027183881 -0.014839167 -0.016263507 -0.108187996 0.011553916 0.04907338 -0.035887502 -0.0088677835 -0.03389455 0.01232604 -0.021262137 -0.017741658 0.020065537 -0.010271837 0.033138145 -0.005695989 -0.06529734 -0.0039246804 -0.008524956 -0.087534286 -0.0420802 -0.015934018 -0.022626674 -0.016779918 -0.005526784 0.066684395 -0.065088995 -0.03546918 -0.021894876 -0.019165117 0.063836984 0.052158345 0.050466552 0.036621146 0.05349741 0.059997983 0.05014868 0.019091658 -0.0029368335 -0.065586925 -0.039678335 0.073589325 0.0474179 0.06317953 -0.09460338 0.018923081 -0.0029551245 0.04873368 0.060737036 -0.027781747
28 0.0068960236 0.0013148756 0.0018102847 0.024592446 0.0087668225 0.017564278 0.07235303 0.03779045 -0.040070314 0.034955274 0.049435597 -0.019128056 0.012235956 -0.024242628 0.064001 -0.023217078 -0.044455264 0.026020607 0.021091418 0.06217977 0.043618064 -0.0054741227 0.070878334 0.06718119 -0.050289255 -0.046445355 0.010456897 0.05967104 -0.04155592 0.047439724 -0.010770912 0.011609364 -0.012614688 -0.06174648 -0.008469191 0.05591203 -0.022423016 0.020213518 0.014793222 -0.09532586 0.037632275 0.0033953472 -0.032952376 0.013565392 -0.025315864 -0.004787586 -0.034099106 0.06803695 0.0013132249 -4.0998525E-4 -0.062015265 0.019888053 -0.062039886 -0.026963715 -0.020043176 -0.009499103 -0.013093762 -0.017207934 0.043233696 0.04096046 0.019869283 -0.054064203 -0.01763259 -0.057803813 -0.007134464 0.007944253 0.058111224 0.038105372 0.05938611 0.008136365 0.068352394 -0.045789905 0.052391905 0.01904746 0.006196107 0.02848228 0.056883167 0.068392515 -0.0015354743 -0.04690115 -0.035593327 -0.031795725 0.035408948 0.03239966 -0.0088506555 -0.028232299 -0.020900458 0.08303936 -0.032506574 -0.04909158 0.005863188 -0.068357065 0.0070985234 0.0077716536 -0.0786274 0.007839131 0.011152922 -0.04102242 -0.008480224 -8.7520696E-4 -0.018115634 -0.01785012 -0.0619216 0.034249227 -0.0108047 -0.07257882 -0.024997087 -0.0097963335 -0.016279679 0.04942276 0.06873394 -0.021652497 0.05410596 0.018520625 0.056468744 0.067920364 -0.009441659 -0.03483936 -0.016507132 0.035112236 0.032966435 0.02922871 -0.049968723 0.041425873 -0.010089874 0.02256054 0.024841266 -0.047536276
14 -0.07283578 -0.019624317 0.0070573436 0.026356341 -0.00241345 -0.011937298 0.073022775 0.021431731 -0.0112844305 -0.074317515 -0.033833344 -0.0041032345 -0.037719127 -0.021741074 -0.0015092647 -0.032937642 -0.041662727 -0.019255277 -0.024448615 0.0033594705 -0.072044455 -0.039718278 0.051544517 0.032301165 -0.026248971 -0.004643854 -0.0013154119 -0.03191211 -0.09097095 0.045303132 0.008631801 0.025320841 0.014130688 -0.08143864 0.019218275 0.02107806 -0.050542742 0.002891511 0.030359503 -0.037418935 -0.010283867 0.029360022 0.04278818 -0.017115552 -0.06127139 -0.062989 -0.04354072 0.009025511 0.01931395 -0.043279875 -0.08066396 0.08921642 -0.049988855 -0.018423771 0.008755815 -0.0035045892 -0.004788404 0.020190377 -0.013495248 -0.023624819 0.02391001 0.0305918 -0.0479808 -0.013276043 -0.008559176 -0.06939787 -1.3807125E-4 0.057834864 0.06052021 0.0077910824 0.04042265 -0.062299937 0.045115344 0.0353183 0.019773975 -0.073761575 0.058832843 0.0071399873 0.012101701 -0.04713252 -0.040330574 0.079679206 0.009483181 -0.016756354 0.020727096 -0.019596007 0.012438879 0.072979175 -0.0073147644 -0.04120251 -0.0077496893 -0.06550322 -0.036579736 0.018472567 -0.02173922 0.021367878 0.0171053 0.039133433 0.0240069 0.023676906 -0.002066715 -0.022234786 -0.055272847 -0.039667614 0.071566895 -0.04467716 -0.0067230305 0.023651011 -0.074764155 0.009689589 0.03467974 -0.074980766 0.0044565513 -0.05028033 0.023088759 0.05911611 0.0025734056 0.02394765 0.007654493 -0.04423283 -0.015640533 -0.04675563 0.041852415 0.033096988 0.0050259675 -0.023232976 -0.04084787 -0.012893352
24 0.06530524 0.010823402 -0.0030305362 0.0040673097 0.009345995 0.03753291 0.035197552 0.032585766 -0.044882517 0.10469579 0.09505575 -0.024656305 0.0501039 -0.009997702 0.08466139 -0.006398191 -0.014130075 0.04734438 0.05065162 0.07570149 0.113457695 0.0128385555 0.04278302 0.06111907 -0.046283748 -0.048675403 0.018279856 0.0949006 0.012837238 0.024853988 -0.018471848 -0.009532877 -0.027359428 -0.01627091 -0.024285417 0.050186213 0.0059450576 0.017180888 0.0033340235 -0.086009234 0.053090315 -0.024142558 -0.08242504 0.02978105 0.010635609 0.043609537 -0.014653011 0.07619038 -0.009185855 0.036641147 -0.011453893 -0.04768024 -0.040902205 -0.016747102 -0.024984218 -0.01773639 -0.010731439 -0.04212485 0.0643272 0.061480496 0.013587216 -0.08614857 0.015799917 -0.06331924 -4.2722092E-4 0.061389245 0.08445666 0.0060333926 0.019421004 0.001971926 0.05345124 -0.010145739 0.037977424 -0.0077686897 -0.012765849 0.09196321 0.032604992 0.083122194 -0.017545184 -0.024794776 -0.021810029 -0.104385294 0.028905625 0.058061074 -0.027397994 -0.023333026 -0.03610974 0.04106343 -0.030895978 -0.033260226 0.0161536 -0.03047154 0.029740011 -0.004430257 -0.07624601 -0.0027499995 -0.0014587917 -0.090494335 -0.033536736 -0.024019731 -0.02548303 -0.018910233 -0.027451137 0.067707315 -0.06716326 -0.060853824 -0.026651312 -0.021446189 0.04494488 0.056292366 0.063861705 0.028174274 0.05975269 0.05706483 0.059284702 0.036203753 -0.011153931 -0.06148158 -0.035803586 0.07846318 0.059290666 0.07066462 -0.10397515 0.027275315 -0.014947861 0.05058248 0.058262177 -0.04630642
4 -0.10215464 -0.024866771 0.014346093 0.03197352 -0.005567061 -0.022277527 0.077466965 0.01834015 0.0050426153 -0.12064049 -0.07008776 0.004758421 -0.0620954 -0.01805446 -0.02560916 -0.03461578 -0.043797284 -0.035274785 -0.04896451 -0.018539017 -0.120520994 -0.04842529 0.046056833 0.020984747 -0.02072361 0.0050675115 -0.0065549337 -0.06574363 -0.10875137 0.049140573 0.01716058 0.02997704 0.01759495 -0.08440082 0.030310862 0.008894272 -0.051043376 -0.0029467696 0.028344877 -0.012029116 -0.031304028 0.04133882 0.0817528 -0.034217104 -0.079055436 -0.08321192 -0.04719769 -0.016664255 0.01916238 -0.0657598 -0.09145664 0.110730216 -0.044066068 -0.019135388 0.013741391 0.0047914363 0.0010862431 0.036474347 -0.039434593 -0.045900423 0.021632904 0.05212661 -0.057918888 7.113362E-4 -0.010562853 -0.0960865 -0.033624895 0.061633587 0.064611025 0.0071876417 0.029845472 -0.07006995 0.03633546 0.052072704 0.025998553 -0.11349312 0.055400796 -0.021347139 0.027526801 -0.046173077 -0.035486996 0.1278786 0.006660795 -0.037057452 0.041427895 -0.012446621 0.020039568 0.07335611 -0.0032107758 -0.034730773 -0.010056992 -0.068232074 -0.050930735 0.021780403 -0.0020280916 0.024465056 0.025132062 0.07513774 0.041074656 0.029190922 0.01212886 -0.013579916 -0.064663105 -0.05950307 0.099650644 -0.03724198 0.0025374752 0.03132005 -0.10267987 -0.014000002 0.0142383445 -0.093073264 -0.0077108555 -0.08045476 0.004544732 0.060233854 -7.856147E-4 0.048415013 0.01848929 -0.07263627 -0.0388793 -0.074873865 0.081440166 0.031080713 0.0023310357 -0.03651823 -0.06462951 -0.0053538242
32 0.021728626 0.009280579 0.01303509 0.031727865 0.005147349 0.014992236 0.090980716 0.045783266 -0.061664365 0.04798096 0.0770849 -0.031312425 0.026749192 -0.028213244 0.08174564 -0.027800834 -0.049512174 0.040172018 0.032021243 0.086092144 0.06372671 -0.0020047347 0.08866153 0.082007185 -0.05757076 -0.069147155 0.014872301 0.075243555 -0.05504372 0.067844465 -0.008838385 0.0051827705 -0.02666212 -0.06318583 -0.017133126 0.07186729 -0.014431045 0.020877318 0.011631838 -0.120665535 0.060187813 0.01055377 -0.051966373 0.010699309 -0.032191694 0.0069774357 -0.044593867 0.08818717 -0.002802883 -1.3008687E-5 -0.0661581 0.010696074 -0.081025384 -0.028756168 -0.023390142 -0.022177631 -0.019733097 -0.021277487 0.054792784 0.06216428 0.010361097 -0.07980467 -0.017667865 -0.07547222 -0.0053210123 0.015917217 0.075489245 0.04568457 0.0690065 0.0023457783 0.07206389 -0.058148447 0.05058838 0.026201408 0.01297904 0.05357361 0.060244117 0.09674518 -1.3105331E-4 -0.058743503 -0.036326796 -0.055236813 0.05655896 0.048920136 -0.0025221677 -0.0402703 -0.03332722 0.10047357 -0.049013723 -0.0663476 0.008935096 -0.0844505 0.018825157 0.010252742 -0.094235316 0.010756417 0.020124353 -0.056497052 -0.016775068 -0.009861095 -0.02931312 -0.022618014 -0.0788394 0.040029958 -0.03349735 -0.0968333 -0.032473747 -0.015730517 -0.014676122 0.050767057 0.08110642 -0.008544763 0.05907739 0.033639822 0.07011255 0.07031804 -0.017584804 -0.04609051 -0.009445899 0.049485642 0.050288267 0.048446696 -0.071784824 0.043694817 -0.025251372 0.03969792 0.042449344 -0.06836689
2 -0.12799866 -0.031056307 0.012098497 0.04674865 -0.010463165 -0.027057046 0.1133054 0.033936594 -0.010009892 -0.15108201 -0.0718898 -0.005380985 -0.073811665 -0.02414663 -0.02259995 -0.050070256 -0.061942555 -0.037918914 -0.056797426 -0.015529575 -0.14601035 -0.06443878 0.07640421 0.042928163 -0.035901975 -0.0018012505 -0.0023567337 -0.06658662 -0.1496099 0.07271921 0.018334957 0.039474983 0.024584679 -0.12033376 0.03917948 0.021371624 -0.07519147 0.005226108 0.044026606 -0.038613304 -0.03155881 0.059861913 0.0981213 -0.034368694 -0.104932375 -0.109203696 -0.06859064 -0.007799772 0.028346187 -0.07645332 -0.12424461 0.15143405 -0.06281491 -0.027584352 0.01695896 -0.0042801346 0.0013422264 0.040321656 -0.044974163 -0.043275375 0.025568916 0.06234725 -0.08591 -0.004767644 -0.019337054 -0.12590203 -0.025107075 0.086229436 0.095843546 0.011040679 0.053513456 -0.09855181 0.058116656 0.062104158 0.030872118 -0.13942806 0.084992066 -0.012340727 0.028175317 -0.06460462 -0.05343778 0.14916094 0.018154848 -0.033715814 0.047532234 -0.025585236 0.026518358 0.10393103 -0.008310759 -0.054183744 -0.010848827 -0.09941639 -0.06420558 0.020896439 -0.012733687 0.034625135 0.03569585 0.085703425 0.054969735 0.04363434 0.0093994485 -0.021144155 -0.08847629 -0.07838782 0.12747832 -0.06301185 -0.004443871 0.03615066 -0.13160044 -0.004198146 0.03650133 -0.12311844 -0.0050139665 -0.09596859 0.018412158 0.08656445 0.0018773343 0.0556412 0.027337458 -0.083375454 -0.03389422 -0.095324315 0.090077296 0.038646165 7.031666E-4 -0.044751305 -0.07758246 -0.0052487743
3 -0.058108117 -0.018460542 0.00973393 0.033711687 -0.0038850072 -0.0026742683 0.07834753 0.024367616 -0.018507699 -0.054415457 -0.018800236 -0.007191639 -0.031241646 -0.016942956 0.018114278 -0.029475374 -0.042700447 -0.0058539654 -0.011461167 0.016983055 -0.05076693 -0.034130536 0.058543935 0.046160653 -0.04194889 -0.014904647 0.0073342463 -0.00833589 -0.081230775 0.04990971 0.008329728 0.025026605 0.0034920904 -0.08789047 0.015091458 0.028584687 -0.049931344 0.010219317 0.030419096 -0.05581331 -0.005753244 0.029715413 0.026277198 -0.008037056 -0.05849153 -0.055672467 -0.050251834 0.02415498 0.013749162 -0.040217556 -0.08616568 0.08012743 -0.056766197 -0.024286097 -6.7122345E-4 -0.0054537947 -0.0022720115 0.0015419606 -0.0039903936 -0.015407641 0.029357214 0.015047136 -0.052471053 -0.023468638 -0.011767364 -0.058681525 0.0154426675 0.054711804 0.0690618 0.013022962 0.060907654 -0.063374564 0.059459552 0.039094124 0.0101971375 -0.060271237 0.06578939 0.019513855 0.0031526326 -0.051804833 -0.04476701 0.059007786 0.009723876 -0.007628806 0.014644765 -0.020986062 0.008398167 0.07774699 -0.013413235 -0.04458902 0.0028598723 -0.07530729 -0.036674418 0.018124335 -0.033522263 0.02353073 0.018568117 0.017360551 0.019145932 0.020969447 -0.0077064727 -0.02326619 -0.06361627 -0.02910783 0.061940733 -0.06099054 -0.0116544645 0.021656519 -0.060659498 0.01613264 0.04295278 -0.07500752 0.018348627 -0.04224609 0.03325716 0.070784844 0.009331172 0.01504553 -0.004189296 -0.022957554 -0.0013761324 -0.03938665 0.017087322 0.03802993 0.0070666233 -0.006703654 -0.032302037 -0.021176297
33 0.087354705 0.017746903 -0.00897351 -0.0106531605 0.011714269 0.05053747 -0.008336285 0.016244425 -0.0319491 0.14366888 0.098869875 -0.009979246 0.06680121 0.0048766327 0.085150756 0.014491824 0.0038186118 0.043484833 0.06559372 0.075499274 0.14753038 0.028107164 0.014421354 0.040800147 -0.047025453 -0.028112436 0.015342597 0.10995182 0.07244602 -0.014785639 -0.02499121 -0.010361621 -0.032681923 0.012325529 -0.023213046 0.035865154 0.006138469 0.01886687 -0.0066784713 -0.06281222 0.047057047 -0.04314518 -0.10434426 0.042506065 0.049959563 0.06957909 5.857898E-4 0.0736694 -0.017006123 0.05170604 0.023988431 -0.082920074 -0.019704923 -8.63851E-5 -0.03551553 -0.005801718 -0.012246854 -0.067523696 0.06905557 0.055591106 0.023290258 -0.07755408 0.037250336 -0.043128558 0.006706562 0.08316568 0.089536354 -0.024445297 -0.009224373 0.006914394 0.044807952 0.029659783 0.029536622 -0.039882176 -0.030979805 0.10975974 0.0057684486 0.069837846 -0.042906336 -0.0010243404 -0.018517736 -0.13546802 0.004148235 0.058028467 -0.05096105 -0.0012536832 -0.038213853 -0.007678962 -0.016220754 -0.013578223 0.027085446 0.0037157764 0.03798648 -0.001691482 -0.063550934 -7.040381E-4 -0.008393481 -0.112002246 -0.05732029 -0.019926077 -0.027665468 -0.012577606 0.0137773175 0.08326087 -0.075895205 -0.022966566 -0.02690525 -0.026343664 0.088795245 0.053781964 0.044723455 0.048282996 0.060770348 0.07502789 0.04605283 0.010904395 0.0062144743 -0.08120137 -0.05077365 0.09539497 0.057969186 0.076007955 -0.123151064 0.016384365 0.005976386 0.054067537 0.07258686 -0.027339824
1 -0.16040815 -0.032801222 0.022423478 0.059321355 -0.012336672 -0.0621317 0.12154772 0.032197025 -0.0055304626 -0.21746457 -0.100339055 -0.0062247063 -0.10187713 -0.036220726 -0.049773023 -0.062497355 -0.07337253 -0.046042215 -0.08867025 -0.040908538 -0.20511858 -0.053768694 0.07021943 0.031313557 -0.0053994544 -0.018793268 -0.01452545 -0.1093572 -0.19050826 0.09623248 0.034337133 0.038100883 0.030780707 -0.11006441 0.034591105 0.008924141 -0.062946334 -0.012955412 0.03117277 -0.0245181 -0.031735443 0.07695899 0.1406129 -0.066079594 -0.13337642 -0.13133086 -0.06552525 -0.035176165 0.024719805 -0.10432599 -0.1429873 0.17842123 -0.06405703 -0.034320418 0.040270846 -0.005479076 0.007963867 0.07694424 -0.061859377 -0.054795567 -0.0054116105 0.080279626 -0.09797151 -0.0037836854 -0.021344563 -0.15453205 -0.07017115 0.09458646 0.10984123 -0.0069046714 0.018782906 -0.11625279 0.025085935 0.091766305 0.057939935 -0.16471656 0.077590056 -0.019215899 0.060104504 -0.0670095 -0.032414608 0.19916186 0.045249682 -0.051996097 0.08523234 -0.0444348 0.038545463 0.116597295 -0.013725698 -0.059456576 -0.03592157 -0.10408616 -0.06934863 0.022392986 0.009032632 0.019667631 0.044414528 0.13922593 0.08284723 0.045029793 0.015117097 -0.016259406 -0.115955696 -0.10475977 0.13168296 -0.068848595 0.015435458 0.032087125 -0.17833036 -0.030515363 0.0073979734 -0.12535883 -0.033758067 -0.11575564 -0.004896333 0.08191611 -0.02450718 0.09389943 0.06444268 -0.118481666 -0.054660745 -0.10247697 0.14185964 0.035102118 -0.018437935 -0.066931136 -0.084236875 -0.01708013
34 0.10340264 0.014927753 -0.008772262 -0.002991422 0.016823385 0.06670954 0.023574747 0.031369027 -0.061131865 0.17163281 0.1300291 -0.020515244 0.08005485 -0.001488881 0.11719186 0.0034330199 -0.0096781375 0.060904592 0.07969827 0.11073982 0.17868653 0.024954595 0.051069573 0.07077277 -0.073021896 -0.051058456 0.023416232 0.1422618 0.057927057 0.008160887 -0.023180638 -0.014524899 -0.036346257 -0.01919194 -0.022935594 0.05751339 -0.0051131994 0.03300299 -5.2945846E-4 -0.104894206 0.06998287 -0.043883864 -0.13452254 0.060174357 0.044264127 0.07671351 -0.019576034 0.10775975 -0.015439385 0.06295073 0.0026994026 -0.08261402 -0.043812986 -0.010369722 -0.041664537 -0.014629567 -0.014860811 -0.084191665 0.09281305 0.07601244 0.02975415 -0.112325 0.03382086 -0.07421989 8.6792675E-4 0.099580504 0.12393879 -0.008484107 0.012174977 0.009753008 0.08608036 0.0057324185 0.056787726 -0.033842396 -0.03589577 0.13362058 0.03577515 0.105476275 -0.04987734 -0.020296812 -0.035354238 -0.16528581 0.017612008 0.08112249 -0.05061828 -0.015147854 -0.051298525 0.022669267 -0.037461706 -0.029742317 0.0368402 -0.02567365 0.04287944 -0.004239918 -0.10076358 0.0090409955 -0.008629643 -0.14012942 -0.06323442 -0.026984675 -0.03811104 -0.024413146 -0.0014656143 0.10111884 -0.08878582 -0.0584201 -0.0394028 -0.0320077 0.09523521 0.08265702 0.08435347 0.039124325 0.08037183 0.095307626 0.07994699 0.036922194 0.006645042 -0.10013972 -0.06698201 0.11639974 0.08177047 0.08671923 -0.15577997 0.02675692 0.0025955276 0.076299295 0.09139177 -0.04527509