34 128
12 0.0020243158 -0.0020931626 -0.0024042083 0.0024863083 -0.0017467296 -0.005598838 -1.388664E-4 0.0051651513 6.198814E-4 0.0027037007 -0.0028098996 -4.0966648E-4 0.0031742395 -4.6552843E-4 0.0031490955 -0.0025290563 0.0041974 -1.5496071E-4 0.005137382 0.0017061786 0.0043307045 -1.7569849E-4 0.002751594 -0.002590382 -0.002404106 0.0031419748 -0.0029278295 0.0016702948 0.0016449426 -0.0032986398 3.0376508E-5 0.0014374149 -0.0034906473 9.708645E-4 -0.0019268747 0.0012184463 -9.6916273E-4 3.0101938E-4 0.002802621 -0.0059666634 -0.002232014 -0.0042891717 -3.8411954E-4 -0.00509895 0.0039006686 -7.8384276E-4 5.908006E-4 0.0033544425 -0.0029830667 0.002446237 0.0034828696 2.2444622E-4 -4.6226033E-4 0.0010631443 0.0047945627 -0.002930618 -6.0107148E-5 -0.0031743997 -0.0032148885 1.11578665E-4 0.0027441257 0.0010992815 0.003233887 3.3723714E-4 0.0025512525 -0.003030492 7.523048E-4 -0.0018575209 -0.002588126 0.0024631042 0.00238524 0.0026932962 -0.003448149 0.0033183568 0.0020778244 7.4040866E-4 -8.6123066E-4 0.0012217287 3.9031098E-4 -0.0040907697 -0.0013348123 0.0037048135 5.6416896E-4 0.0012523425 0.00417503 0.003278709 -5.1717035E-4 0.0016866287 0.0030498302 0.0020870275 6.1496976E-5 7.0289976E-4 -0.002385569 0.0019209867 0.0022940612 0.0014253056 -0.0021556786 -0.0013575715 1.993558E-4 0.003517633 0.003085562 0.0018595767 -0.0017439197 7.258974E-4 0.002182507 0.0011113543 0.0030188765 -5.282237E-4 0.002481339 0.006108251 -0.0012509867 0.0038606003 0.0027544345 -0.002277435 -0.0022406678 -0.0051885564 0.0022850833 -0.0038421145 0.004352592 -0.0042042704 7.597119E-4 -0.0027600792 1.3601467E-4 -0.0032836802 -4.9670838E-5 -0.0022652347 8.907842E-4 0.0064566587
22 2.1638967E-4 5.254392E-4 -0.0027329845 0.001401492 -2.3447932E-4 -0.0034489417 0.0017975535 0.0080051785 -0.0055229766 0.0015155736 -0.0016572134 -0.0012578419 0.0044075875 -0.005494811 -8.165847E-5 0.0035559116 0.00428625 -0.0024245253 0.0059566284 -0.0015134679 0.0041643856 0.0032727027 -0.002750508 -0.0046590534 0.0010883769 0.0043530697 -0.0057164133 -0.0010774621 -0.0024835756 -0.002407783 0.001354016 -2.4473835E-5 -0.001544079 0.0024263603 6.884178E-4 0.006628735 -0.0051824073 0.0034159776 -0.0037959022 -0.003264501 -6.0622947E-4 -0.0053935386 8.5188204E-4 -0.0039550085 0.0015428893 0.002719775 0.0011834688 0.00596094 -0.0037432103 -7.550704E-4 -0.002293372 -0.0014379539 8.3132973E-4 0.0022524577 0.0023618275 -0.0018202646 0.0010848357 -8.301994E-4 -0.004929393 -0.0030817776 0.0017671344 9.7299006E-4 -0.0040813405 -0.0016922062 -0.0028713725 2.6679813E-4 0.004058764 -8.8538014E-4 -0.0020456407 0.0035611994 0.004822903 0.0027468107 -0.0014889716 0.0038663123 -0.0034528417 -0.004748219 -0.0017269489 -8.120245E-5 0.0018492219 -0.0056861434 -0.0041841185 -8.7430375E-4 -0.004901727 0.0013780255 0.0028697944 -9.3950296E-4 0.0013053964 -0.0042612306 0.0022696208 0.0013878628 -7.4168824E-4 -0.0021106298 0.00442232 0.0018384407 -7.585929E-4 0.002526712 0.0024565137 -0.0015379444 0.0024974647 0.0050931987 0.0012055216 0.0014716771 -0.0025555547 0.0035895475 0.002830282 3.2314914E-4 0.003416753 -0.0022085137 -0.004371217 8.2229E-4 0.0035294418 6.424358E-4 -0.0010216504 -0.005750703 0.003443788 -0.0035420381 -4.4943608E-4 -0.005544026 9.698132E-7 0.0021238641 0.0016795989 0.003162062 -0.001183593 -0.007351443 -0.0011853282 0.0011153923 -6.710495E-4 0.0045503685
23 -0.002478138 -0.006235699 -0.0032100268 0.007949022 0.005231894 -0.008928344 0.005668802 0.010807597 -0.0077269874 0.001284196 -0.0037518153 -7.150917E-4 0.0011379912 -0.0018094542 0.0042842505 0.0071043717 0.010938271 -0.004380452 0.011004969 -0.0049853213 0.009163536 0.004425646 -0.0014036506 -0.007364402 7.960171E-5 0.011852965 -0.009531872 -0.0032293159 -9.95222E-4 -0.0025998238 -0.0025049492 7.254786E-4 -0.0059840847 0.008806357 0.0024961082 0.011299259 -9.408648E-4 -1.3695753E-5 -0.004335196 -0.002265093 -0.005753905 -0.006207099 0.002951838 -0.005461261 8.06079E-4 0.0045749038 0.004109979 0.011071467 -0.007160872 4.742578E-4 -3.5029062E-4 -0.0020431646 -7.8634213E-4 7.8317185E-4 0.008276678 -0.011475291 0.003326014 -0.006083607 -1.468861E-4 0.0044199196 -0.007781942 -0.008596608 0.0016472747 -0.0043958304 -0.0027743436 0.0019390554 0.0053580324 -0.006212516 -0.0039934595 -0.0036985176 0.0056572673 6.89432E-4 -0.0055736178 0.008737278 -0.0045386134 -0.0040394296 0.007041903 -0.0017225334 0.004507984 -0.008292524 -0.008693775 -0.0031934374 -0.00949045 0.0027010913 0.004970461 0.0036008179 -0.0052127526 -0.0052864286 -0.0017815656 -0.005134867 0.0045170244 3.7932603E-4 0.0036292719 -0.008994916 3.8504842E-4 0.002081863 2.8966771E-5 -0.0058642467 -0.0012182806 0.0026240184 -0.0021426887 -0.0048854863 0.00817607 0.0077530993 0.0050838836 0.003381698 0.007157341 -0.0038777622 -0.0017246928 0.011733816 0.004443955 0.006352157 0.009218301 -0.012234266 0.0038331724 -0.004718168 5.097722E-4 -0.005801978 0.0036528572 -0.0066317525 0.0011709409 2.6178526E-4 -0.0064194296 -0.00640742 0.0018177588 -0.011169604 0.0025059127 0.012244988
13 -0.0011688812 -0.0023308 0.0020649207 -5.791021E-4 -0.0010094631 0.0012041343 0.0027847965 0.0039306353 -0.0020875535 -0.0036643632 -0.0019187987 0.0017812662 0.0029422282 -5.228533E-4 0.004581536 -0.001399357 -0.0010720028 6.671353E-4 0.0036368398 -0.0018329496 -9.4219676E-4 0.0037768502 -1.7778375E-4 -0.0054709353 9.457952E-4 0.006950574 -0.0023431196 0.0028557687 -0.004714239 -0.0012451118 0.0014341791 -0.00342612 0.0014885142 0.0015577116 -0.0024779283 -0.001028471 -0.0011616924 0.0036689555 -0.0022871108 -0.0016574354 -0.0023178027 -0.0017222774 1.3866561E-4 0.0013758676 0.0030528056 -0.0027131008 -2.5233527E-4 0.0035799798 -0.0040057153 -0.002060674 -0.0011412884 0.002977026 -0.0019811317 -0.0029718284 5.176098E-4 -0.0039057655 -0.004231748 0.0015768433 0.0011302602 -8.506148E-4 -2.0759342E-4 -0.004873573 0.0017792856 -5.4210296E-4 -2.6487195E-4 0.0010527569 0.0025988808 -0.0015678081 6.2766334E-4 0.0021848218 0.0023055421 0.0026253453 -0.0011308542 0.0053147636 0.002709637 -0.0042741452 -1.5889753E-4 0.0030753638 0.0034252012 -0.0034951959 -0.0065412596 0.0018678928 -0.002925374 0.0015672552 -0.0011854806 -4.216097E-4 -0.0025307632 0.0020443483 6.649242E-4 -3.496315E-4 -0.0018403468 -0.0028233859 -0.0017795482 0.0023853967 -0.0010014287 2.434423E-5 6.7345955E-4 -0.0031965054 -0.0036471167 0.004434503 -0.0016551157 0.0022696853 1.7982878E-4 -4.0915536E-4 -3.1022684E-4 -0.0025564462 0.001488962 7.998832E-4 -9.6147717E-4 0.0060736183 0.0040855506 0.0032647352 0.0039371243 -0.0026400492 -0.001630828 -6.6644844E-4 -0.0029043008 -0.0034890822 0.0031403909 0.0032337809 -7.454212E-4 -0.0026362075 -0.00200496 -0.00282766 0.001211317 -0.0029045807 0.0024110812 0.0018992207
15 -0.005281134 -0.007643489 0.002001283 0.0061306697 0.004932873 -0.00962177 8.143506E-4 0.0075349626 -0.009445462 -0.002878456 -4.5148958E-4 0.0054120785 0.0013818963 -0.0061769737 -4.944527E-4 0.0038396 0.0096998215 -0.004052277 0.009839626 -0.006000818 0.004510739 0.0037399095 -0.004920486 -0.005619142 -8.665309E-4 0.007713997 -0.006143794 -0.0044538295 8.398609E-4 -1.0746921E-5 -0.0046033477 1.00546684E-4 -0.0048585595 0.0063079726 -0.00152302 0.0042326283 -0.0052641816 0.0020421657 -0.0062033273 -0.0038906597 -9.508446E-4 -0.0011843031 -4.4900394E-4 -0.0059145526 3.8790941E-4 0.0048365667 0.0011905598 0.004771432 -0.004550934 0.0050625694 0.0023780083 -4.0982133E-5 -0.0013110433 -4.149349E-4 0.007671531 -0.0056882193 -0.0021242674 -0.0029235813 -3.3697135E-5 8.266379E-4 -0.0018097203 -0.004590607 4.1068374E-4 -0.003569812 0.0014843002 0.0018561145 3.156301E-4 -0.0061988225 -0.0050601563 0.0036612276 0.0020493756 2.384197E-4 -0.0034943193 0.0045338706 -0.0033453975 0.0014005586 0.0072982176 0.0021780308 0.0013897425 -0.008846313 -0.006340922 3.8422455E-4 -0.010356799 0.0011392367 0.0032225274 0.005647444 -0.005231488 4.891678E-4 -0.001907987 0.0012154892 0.0011846628 -0.003313649 0.006512672 -0.002245747 0.0010656541 0.0010119918 0.0027917495 -0.0056382827 1.6453462E-4 0.0037583087 -0.0042023584 0.0024925491 0.0021478825 0.0020526268 0.006927934 0.0045262743 0.0027246797 -0.003226235 -0.0017194324 0.004628389 1.2650327E-6 0.0038077794 0.001424801 -0.0097120935 0.00503476 -0.0029963572 0.0016992192 -0.008343465 0.0030396488 -0.003409187 0.003862479 0.0025395667 -0.0024568585 -0.007545202 -3.8351113E-4 -0.0062625385 0.002668759 0.009008752
27 -0.0028710444 -0.009255072 2.0171265E-5 0.0025024426 0.010412607 -0.0123329 7.403943E-4 0.011222304 -0.009715885 -6.0929183E-4 -0.005419643 0.004929372 0.0017246668 -0.00639354 0.0013292413 0.0049939593 0.007951352 4.8666078E-4 0.011729146 -0.007726895 0.006613955 0.0022913828 -0.0024588006 -0.009528115 -0.005651333 0.015028085 -0.011202479 -0.0030139554 -0.0049784854 9.691762E-4 -0.005539919 -0.003967592 -0.004328559 0.011319684 -0.0014864887 0.012833285 -0.0021610027 5.0808035E-4 -0.008184106 -0.008156133 -0.004518148 -0.0048704892 0.006636015 -0.009510425 0.002677824 0.0017759546 0.0067004645 0.008346833 -0.0073527694 0.004191484 -0.0021274465 7.808922E-4 -9.6617657E-4 -9.854363E-4 0.009451619 -0.00930402 4.1710192E-4 -0.0074176546 -0.0022660363 0.0057655266 -0.007674085 -0.0057831863 1.3507906E-4 -0.004151512 -0.003066673 -0.0032247473 0.006984085 -0.006151011 -0.0095453 0.0012114918 0.0062090755 0.003752368 -0.004429353 0.003650391 -0.0070025953 -0.0041377237 0.007958183 0.0024919936 0.002910924 -0.007038887 -0.011342313 -0.0024589414 -0.010806178 0.0020970944 -0.0011912234 0.0056777713 -0.0055581084 -0.0045849076 0.0010624803 -0.0066872183 0.0037196425 -0.005231631 0.0038807841 -0.008394512 -9.937468E-4 0.0018302341 -0.0049534338 -0.0053551057 -0.0055397074 0.004845641 0.0029316947 -0.0045775273 0.009040163 0.008022988 0.009189038 0.009973153 0.006060898 0.0014169991 1.9828744E-4 0.015933834 0.0029452327 0.004532441 0.006028481 -0.014151697 0.0056710904 -0.0077391365 0.0061138733 -0.008401204 0.0076264846 -0.0033682804 0.0029726054 0.0024102333 -0.009406548 -0.012330649 0.0038274215 -0.010809711 0.003211142 0.016440779
10 -0.00471595 -0.0069521675 0.0024672588 0.0048317965 0.007070089 -0.006127102 -0.0013723654 0.006252608 -0.0026883138 -0.004489958 -0.0022477296 -6.3100684E-4 0.002740939 -0.002494202 1.6730768E-4 0.0015914182 0.003045229 9.515512E-4 0.008591107 -0.0062650885 0.0031795695 3.45467E-4 -0.002956748 -0.008610029 1.2747751E-4 0.008806973 -0.0021443535 -0.0028591584 -0.005183153 -0.0040053497 5.713842E-4 -0.0012525748 -0.0045464365 0.005777855 0.0035429557 0.0063863685 -0.002092318 -0.0013596935 -0.0039748526 -0.0010338171 7.2172825E-4 -8.6587726E-4 0.0030098574 -0.0077779656 0.0030574386 2.1868866E-4 0.0052839904 0.008236811 -0.0040027937 0.0059566326 0.002720706 0.0022547608 -0.0019482374 -7.0884073E-4 0.004540373 -0.0018512339 0.0026838903 -0.0063383062 -0.004464477 0.0020719252 -0.0019387013 -0.0075168344 -2.2493885E-4 0.003276759 -0.001439133 0.0021905755 0.0047623953 -0.0021214595 -0.002749395 3.9898208E-4 8.525755E-4 0.0066683153 -0.0010589832 6.860561E-4 -0.0018236852 8.309135E-4 0.0046350867 0.0036930826 -6.099013E-4 -8.4989576E-4 -0.008421047 3.3671802E-4 -0.006312899 -0.00243536 -4.2399854E-4 0.005181464 -0.0030058154 -0.0028472273 -0.0012049397 -2.5510415E-4 0.006539158 -0.0015370924 -5.047099E-4 -0.0037003972 -0.0019462694 -0.0018837692 6.0684927E-4 -0.0041210107 -0.0023796586 0.0060335523 -2.4826487E-4 -0.0047633685 0.0047709355 0.001320348 0.0063360007 0.0026321148 0.004636545 -2.524327E-4 0.0011125718 0.010766152 0.0041284943 0.005165543 0.0047652447 -0.0055829883 0.0023993833 -0.0025513645 0.0019859353 -0.0060456106 -1.5084735E-4 -6.2874204E-4 -9.839253E-4 -0.001416991 -0.0068502473 -0.0032816222 0.0060933633 -0.0084315175 0.0017767571 0.0045494796
19 -0.0035065056 -0.0055318708 -0.0039684973 0.0072847856 0.0022760178 -0.004807271 -1.4427585E-4 0.008231343 -0.007895484 -0.0020131972 -0.0062255305 7.4413425E-4 -0.0040031793 -0.0043214117 0.004118161 2.2755165E-4 0.009985192 -7.1069895E-4 0.004215697 -0.005010634 0.004289241 3.1167484E-4 -0.003041553 -0.008174983 -1.2655556E-4 0.011236816 -0.008394237 -0.005192529 9.262794E-4 0.0015433136 -0.0020397825 -7.1543606E-4 -0.003842171 0.006661098 7.1453884E-5 0.0074110287 -0.0023456772 0.0042957454 -0.00491712 -0.0050038397 -0.005917066 -0.0049703587 0.0019740434 -0.007625578 -1.5767924E-4 0.003587798 0.0044687227 0.0025210849 -0.006992146 0.005957153 -0.0038254438 5.2044407E-4 -1.248709E-4 -6.593812E-4 0.0064975116 -0.0053365906 -0.0021353196 -0.0077182557 -0.004175535 0.0037075928 4.7885883E-4 -0.0030414886 -0.0016506179 -0.005015733 -0.002974832 0.0024562667 0.0056389933 -0.0068990197 -0.0015337683 -0.0032254078 0.002829629 0.0014991359 -0.0031753308 0.005391893 -0.002120296 -6.1422295E-4 0.006723191 -0.0019888252 0.0027544564 -0.008835729 -0.005457061 -0.0045246333 -0.010795087 5.028997E-4 0.0013794333 0.004136465 -0.0021326498 -0.0058296975 0.004138296 -0.0034930268 0.0013761966 -0.0021781514 0.005323524 -0.0064727617 7.29069E-4 -0.0014960829 -0.0040363017 -0.0025517337 -0.0012550929 0.0043683373 -8.281349E-4 0.001496643 0.0015514737 0.0041308845 0.008272556 0.0052441745 0.0032676314 -0.0036541836 0.0029757875 0.004424591 0.003048286 3.2593717E-4 0.007869938 -0.0060473084 -0.0010756783 -0.005665108 0.0027226817 -0.0066861566 0.0060237595 -0.004008436 0.0023708 -2.143023E-4 -0.0020862743 -0.0057456917 0.0018684616 -0.007596869 0.0050356803 0.01259526
17 0.0017363528 -0.0012275458 -0.0031129264 -7.872064E-4 -0.0021092244 -5.363122E-4 -0.0036398815 5.9557916E-4 -0.0034876445 0.0010439923 -0.004467345 3.477731E-4 -0.002103215 7.678666E-4 0.0026809543 0.0015110201 0.005705205 6.3114543E-4 -7.187593E-4 -0.0030246652 0.0052322675 -8.7641005E-4 0.003426954 0.001591094 -3.1831977E-4 0.0045046764 -0.005135198 -0.003049044 -0.0022583245 -0.0011765122 -0.0034136164 0.002595154 -0.004532544 -0.0012730667 3.791843E-4 6.117367E-4 -4.270373E-4 -0.0013373282 -9.3323445E-7 -0.002322429 1.594646E-4 -0.0045279055 -2.3205728E-4 -0.0035412984 0.0015725249 -0.0010359598 0.0011567181 0.001747498 8.1217557E-4 -5.122848E-4 4.963918E-4 0.0022262542 8.6690317E-4 9.769803E-4 0.0013456262 -0.0045642476 0.0031846468 0.0011094719 0.002848076 -0.0013947636 -2.3803218E-4 -0.0032442887 0.0010557338 0.0019989288 -0.0017650011 0.0014219644 3.0502793E-4 -0.0048433268 -0.0036880826 0.0013971555 0.0013306732 -3.1716176E-4 -0.0016935612 0.0043640425 -8.0269226E-4 0.0026909201 -0.0015417234 0.0015483387 0.0036944638 0.0011230191 3.887197E-4 -0.0015138577 5.117836E-4 2.9775078E-4 0.0019807839 0.0047875657 7.9063815E-4 0.0037800772 -0.003432408 6.001886E-4 0.0046906522 0.0024979135 -0.0016484649 0.001121159 -0.0037973833 -0.0027205625 0.0032318912 -0.0020883689 -0.002305453 0.003250117 5.747325E-4 7.004599E-4 -7.2004396E-4 0.0017703276 0.003724456 -0.0026153168 0.001500847 -0.0034735033 -0.0010532865 3.06354E-4 4.31859E-4 7.9391315E-4 0.005340651 -0.0016005905 -0.0015819927 -0.0044299816 0.003484624 -0.003667299 -2.4364876E-4 -0.003039762 0.0030374478 0.0014701404 7.4495765E-4 -0.005824778 0.0020835772 -0.0018685764 8.7540224E-4 5.7521916E-4
18 -0.0055804164 -0.0058158087 0.0021233954 0.0020540857 -4.5512398E-4 -0.0065036835 -0.0038911116 0.009427528 -0.0022157659 -0.0027611044 -0.0057930485 -0.001749019 0.0026556847 -0.0052363435 0.0021144035 0.0048461487 0.0034329991 -0.0041349 0.004416395 -0.004683426 0.0018356213 0.0037706208 -6.7546335E-4 -0.0023571302 -0.0019265928 0.007632096 -0.0023650778 0.0041324194 0.0010011165 7.5381063E-4 -0.0029284332 0.0029160627 -0.0049077384 0.006737072 -2.2196275E-4 -4.3675423E-4 -0.0021412408 0.003854172 0.0019837478 -0.0031450232 -0.0024470817 -0.004705879 0.0023165338 -0.002617815 -3.7040116E-4 0.0041701403 0.0058340305 0.005352321 -0.0043317555 0.0030540335 0.0013781117 -0.0039729387 -0.0043240916 0.0031639712 0.0045495504 1.0670583E-4 -9.392588E-4 -0.0038679119 -0.0010364767 -0.0012070553 -0.0020071226 9.151638E-4 0.0015928826 -0.0016987467 0.0017089398 0.003219622 1.04908555E-4 -0.004046585 -8.026992E-4 -0.0014746437 0.002714347 0.0045058597 -0.0044473056 0.0064681526 -0.0020124686 -0.0027076958 0.0035962758 7.291415E-5 0.0026184635 -0.005295919 -0.005417481 0.002711751 -0.0024349135 0.0038913295 0.0038002066 0.0031531104 9.388558E-4 -0.0029708168 0.002801292 0.003246599 0.0028917978 -6.4207014E-4 0.0035357273 -0.0010083432 -9.649696E-4 -1.7175567E-4 0.0027616674 -0.0025128447 -0.0012332428 0.0021181917 -0.0013741076 -0.0048480043 0.0011482424 0.006369753 0.0019590228 -0.0019119985 0.004223458 -9.680158E-4 -0.0026033835 0.0037870824 6.366683E-6 0.002742435 0.006038733 -0.0014664101 -9.301895E-4 -0.0043189684 0.002458458 -0.0036637043 -0.0022493491 0.0030320147 -0.0015613959 -0.0016168659 -0.0014151988 -0.0075795404 0.0022921378 -0.0035864809 0.0059869667 0.007575987
21 -0.0014953074 -0.0066031623 -0.0023477122 0.0060572717 0.0076222476 -0.0065423525 0.0038894394 0.011332182 -0.0077233138 -0.0025568139 -8.238512E-4 0.0026589364 -0.0029563108 -0.006762974 3.6435854E-4 2.2488952E-4 0.0035055995 0.0017446447 0.008519103 -0.008907834 0.0041016485 -0.0019458103 5.343713E-4 -0.0020779977 -8.2029443E-4 0.011658736 -0.0041209897 -0.0030339244 -0.005013698 -0.0037247366 -0.0052355 -0.004594884 -0.008111318 0.004705632 0.0035513598 0.006753394 -0.0038047184 -0.0029842497 -0.0055594654 -0.004261333 -0.003064744 -0.0011672063 0.0063511836 -0.0070767216 3.6246135E-4 0.0016826057 0.004063973 0.002382204 -0.0012674639 0.0035368307 0.002796379 0.001402872 -0.0034072024 0.0027523374 0.001002755 -0.008036157 0.0034244328 -0.005867689 -0.0039618397 0.0019335996 -0.0030800889 -0.006408501 0.0021407518 -0.004532428 -0.0045020236 -0.0027665447 0.002695295 -0.0018504541 -0.0071829646 7.864294E-4 0.002482564 4.8655964E-4 -0.0033205557 7.056094E-4 -0.0051516965 4.7319723E-4 0.006654739 0.0033029206 5.3880695E-4 -0.0018757347 -0.0080843195 -0.004242779 -0.008942214 0.0014859178 0.003433684 -4.1458993E-6 -9.5526496E-4 -0.0024810554 0.003799781 -0.0032684489 4.611787E-4 -0.0024039217 0.0068784617 -0.0035178987 -0.0025689004 0.004404068 -0.0023518337 -0.0066870605 -0.0042226478 0.0028406084 -0.0014931187 -5.6371215E-4 0.0067918072 0.007400787 0.005495498 0.008107388 0.003883728 6.0450373E-4 0.0036391243 0.00611444 0.006085541 0.0038854482 0.00466678 -0.0061531398 0.0025149442 -0.004440203 0.0040553077 -0.00352767 -0.0013344632 -0.0010270041 -0.0015018631 -0.0017339896 -0.005819848 -0.0077969497 0.0029021248 -0.007093246 5.2525185E-4 0.006475474
16 -0.0064016916 -0.0025852018 -3.6870022E-4 0.0039588087 2.9622635E-4 -0.009106574 0.0037251825 0.0072985864 -0.0054029194 -0.0012236661 -0.0012637768 0.0027509092 -0.0020899274 -6.674389E-4 0.0036837487 0.004266216 0.0068640993 -9.22193E-5 0.0030633823 -0.0028247174 0.0034187457 -0.001353183 -0.0027213101 -0.006243168 -0.0057121604 0.0057535246 -0.0062890644 -0.0022925239 -0.0038029875 -0.0025389853 6.2893896E-4 -0.0017590536 -0.0064185993 0.0073881927 0.0037691735 0.0034748123 -0.0015819456 5.6153844E-5 -0.0037968196 -0.0016857451 -0.0017445717 -2.1360398E-7 0.0029413376 -1.6850147E-4 -5.9947793E-5 8.868174E-4 0.0053993766 0.0052691633 -0.0061973906 0.002235625 0.0034915728 0.0032555822 -0.003403426 -0.0016228931 1.6397623E-4 -0.00824048 0.0024073424 -0.006517638 0.0011257973 0.0033397337 -0.004880367 -0.0062826118 -0.004429237 -0.0027585851 2.9903723E-4 -0.0028552092 0.0054363804 -0.0038185 -0.0028476275 5.56007E-4 0.0021027122 0.0058082226 -8.4002306E-5 -2.7780738E-4 0.0015240794 0.0013770101 0.004202851 -3.488466E-4 6.990522E-4 -0.0019012167 -0.0023156411 -0.0034015253 -0.007101863 -0.001656776 1.120517E-5 0.006770369 -0.0051725227 0.00205163 -0.0011120964 -0.002900039 0.0057163937 9.977829E-4 0.0058906316 -0.0076240697 -0.0033483622 0.002200316 0.0017254686 -0.0015175187 -0.0024855626 0.0070831464 -0.0020280587 -0.0024244052 0.0060653575 0.0058730864 0.0048599658 0.0014839758 -0.0013715627 0.0018563773 0.003697459 0.009834943 -6.2504434E-4 0.0013154172 0.00666257 -0.0071350965 0.0041656243 -0.0036153682 0.005130395 -0.004795345 -0.0011511729 -0.00265723 -0.0018546561 0.0023942413 -0.0026352154 -0.002222837 8.949036E-4 -0.005404664 0.0048867725 0.0079139555
31 -0.003074136 -0.007903384 0.0013673478 0.0038392115 0.00947562 -0.009621714 4.773818E-4 0.010068775 -0.009004006 0.0013945431 -0.0029599662 -0.0015731064 -0.001970484 -0.006812079 -0.0014350142 0.0017323856 0.008670109 -0.0027844498 0.011475493 -0.011301245 0.0086048115 0.0024456596 -0.004314014 -0.0052363863 -0.0026927495 0.009350532 -0.00619296 0.0010369902 6.0058926E-4 -0.002697082 -0.0012694822 -0.0010305373 -0.006284924 0.007730819 0.0038199655 0.0084062 -0.004632764 0.0018549291 -0.006180582 -0.005503763 -0.006235398 -0.004972846 0.0018123143 -0.007625119 0.0044817133 0.004741433 0.0055496735 0.008580784 -0.0036394794 0.0068465914 0.0019060998 0.0031912827 -7.566016E-5 7.1350613E-4 0.0072588506 -0.011058363 0.0028302078 -0.005752066 -0.0053055873 -0.0022140418 -0.006773695 -0.0070670927 -0.0040089563 0.0020667438 -0.001100532 -2.971853E-4 -0.0010596622 -0.008015465 -0.008330809 -4.3572916E-4 0.0011656473 0.005825372 -0.006543162 0.00392438 -0.002982353 -0.0040692724 0.0035146866 0.0039297612 0.0013050537 -0.00489785 -0.011699214 9.911441E-4 -0.010053826 0.003126362 2.7540294E-4 0.006654756 -2.133029E-4 0.0014344049 0.0011273447 -2.0116451E-4 0.0074766446 -0.0033609846 0.007667757 -0.0048931404 -0.005276702 -6.805645E-4 -0.002770083 -0.007336998 -5.5899424E-4 0.003729051 0.0034786887 -3.8023526E-4 0.008571823 0.00780921 0.0077436413 0.0055191 0.0027624003 -0.002917931 5.2272953E-4 0.013854133 0.0034865434 0.0012389233 0.002949915 -0.011453755 0.0058773626 -0.003253611 0.0060855756 -0.010208785 0.0035109734 -0.0073077674 0.0010019547 0.0044785244 -0.006724699 -0.011104624 0.0042555383 -0.004932544 0.006564689 0.012863747
25 -0.008876382 -0.008300578 -0.006583595 6.1572203E-4 0.009279487 -0.0062881494 1.8778053E-4 0.01384847 -0.007942789 0.0019426333 -0.0019833525 0.0047188094 -0.0039599966 -0.0049680225 0.0059171887 0.0048192344 0.0069211447 0.0026287762 0.0053853295 -0.008954541 0.007513578 4.4207808E-4 0.0010098665 -0.010122743 -0.0036069856 0.011174425 -0.0066190083 -0.004162098 -8.009991E-4 -0.006237574 -0.0069631473 0.0012094063 -0.008118127 0.0052274284 0.001955398 0.007646998 -0.007550866 0.0035949359 0.001371939 -0.0066287895 -0.005978313 -0.007565093 0.0055747963 -0.0058175623 -5.843525E-4 0.0019500323 0.0032976991 0.006255674 -0.0073516625 0.0012158884 -6.64484E-4 0.0014132065 0.001602468 -0.0028732512 0.0056774006 -0.01071231 0.0019368135 -0.0069198897 -0.0066171032 6.972379E-4 8.4772956E-4 -0.005914454 0.0031501802 -7.4386125E-4 -0.0023680085 -0.004314964 0.0020009833 -0.006259838 -0.009739878 0.0011391187 0.002953893 0.0035407573 9.3370065E-5 0.0045055537 -5.8473623E-4 -0.0011313595 0.0046030977 -0.0036795049 0.005590124 -0.0038808289 -0.0069774725 -0.0017563426 -0.009306071 0.0026172947 1.9384094E-4 0.008177889 0.0021251808 -0.0043400233 0.0041106413 -0.0048517413 0.0025960342 9.897625E-4 0.0050004898 -0.0028496424 6.760963E-4 -0.001609692 0.0033687677 -0.002096502 -0.003863594 0.0041315346 -0.004857792 -0.0049674045 0.0014291665 0.006856472 0.007587613 0.006120098 0.007882649 -0.0010048882 5.8069837E-4 0.0075336583 0.0053316117 0.0021785176 0.001344765 -0.011123616 1.1280014E-4 -0.0023730313 0.0018090004 -0.009238106 0.0022095973 8.619816E-4 -3.2119916E-4 0.0025499766 -2.8715689E-5 -0.010873486 0.0070062065 -0.0077606076 0.005283565 0.0134775955
11 -0.0024977552 4.996686E-4 -0.0023988239 0.004634189 -4.7028667E-4 -0.004945067 -0.0038719887 0.006705324 3.1517356E-4 0.001439079 -1.7502843E-4 7.7937395E-5 0.0029073518 7.8867166E-4 0.0038491625 0.0012916474 0.0076436764 -0.0015305778 0.003898156 -0.0015849482 0.005268493 0.001981576 -1.3812563E-4 -0.0066353674 -0.002878944 0.0059718736 3.048838E-4 0.0023507695 -0.003480259 -0.0025561575 -0.0045897537 3.4852512E-4 -0.0052820854 0.0036404734 -0.002967904 -8.0768176E-4 0.001963488 0.0010962735 0.0027309493 -0.0060200826 2.9692674E-4 -8.665282E-4 0.0016817277 -0.0019155018 -2.5187948E-4 -4.2667417E-4 0.0042892867 0.0015840657 -0.0034403193 0.0018072969 -0.0011949117 -0.002949417 -0.00126872 -0.0042210207 0.0057768403 -0.0030985465 -0.0037308936 -8.093917E-4 -0.004472725 -0.0030487168 -0.002301649 -0.0022017506 -0.0010882516 -1.5498749E-4 -0.0026243236 0.0028483816 0.0014996242 -0.0063936645 5.391882E-4 -0.0038958224 0.0026574587 0.0058254343 -0.005950262 6.1150733E-4 -0.0038462519 -0.002178265 -0.00223273 0.0013587782 0.002625297 -0.005177961 -0.0018079433 0.0038038762 -0.0056643533 -9.6431107E-4 0.0017930306 0.0020906385 0.00338722 -0.0018692018 9.616266E-4 -0.003623963 -4.0284602E-4 -6.1031013E-5 0.0021243156 -0.0015456353 7.5929426E-4 -0.00318691 8.067096E-4 6.5960403E-4 -0.0034661388 0.0014020983 0.001709939 -0.002504105 -6.44918E-4 0.005673552 0.0013206031 0.002958794 0.0019430921 -4.2049843E-4 7.520417E-4 2.011611E-4 1.6312067E-4 -7.008051E-4 0.005405811 -0.0030698678 0.0038468451 -0.0051109325 -0.0011927478 -0.003523839 -0.0012742218 -0.0022802486 0.0024441115 -0.0019522276 -8.917971E-4 -0.0015459156 3.8510794E-4 -0.0042333445 0.0055971434 0.0073093395
5 0.0011987138 -0.0029670026 -0.0011484994 -2.0241468E-4 0.0040414343 -0.005849117 9.88748E-4 0.0065967613 -0.0055545657 0.0029227987 -0.0050925286 0.0035470827 0.0023484782 -0.005624856 0.002505064 0.003492702 0.007982631 -0.0041938312 0.0037793685 -6.7153544E-4 0.0030908254 -6.733772E-4 0.003240424 -0.00468677 0.0010019531 0.0043363734 -1.3269618E-4 -0.0023517932 0.0011642526 -0.003986894 -0.004523099 0.0013381874 -0.006094422 0.0054561393 0.0037443778 9.613801E-4 -0.005224791 0.0015682292 -0.003433026 -0.006511625 -8.595556E-4 -4.1074086E-6 0.0044654952 -0.0031874615 0.0047149677 -0.0021432475 0.0015937347 0.0016140802 -0.0032304644 0.0035260597 -2.671359E-4 -0.0033317765 -0.0010467836 -1.0048743E-4 0.0042665973 -0.0010539844 -8.6747453E-4 -0.0049568494 -0.00453124 -0.0030894012 -8.673732E-5 -0.0063703475 3.413207E-4 0.0012210357 -0.002207593 -8.425038E-4 0.0013510283 -7.985767E-4 0.0016411346 -0.0028802257 0.0024451255 0.001622045 -0.0022912074 0.0062897597 0.0022394233 0.0011835174 0.0032809873 8.962393E-5 -6.192292E-5 -0.0038368492 -0.0018603108 0.0011251556 -0.003938762 -2.15215E-4 -0.0020074395 7.2227063E-4 -0.0022815312 1.839528E-4 -7.722105E-4 4.569504E-4 0.0027685817 0.0029407737 0.0014637484 0.0023129622 -0.0042005004 0.0037290796 8.19697E-4 -0.006616382 -8.309569E-4 -4.0909916E-4 -0.004676817 -0.0031462524 -0.0026979388 -7.602272E-4 9.816963E-4 -0.002245053 -1.7296554E-5 -3.7322796E-4 0.0024056323 0.007047226 -0.0013769729 3.8368106E-4 0.0067374744 -0.0031440936 -0.001033861 -0.0034742744 0.0037404294 -0.0023758395 0.003132846 -0.0015765633 0.0040357886 0.0040590856 -0.001047452 -0.0029145484 -2.5803878E-4 -0.0030970988 -5.233569E-4 0.0026666052
20 -0.0080515 -0.008919225 -1.5018655E-4 0.004636517 0.0046172943 -0.009834085 -0.002234048 0.012924144 -0.005659247 -0.0035387923 -0.003218659 1.5976524E-4 6.299693E-4 -4.9735606E-4 0.0020559416 0.004559513 0.009276562 0.001743813 0.010071084 -0.010303411 0.009889709 0.0032057066 -0.004726199 -0.009649767 -0.005703905 0.011464155 -0.0048672534 -4.6796305E-4 -0.0045702006 -0.0011190854 -0.003259701 -0.003090008 -0.009537258 0.009232966 0.0018869686 0.004593948 -0.004071438 9.4335666E-4 1.985908E-4 -0.007968601 -0.0068885083 -0.0053553847 0.006529922 -0.0065734624 3.34121E-4 0.0050165756 0.007364451 0.0061116787 -0.0016785335 0.004753172 -1.8021968E-4 0.0020714633 -0.0062129344 -0.0023966401 0.0047388924 -0.00562456 0.0022027055 -0.006332856 2.1827388E-4 7.962023E-4 -0.0011341217 -0.0075140577 -6.5454235E-4 -0.002895564 -0.0026768146 0.0024739446 0.0036114566 -0.0025345362 -0.0011122903 0.0031785958 0.002838981 0.0024098398 -0.0074487436 0.0078270715 -4.2513042E-4 -0.0036118927 0.006492887 -0.0015823513 -0.0010743471 -0.0065434207 -0.012041208 -0.0023780868 -0.008056961 -0.0012098807 0.0027458137 0.0042455904 -0.004013125 7.4154214E-4 0.001515407 -0.0031174019 0.002144777 -2.7588152E-4 0.002578003 -0.0013940061 -0.0030378774 4.958014E-4 -8.84877E-4 -0.004119924 -7.615083E-5 0.008296173 0.0012722713 -1.4924438E-4 0.0060577686 0.0032447865 0.005378878 0.008082363 5.6807295E-4 0.002311745 -0.0014387772 0.012244451 0.004664459 0.005579383 0.0037333153 -0.0068740617 0.0046525216 -0.0066543864 -3.0678054E-4 -0.007257915 0.002641763 -0.002426847 -0.0023465967 0.003027958 -1.746251E-4 -0.007623774 0.002048418 -0.0039977115 0.0051402454 0.0110410545
29 -0.007206116 -0.01117336 1.3675597E-4 0.007613831 0.0055860938 -0.011393455 0.0029269087 0.0167871 -0.0076099057 -0.0033382575 -0.003902046 0.004495838 -0.002054706 -0.0025785763 -6.974502E-5 1.9955484E-4 0.0070593343 -0.0013688237 0.0057983813 -0.0071264445 0.005929297 1.21048965E-4 -0.0052618124 -0.007909527 -0.0074098436 0.012300771 -0.011920174 -0.0029654375 -0.005908134 -0.0029555757 -0.0065355916 -1.3140377E-4 -0.0042558755 0.010807846 0.004225889 0.0076309512 -0.0026434385 0.0038005388 -0.0014199178 -0.0036383648 -0.008055711 -0.0027724123 0.0085876975 -0.0102564255 0.0059168357 0.004185398 0.009849242 0.008390599 -0.0022222716 0.0050504757 -0.0021960991 -4.7269254E-4 -0.004898277 0.0031241565 0.007431321 -0.007052942 0.0017356953 -0.002171472 -0.007376088 -5.4983684E-5 -0.003440732 -0.0033774262 5.424735E-4 -0.0037159482 6.5385806E-4 -0.0038152542 0.0050379443 -0.0045902412 -0.008569061 0.0021491675 0.0045495164 0.0036163374 -0.0040207407 0.008143232 -0.0071773445 -1.5696342E-4 0.0042443415 0.0031462235 0.0049653533 -0.0068948693 -0.009862041 -0.004386496 -0.012964356 0.001588208 0.0056379433 0.0035343636 -6.745424E-4 -0.0050703716 0.0030665253 -0.0024002704 0.0017750177 -0.0037825676 0.0064387387 -0.0069142412 6.858857E-4 -0.0018689401 -0.0015612547 -0.007561867 3.6663804E-4 0.0057847826 -0.0044959425 -0.0054111136 0.0025234676 0.011547886 0.0077419523 0.0055593313 0.0074919774 -0.0030618517 0.0019551544 0.0126105845 0.008411738 2.642979E-4 0.010387676 -0.010547552 0.007446843 -0.0010986127 0.007145558 -0.0056109014 0.0041164453 -0.0064910753 6.5851746E-5 -0.0012094436 -0.00828979 -0.010987035 0.0050415657 -0.010735063 0.008104435 0.014413377
26 -0.0035870257 -0.004881975 -0.005855572 7.4020535E-4 0.004501854 -0.005590187 0.0036648673 0.013182796 -0.009473531 -3.8537013E-4 -0.006276202 0.0012097356 -0.003803818 -0.0042901337 0.0065976596 0.0043564015 0.009278165 0.0024634672 0.0109242955 -0.009345017 0.0042164945 -0.0021912777 -0.0069486974 -0.0059174895 -0.0014809646 0.010755395 -0.011773531 -0.0018291924 -0.005304679 -0.0010999963 -0.0070195612 -0.0027852796 -0.005408756 0.005806836 0.0035224806 0.013444782 -0.0035259149 0.004863367 -0.0053426083 -0.0036786573 -0.0039741592 -0.010651404 0.0031691336 -0.010165968 0.0037989253 0.0036184855 0.008517319 0.012309609 -0.005033095 3.7276408E-5 0.0029840118 0.0010326372 -0.0010294905 8.497997E-4 0.006105322 -0.01051213 -2.5962584E-4 -0.003779824 -0.007947298 1.6551273E-4 -0.0051227305 -0.008180857 0.002718913 -0.0030336943 8.0963835E-4 -0.004392801 0.0014140094 -0.007205874 -0.0073804953 3.3215736E-4 0.0041135047 0.0072457194 -0.0031364278 0.005218559 -0.00466523 -0.0024715837 0.0027228424 -1.783159E-4 -7.225655E-4 -0.009765639 -0.008422921 -0.0029911618 -0.007726856 0.004947434 3.946682E-4 0.0036518846 9.1650314E-4 -0.0024818743 0.0012576567 -0.0024454033 0.0067763343 -0.0011396325 0.005475781 -0.010419527 -6.471673E-4 0.0037099225 -0.0019924955 -0.0016683019 -0.0010641143 0.0056772074 5.274448E-4 -2.7427388E-5 0.0015869967 0.0071300305 0.011093392 0.0078075356 0.003244542 -4.4046124E-4 -0.0012160125 0.009371275 0.0026312238 0.001107843 0.0063564675 -0.012800282 -1.2467863E-4 -0.0040334486 0.0035410211 -0.011369986 0.0063969274 -6.4507715E-4 0.0037837208 0.00591591 -0.0038291183 -0.015035103 0.006448302 -0.009800755 0.0087733045 0.018144686
8 -0.00739943 -0.0052668075 -4.602888E-4 0.005001406 0.004028333 -0.0025236986 4.1512272E-4 0.012500325 -0.005642835 -0.004324235 -0.0058251275 0.0015285255 0.0037881304 -0.0053315167 0.0028034167 -8.3277613E-4 0.0033215447 0.002716939 0.0063097253 -0.006280379 0.0069992617 0.0024367743 0.0014795798 -0.003982611 -0.0038942322 0.012430958 -0.004129414 0.0023139042 -0.0010993022 -0.0015602463 1.1666417E-4 0.0023470633 -0.0076161316 0.005748274 1.0185413E-4 0.002846833 8.677732E-5 0.0029899257 -0.0029597916 -0.005731765 -0.006836955 -0.005818298 0.0015433785 -0.006572166 -0.0016871804 0.0014594205 0.0063863406 0.007080504 -2.3782137E-4 0.0020808382 4.049555E-4 0.0020745671 -0.0035617193 2.3436414E-4 0.0058717686 -0.0042091487 -0.0012109848 1.1161692E-4 -0.002489246 0.004691435 -0.002144093 -0.006762061 -7.761555E-4 0.002519511 -0.003163786 -2.6535642E-4 0.0040640486 -0.006870083 3.0419644E-4 -0.0035433716 0.0035236068 0.0066356864 -0.001984591 0.007356634 -0.0037634545 -0.0011683272 -8.2778686E-4 -8.578529E-4 0.0023647307 -0.0030194668 -0.006831191 0.0028391834 -0.009080007 0.002644279 0.0011466824 0.0036701642 0.0014288038 -0.002887367 -0.0013457696 0.0012752162 0.0040927646 7.7544217E-4 -2.717097E-4 -0.0063239345 -0.0038444272 -0.0028088652 -0.0013269713 -0.0054587093 -0.0015163224 0.0029173933 -0.0010346385 -0.00411452 -7.7394256E-4 0.00401128 0.0041520884 0.006203005 0.005793795 -0.0014577429 -0.0015276708 0.010753545 7.0490583E-4 9.26753E-6 0.0013639925 -0.0015773318 -0.0015346128 -0.0014177692 0.005179034 -0.002149823 -5.9631956E-4 -0.0027331694 -5.9905974E-4 0.004200114 -0.0049974015 -0.0112330755 2.8892697E-4 -0.004759486 0.00426498 0.0054948386
7 -9.867725E-4 -0.003431646 -0.001145865 6.81511E-4 0.005172642 -0.0052900286 0.0021292055 0.0050137932 -0.0022919415 -0.002912131 -0.0026537576 0.0045336373 -0.0011064941 -0.003629818 2.2998736E-4 3.9453042E-4 0.0067617972 -0.003808364 0.0020128821 -3.780367E-4 0.0066214376 0.0011480722 8.2998956E-4 -5.0702057E-4 3.511508E-4 0.009426707 -0.002209246 -0.0036268062 -0.0049949465 -0.001646318 -0.0053361943 0.0016930852 -0.0042598136 0.003076533 0.0014958988 0.007435201 -0.003773373 0.0042434414 0.0014805389 -0.008581319 -0.0025192848 -0.002897582 0.0065592737 -0.0073243584 -0.0019814712 0.003168745 0.0049580312 0.007278044 -0.0021134045 4.7204905E-4 0.0034421089 -0.0021272816 0.0011246899 0.0019950958 0.0049330005 1.0898041E-4 -0.0030304857 -0.002407133 -0.0031037466 0.003430456 -0.0043645445 -0.00525626 -6.7706185E-4 0.0027851423 0.0011594445 -0.0027276888 0.002773398 -0.005327659 -0.0050624683 -0.00425948 0.00364575 0.0049113133 -0.0010374109 0.0016175482 -0.003303486 -0.003599621 0.0013105558 -0.0033409148 0.00259405 -0.0010748014 -0.00706085 0.001581217 -0.0020574324 5.331713E-4 2.777129E-4 0.004701176 -0.0017685727 -0.0017728077 -0.004463345 -0.0033983157 -9.437394E-4 0.0033633488 0.005642218 -0.003094117 -0.0027795779 -0.0013305357 0.002391613 -0.0012731574 -0.0047592926 0.001194526 -0.0040317117 -1.4894166E-5 -8.704464E-4 0.005501919 0.0040228767 -0.0018270484 0.0050041256 -0.0013696257 -8.412641E-4 0.0051540206 -0.0016074509 9.4001426E-4 0.0039854837 4.793374E-4 0.0035295314 -0.0037871655 0.001008309 -0.0044996426 4.4573654E-4 0.001028714 0.0013972415 8.160084E-5 -0.004546447 -0.003141099 0.003850249 4.2230223E-4 1.4369296E-4 0.0068363673
28 -0.010375569 -0.008799157 -0.0012674155 0.0053232186 0.008858522 -0.012583603 0.0013888365 0.019303199 -0.013605671 -0.0014741116 -0.0033682243 0.003556045 -0.0025858106 -0.0046687494 0.0025126936 0.0074985665 0.011307661 -0.001980497 0.009158702 -0.0073866113 0.008559505 0.0043504783 -0.0038415245 -0.00868272 -0.00629423 0.018915264 -0.011428835 -0.0010562227 -0.0043774676 -0.006597032 -0.007426824 -0.0056241015 -0.008791573 0.012888347 7.362377E-4 0.014534947 -0.0047621005 0.0025290456 -0.003996753 -0.007743168 -0.008240332 -0.0068295547 0.009799584 -0.011424599 0.0042815255 4.1492478E-4 0.00334597 0.01448835 -0.010397088 8.104563E-4 -0.0027087606 0.0017707363 -0.0063214106 0.0031960208 0.010778957 -0.01138827 -0.0019269013 -0.007836118 -0.0038173166 -4.8759236E-4 -0.003709026 -0.005369523 -0.0015681998 0.0012937798 -0.0055898377 0.0012521282 0.005721432 -0.008844736 -0.006826141 7.5458555E-4 0.0021175838 0.004981503 -0.0047057075 0.010667014 -3.5319632E-4 -0.005224845 0.0025538434 -1.9273112E-4 0.0068099946 -0.011845669 -0.012698962 -0.0023477245 -0.017109806 0.0018609418 0.0024333193 0.008529753 8.5845904E-4 -0.001073526 -5.147017E-4 -0.0061429497 0.0092846 1.6334707E-7 0.0038784225 -0.010823942 -0.0049689836 3.9526916E-4 7.791709E-4 -0.0049190302 -0.0071750893 0.007232619 0.0018322971 -0.0047469134 0.006556568 0.008157476 0.011268595 0.004896956 0.0052203336 -1.9489606E-5 -6.399391E-4 0.017043727 0.005234465 0.0021782345 0.009943471 -0.0091942 0.0019250324 -0.0056103137 0.005396945 -0.013903304 0.0059695956 -0.004035201 -0.0019146901 0.0035392744 -0.00244506 -0.01627389 0.0036682487 -0.011472778 0.007205629 0.020151872
6 -0.0028712454 0.0013750419 0.0032071306 -0.0012474854 0.0021498266 -0.0048080673 -0.0032971518 0.0020441832 -0.0022177114 -8.8427623E-4 -0.0036691916 -1.9994863E-4 0.0048534893 -0.00224394 0.002577551 -0.0028610695 0.0016150785 0.0028018628 0.0044657732 -0.0022471542 0.006315265 -4.928268E-4 3.726874E-4 -0.002471019 0.0016471909 0.007937006 -0.004202194 -0.0012461529 -0.0032738992 -0.0048548663 0.0012555538 6.481357E-4 -0.004805644 0.0019043604 -0.0028560678 2.3990359E-4 -0.004338728 0.0021901436 -5.13385E-4 -8.640287E-4 -0.0036829219 -0.0029079814 -5.06442E-5 -0.0024988 6.5475825E-4 1.7582884E-4 7.332275E-4 0.0012110277 3.8910392E-4 -0.0011892369 0.002123391 5.5641594E-4 0.0016687843 -0.0013158646 -0.0012495742 -4.866438E-4 -0.0025724252 -0.00128261 2.3029234E-4 0.0040701977 -0.0027169462 -8.4858027E-4 0.0014388312 -0.002442081 -0.001566354 -0.0041628806 0.0032847412 -0.0020857356 -0.0025704398 0.0019444899 8.1846665E-4 0.004087527 -0.0044856756 -2.2296321E-4 -0.0017848094 8.7005565E-6 -0.0026456304 -0.0010112533 0.0022305513 -0.003858281 -9.745889E-5 -0.00193383 -0.005803084 0.0021976926 -0.0018629715 0.0046983804 -4.4042832E-4 1.2952232E-4 -0.0017093108 -0.0034110306 0.0027912643 7.5466995E-4 0.0016994134 0.0017720526 -0.0045692944 0.0041801794 -0.0020338588 -0.0032085925 3.4176162E-4 -0.001685924 0.0022913178 -0.003746446 -4.3040866E-4 0.0010413537 0.0010806827 -0.0022917767 0.0036305373 -0.0025896532 -0.0014245636 0.004678151 -0.0031254822 0.0016075431 0.003547893 3.391748E-4 1.9692456E-4 -0.0023146442 -0.0030173329 -0.0066869645 -0.001228773 4.3939485E-4 0.003497147 -0.0018021609 -0.00499017 -0.0061428896 0.0037696264 8.9683215E-4 0.00285055 0.0041245376
9 -0.00797583 -0.009982211 -0.0017803742 0.0016525448 0.008970362 -0.008275074 0.001242464 0.014764745 -0.012685497 -0.0025238318 -0.005793683 0.0016726538 0.003789276 -0.007928518 0.0060330317 0.0043381616 0.009065724 7.051812E-5 0.0068948087 -0.009978524 0.005800918 -6.038686E-4 -0.005789283 -0.011968402 -0.0036386172 0.0137664415 -0.0058396193 5.447523E-4 -0.0056433966 8.877904E-4 -0.00474404 -0.0035044188 -0.0049098604 0.011540811 -0.0013766381 0.012577055 -0.0016182227 0.0030913246 -0.004560717 -0.011505448 -0.0074807666 -0.0040286253 0.0020164798 -0.009642626 0.0055549727 0.0047172424 0.006534821 0.008050528 -0.008052294 0.003232571 -1.3578575E-4 -6.735363E-4 -0.0060078776 -0.0012131021 0.011283017 -0.009369027 0.0014259722 -0.0016211733 -0.006775389 0.002637991 -0.0065877535 -0.01057073 -9.225367E-4 -0.0010829619 -0.004154847 -0.001221323 -7.8774174E-4 -0.009480977 -0.0095192995 -0.0039539654 0.001423899 0.009939382 -0.004723901 0.00923478 -0.005523218 -6.471871E-4 0.006859175 0.0033128995 8.8016136E-4 -0.0087049045 -0.014226328 6.1607297E-4 -0.012738776 -3.778723E-4 -0.0014528031 0.008865716 -0.005508404 -0.0021783286 -0.002349855 4.5005846E-4 0.008571783 -0.0028796226 0.004325638 -0.00856923 4.47708E-4 0.0011806864 0.0023626143 -0.004298734 -0.004903459 0.009846937 4.8654803E-4 -0.003836953 0.008636512 0.00551972 0.007976831 0.0054665054 0.0073614796 9.323865E-4 -0.0027400502 0.010416008 0.001026942 0.004129533 0.010992292 -0.010572889 6.153807E-4 -0.00934026 0.0065882397 -0.011837639 0.0056747603 -0.0018956967 0.0036580414 0.0037069358 -0.0066507705 -0.0133283995 0.0040137568 -0.0076696705 0.00938126 0.016452529
30 -0.009554922 -0.0213954 -0.0021761127 0.0122812465 0.017242236 -0.027756762 0.0052610384 0.03595722 -0.025251275 -0.008387457 -0.0058450806 0.006748691 -1.6126518E-5 -0.01084341 0.006176817 0.008745854 0.024628315 -0.0038640113 0.024845228 -0.021912783 0.01609563 0.0036434263 -0.012539679 -0.021640295 -0.00833038 0.03563485 -0.019518547 -0.0035225023 -0.008580073 -0.00758597 -0.010159699 -0.0056279586 -0.021341933 0.019724807 -0.0010532107 0.024388017 -0.010382104 0.0070720576 -0.0129767535 -0.015468316 -0.013277123 -0.019793727 0.0150485 -0.016303917 0.008084882 0.008733331 0.016815128 0.025817802 -0.01591953 0.00957959 -0.004583484 0.006909016 -0.0040083746 -0.0035173916 0.016874254 -0.020227082 8.497233E-4 -0.012355358 -0.013887387 0.002212324 -0.0102436105 -0.013798669 -0.0020419215 -0.0066822 -0.0058839894 -0.0012870376 0.009981657 -0.013719711 -0.0151830185 -0.002059585 0.013716665 0.009812641 -0.009591089 0.010416786 -0.007222417 -0.004449741 0.012234242 0.0018504837 0.006738364 -0.021320455 -0.025132513 -0.00894112 -0.02392341 -0.0014322124 0.0021266893 0.014337518 -0.009139256 -0.006442698 0.0037736695 -0.009630949 0.009471526 -0.0054275156 0.012482894 -0.02163542 -0.0032823144 0.0010899866 -0.0059548146 -0.0092481 -0.006230551 0.01484168 -4.197199E-5 -0.004553699 0.02037354 0.017285638 0.018459383 0.018604947 0.007828283 -0.002655796 0.0021497053 0.02826809 0.015739497 0.0061778347 0.018946588 -0.028821781 0.011166078 -0.013211586 0.009101045 -0.01826494 0.007966405 -0.011502791 0.0022965302 0.0033938256 -0.01637802 -0.029778132 0.010876313 -0.022027077 0.01681243 0.032921158
14 -0.002711118 -0.009760877 -0.0012874709 0.0031330625 0.0029752394 -0.004677165 -0.0032931266 0.016173849 -0.004666685 -0.005423872 -0.0015219036 0.004874434 0.0011214149 -0.006154499 0.0053124907 0.0028031792 0.010720532 -0.00474865 0.011406371 -0.011622613 0.008406856 0.00459017 -0.0041920827 -0.004610208 -1.4747724E-4 0.013643414 -0.009659322 0.002011321 -0.0046917694 -0.00272535 -0.0042666895 -5.2908907E-4 -0.009716946 0.012264314 0.0016849448 0.009907872 -0.0038611926 0.0023715529 -0.004954309 -0.011287568 -0.003874944 -0.0072701033 0.005673587 -0.003254926 0.0012688533 0.0034447694 0.009572989 0.0049629463 -0.001888903 -4.939629E-4 8.9462573E-4 -5.3791875E-5 3.3604074E-4 -0.0015295836 0.009945622 -0.0034666844 -1.6405492E-4 -0.0057977634 -0.0033744394 0.0017520149 -0.0034995333 -0.0028287529 -0.0031354867 -6.631085E-4 -0.0013885967 -0.004645113 0.0051920395 -0.008449471 -0.005549052 0.0014558189 0.0071864603 0.0018363515 -0.005854618 0.008415647 -0.0064250967 -1.8529441E-5 0.0034817248 0.001352086 0.0010589132 -0.010524724 -0.008854037 -0.001071196 -0.011283975 0.0016822558 0.0013251394 0.0053508733 0.0010549659 -2.7423067E-4 -0.0023484 -0.005252771 0.0022796756 -0.0032083972 0.008632092 -0.002863532 3.81305E-5 0.0034394104 -0.0048695086 -0.0038365275 -0.005633829 0.003920139 8.169982E-4 -0.0056110183 5.301526E-4 0.010168113 0.003238752 0.008798452 0.0049561616 -0.0043529444 0.0019077619 0.013548414 0.0029312172 0.0012239479 0.0070051244 -0.00784498 -5.240604E-4 -0.005745435 0.0039833244 -0.011015681 0.0036786166 -0.0030858552 0.0015057928 -0.0015012369 -0.007669656 -0.014918388 0.0063077966 -0.0064174575 0.009317033 0.013903589
24 -0.011001523 -0.013014156 -0.002558261 0.012536674 0.017125614 -0.019384397 0.007448285 0.025917126 -0.016163006 -0.0033969963 -0.006896158 0.0017701186 -0.0023723 -0.010557009 9.78803E-4 0.0040578637 0.020753995 -1.3694612E-4 0.021940308 -0.016718183 0.013892827 0.002692751 -0.005877028 -0.01678605 -0.0042254627 0.028325425 -0.020746894 -0.008960532 -0.0033809755 -0.0014912515 -0.009498686 -0.0016206027 -0.012777146 0.018493505 0.0020086702 0.02252849 -0.009463445 0.0067957905 -0.009285162 -0.013832285 -0.010510224 -0.016559483 0.0139925 -0.015858246 0.008262296 0.0051975623 0.007862357 0.021795949 -0.012233632 0.0110736145 -0.0028660211 0.007002144 -0.003634859 0.0019732441 0.013908137 -0.02110707 0.0014028678 -0.013062943 -0.009472706 0.0038061428 -0.010994354 -0.010448319 -0.0013524257 -0.006907379 -0.0043363804 -0.0065830084 0.0037946347 -0.011566005 -0.014728419 -4.0428885E-4 0.010552099 0.01050069 -0.009462814 0.010777308 -0.0058839023 -0.0043993336 0.0076129697 -0.0020284972 0.00752952 -0.015296575 -0.019082567 -0.0032390465 -0.023543578 1.5740738E-4 0.006585092 0.013031808 -0.0045060012 -0.004081636 0.0055697495 -0.008983933 0.007362113 -5.1330077E-4 0.008582197 -0.012599706 -0.006817241 0.0052453913 -0.0029576407 -0.009544117 -0.0054265326 0.01307932 0.0026325586 -0.0023194402 0.011618203 0.017741853 0.013597736 0.014756211 0.00690019 -0.0037960398 0.0046841386 0.027990717 0.014620623 0.008882188 0.011123783 -0.023842262 0.005342571 -0.01182033 0.010986833 -0.021301487 0.006420804 -0.007899622 0.006106668 0.0076270867 -0.0091442065 -0.022571495 0.0068049054 -0.0135105 0.00800441 0.027594013
32 -0.0074685705 -0.009090782 -0.0034269546 0.008268174 0.013632385 -0.011075657 0.0031421261 0.023763383 -0.015117113 -0.004215081 -0.008497071 -5.3283675E-5 6.7707035E-4 -0.010443094 0.0050591645 0.0031136172 0.014720643 -0.0023251274 0.0129529005 -0.014510739 0.014515184 0.0023500328 -0.003700497 -0.014082076 -0.008537544 0.023417613 -0.013657469 -0.002524044 -0.002749868 -0.0024075261 -0.007976222 -0.0033894177 -0.008728527 0.011121929 0.0038120898 0.014435394 -0.010947605 0.0021112731 -0.0015939372 -0.01487986 -0.00447887 -0.011692447 0.007270064 -0.014550097 0.006520911 0.007990144 0.007649126 0.016340826 -0.011783268 0.0029749926 -0.0016880846 9.1872015E-4 -0.0014963804 0.0011057308 0.01459427 -0.016696332 -0.0011037483 -0.0058100484 -0.0064016767 0.0021050323 -0.007523555 -0.011864551 0.0020566229 0.0017514499 -9.220998E-4 9.418108E-5 0.007953134 -0.005807819 -0.011742999 -0.0033875227 0.009191119 0.012563729 -0.0056332154 0.014700989 -0.0016976049 -0.0025882924 0.0036075404 -0.004223894 0.003147816 -0.008749736 -0.012209523 -0.0074312803 -0.021978782 0.004158842 0.003478398 0.006358153 -9.8391E-4 -0.0022809093 4.9839466E-4 -0.0027309656 0.010577313 -0.0066048186 0.009065873 -0.008890429 -0.0069055334 0.00622171 -0.0010763512 -0.00765191 -0.0017686499 0.0074516805 0.0011205279 -0.001717668 0.005937065 0.015354822 0.011332227 0.01025345 0.006789566 -0.0072633843 -0.0028775635 0.020595975 0.009483509 0.0033299704 0.007336454 -0.014336543 0.0062774085 -0.0038068488 0.0057274117 -0.011477919 0.009648151 -0.0049082725 0.0059345257 0.006666017 -0.007166254 -0.016362507 0.008509655 -0.012435793 0.0119788535 0.024831807
4 -0.0050417823 -0.00890499 -0.0052134967 0.008087609 0.0084725935 -0.009144738 -0.0010270069 0.019374942 -0.011550061 4.9066124E-4 -0.0069089294 0.0012351106 -1.4302945E-4 -0.00254905 0.0016590366 0.004688322 0.014452977 -0.005610206 0.010454363 -0.011818625 0.008799437 0.0053258697 8.836789E-4 -0.00822718 -0.006748573 0.018523093 -0.010269245 0.002427676 -0.0018607683 -0.0025042114 -0.0016748167 -0.0011402692 -0.01006671 0.006877977 -1.6171731E-4 0.011154339 -0.003035419 -5.7703396E-4 0.0010677868 -0.013582305 -0.001914695 -0.0075220303 0.0072640423 -0.010425688 0.0061494457 0.006485992 0.009381823 0.011597165 -0.0031565132 0.0027549905 0.0012361722 -0.0026541676 -5.8041577E-4 -0.0044207852 0.010070414 -0.0046605337 -0.005326942 -0.0070051905 -0.0063047362 4.622587E-4 -0.0067143603 -0.01042013 -0.0052532577 0.0023958967 -0.0019233328 0.0018470177 0.0013129165 -0.008940775 -0.0036348233 0.0020021053 0.007975558 0.0033860325 -0.008715233 0.005890979 -0.0060952883 -0.0037229175 -6.1027275E-4 -0.003741859 -5.9003403E-5 -0.011532483 -0.015184882 -7.465068E-5 -0.013344102 9.303658E-4 0.006313357 0.007610967 -4.936504E-4 0.0013766139 -4.3665498E-4 -0.0034540517 0.007326208 -0.0023001928 0.0062691905 -0.0017768913 -0.003589838 0.0015057039 0.0011090338 -0.009746449 -0.0059640203 0.0076648267 -0.003524902 6.2594906E-4 3.5099103E-4 0.010332662 0.0048054783 0.0074068247 0.0057722977 -0.004276913 -0.004068457 0.014989001 0.005049424 -0.0010860588 0.010963274 -0.012002368 0.003182018 -0.001797507 0.0040659527 -0.008906884 -2.6120586E-4 8.143479E-4 0.0023353926 0.0018597153 -0.0029903287 -0.008801265 0.0017791031 -0.009752078 0.0052798577 0.016369674
2 -0.009605369 -0.013037417 -0.002682055 0.011708024 0.012977548 -0.009962024 -0.0012570398 0.025564164 -0.017452098 -0.0038464814 -0.012244474 0.008041648 0.0033077528 -0.008368495 0.0076809684 0.008711288 0.01868076 5.9884804E-4 0.012056772 -0.01755006 0.012335726 0.0063423067 -0.0031637517 -0.008306079 -0.009722682 0.025817718 -0.01128468 0.0014240833 -0.003196601 -0.0027113035 -0.0066610537 -0.0027455413 -0.008878613 0.017919011 0.006602092 0.012263225 -0.010567478 0.006134411 -0.0015480018 -0.017642872 -0.007082301 -0.010367308 0.007941833 -0.015415262 0.0073440955 0.009598287 0.012084836 0.01388179 -0.0065721422 0.006173963 -0.0025073604 0.0029293324 -0.009610956 1.7090289E-4 0.011037308 -0.01078446 -0.003021205 -0.005222802 -0.00401973 0.00346864 -0.0035867149 -0.015265789 -0.0075211884 0.0017117759 -0.008284273 -7.988847E-6 -6.560874E-5 -0.013381411 -0.009753545 0.0031852422 0.008945914 0.012384607 -0.0077133 0.016748639 -0.0044039916 -0.004032597 0.0022998168 -0.0022234549 -0.0013646305 -0.013867769 -0.02156443 -0.0037641418 -0.019900618 0.0054647587 0.0047413674 0.010078929 -0.0052606342 -0.0032051504 -0.0027696409 -0.0019199224 0.008217358 -0.0028432922 0.011476019 -0.010464063 -0.008981361 -8.7626895E-4 -4.5826135E-4 -0.01347825 -0.008818267 0.01196793 -0.0021762818 -0.007263814 0.0030664508 0.013038182 0.013072949 0.007655104 0.0073392973 8.2572293E-4 -0.0021211146 0.018740326 0.003380349 1.5879794E-4 0.014862149 -0.015257027 7.3363265E-4 -0.00806532 8.1112597E-4 -0.015675692 0.0076360325 -0.004282373 2.3916554E-4 0.002950809 -0.005065862 -0.022425966 0.0056792763 -0.015382264 0.007619313 0.022910455
3 -0.017923996 -0.021399755 -0.0060158344 0.012804792 0.015961638 -0.019933952 2.200485E-5 0.040430803 -0.023816558 -0.0053118956 -0.016029106 0.0063286945 0.005247423 -0.009801404 0.0081614945 0.008832456 0.027584558 -0.0068018427 0.02031402 -0.02362102 0.022788055 0.0033180905 -0.0069499062 -0.025029467 -0.005795095 0.037902463 -0.020751467 -0.004465025 -0.009025745 -0.009231856 -0.007741811 -0.008518934 -0.020925747 0.02356241 0.0037866281 0.02223498 -0.012191825 0.0045364 -0.011211435 -0.019155264 -0.0133698415 -0.01576726 0.01044458 -0.016902141 0.0052539413 0.008767515 0.017687934 0.021613583 -0.016758297 0.0058522876 -0.0014901345 0.002701828 -0.011627731 -0.0030432208 0.019448038 -0.021775557 -0.0015225399 -0.013692961 -0.014108154 0.0037363062 -0.0115560945 -0.018277496 -0.006818653 -5.070336E-4 -0.009385322 -4.7000294E-4 0.0025830164 -0.012494047 -0.016279118 -0.0031626301 0.015873777 0.012739952 -0.015821451 0.020984259 -0.007960622 -0.0041981936 0.013784156 -1.4131416E-4 0.0028536462 -0.019203285 -0.030541226 -0.0011985152 -0.026543789 9.256171E-4 0.0034383696 0.013428275 -0.007155469 -0.0045336788 -0.002167837 -0.004063801 0.014027012 -0.005739424 0.013542444 -0.013669806 -0.0055196523 0.007029773 -0.0045774663 -0.015930887 -0.006668659 0.019115679 -0.0060726134 -0.0047972193 0.014347129 0.022115232 0.018979162 0.014822494 0.01487255 -0.0075528375 0.0031502584 0.03197609 0.013608456 0.0033819885 0.016116252 -0.022964252 0.01157299 -0.012047555 0.007905912 -0.025060654 0.012335515 -0.009429841 0.00548426 0.0069358437 -0.01004292 -0.032547887 0.0076683876 -0.023222335 0.01406691 0.03245419
33 -0.02316952 -0.028274516 -0.01139749 0.018907653 0.03204651 -0.04187898 0.007911589 0.05534738 -0.037143532 -0.0050731753 -0.020328965 0.005213431 0.00155307 -0.021003708 0.01255051 0.0140628135 0.040322725 -0.0062745814 0.03417696 -0.034057703 0.033910938 0.0057753813 -0.015832199 -0.037154205 -0.010807956 0.052706398 -0.03745695 -0.014612709 -0.010805768 -0.008218293 -0.018891243 -0.01372855 -0.03268706 0.032220073 0.002147349 0.040234074 -0.014712679 0.008112865 -0.011689686 -0.02913013 -0.01626631 -0.026378607 0.023536498 -0.028117191 0.014353012 0.017886175 0.023419322 0.03997855 -0.023615554 0.018483272 -0.004433936 0.0073068263 -0.010230018 0.0023235837 0.0289105 -0.040717054 0.0033474418 -0.021779757 -0.017128427 0.007103102 -0.01732906 -0.024706667 -0.0054714736 -0.0028569964 -0.014150017 -0.006845685 0.011154034 -0.024477603 -0.03093785 0.0013216749 0.017365389 0.025016002 -0.02138982 0.023268662 -0.01586595 -0.0053697503 0.019271515 -0.0024846431 0.008280266 -0.032591656 -0.03763374 -0.01383026 -0.047053933 0.0038215735 0.007876113 0.027464608 -0.012878573 -0.014640474 0.008677925 -0.012632723 0.020426122 -0.010727819 0.023459319 -0.031025931 -0.0116681745 0.01121915 -0.0056455657 -0.024001794 -0.017325295 0.029211733 -0.005903422 -0.01003373 0.020887155 0.028651362 0.030103032 0.030321108 0.016373204 -0.011663546 0.001543997 0.048641622 0.021773327 0.0159093 0.028396748 -0.046507783 0.016003678 -0.022425562 0.018348591 -0.0348917 0.013100258 -0.012644197 0.0041855453 0.00661144 -0.024837254 -0.04625306 0.012960838 -0.029927898 0.025929779 0.058241345
1 -0.016188707 -0.024995837 -0.004065097 0.014431462 0.01647716 -0.018494941 -8.4447896E-4 0.044710048 -0.02253533 -0.0028947487 -0.012568198 0.011623544 0.0052906494 -0.018232549 0.009597489 0.0053623957 0.02972954 -0.0041176197 0.021328622 -0.025434611 0.025854858 0.0017161374 -0.005039866 -0.019582678 -0.012791715 0.039672613 -0.018295765 0.0025633026 -0.009425325 -0.009216647 -0.012144279 6.841429E-4 -0.023134341 0.028027615 0.0056440895 0.025134293 -0.012109126 0.0058041676 -0.0067689745 -0.028182473 -0.016021086 -0.0135030495 0.018199049 -0.021279972 0.006879645 0.011372564 0.015838588 0.027268188 -0.014494658 0.0029210374 0.0015910795 3.7130615E-4 -0.011471399 -0.0048178383 0.021906354 -0.020099353 -0.0048151733 -0.011497926 -0.012546703 0.007947704 -0.0085132755 -0.023080895 -0.0072487504 0.0027329235 -0.006595424 -0.0060460204 0.0038485124 -0.015957529 -0.012003346 -0.0025269287 0.013305913 0.014954536 -0.017742801 0.025743332 -0.009938933 -0.0059762094 0.0074879453 9.991307E-4 0.0052486323 -0.016289419 -0.033453733 5.117504E-4 -0.03175317 0.0012820844 0.010980728 0.018728137 -0.0015994969 -0.0012196301 -0.0042705727 -0.0036513424 0.013148898 -0.0020709524 0.012033658 -0.008099848 -0.0115163 0.005189901 -0.004616589 -0.018826464 -0.0069043846 0.022185493 -0.0055896505 -0.006572307 0.004543764 0.024753774 0.021166764 0.008821797 0.011964462 -9.026517E-4 -0.0058428864 0.031590756 0.008968184 0.006903683 0.02008119 -0.019822398 0.0078064627 -0.018063182 0.0027388898 -0.027523123 0.011151736 -0.009350479 4.7936625E-4 0.008353064 -0.014271633 -0.035002954 0.009550958 -0.01624246 0.019277833 0.032094713
34 -0.035042644 -0.04450172 -0.016241014 0.030432573 0.041714467 -0.060554307 0.013643563 0.08294396 -0.052749895 -0.011308823 -0.026517913 0.015988193 6.4499216E-4 -0.031969063 0.0148699675 0.024482686 0.058721505 -0.014493182 0.05738079 -0.056965422 0.04486957 0.004134727 -0.027827399 -0.054126956 -0.023535166 0.082194254 -0.053755358 -0.016883712 -0.016380785 -0.014123261 -0.021822749 -0.015686376 -0.0459697 0.050090898 0.0041343165 0.056296855 -0.029367058 0.008069351 -0.023537526 -0.044159245 -0.026943903 -0.04175765 0.030196037 -0.04100608 0.021768805 0.022704374 0.03663407 0.056817595 -0.03166221 0.029325804 -0.0018824486 0.010956428 -0.022342542 2.473594E-4 0.040099848 -0.05693161 8.9124596E-4 -0.03814849 -0.02610522 0.012810331 -0.027345296 -0.037319932 -0.0087900255 -0.009840743 -0.015026767 -0.013017393 0.018803172 -0.028704558 -0.044674747 4.257364E-5 0.030027153 0.033879295 -0.033837225 0.039280903 -0.024956184 -0.0032791924 0.032953624 3.0938306E-4 0.015077639 -0.050280843 -0.06151328 -0.016324561 -0.0679254 7.4749446E-4 0.010472694 0.04153407 -0.01475256 -0.019700453 0.00832455 -0.014676999 0.032678675 -0.009991882 0.032383677 -0.043451294 -0.011425345 0.011047966 -0.005175929 -0.030603774 -0.022429653 0.0403573 -0.0031652688 -0.008401816 0.03939281 0.048670687 0.044510372 0.043203767 0.028936261 -0.012781508 0.008604081 0.07476966 0.034002297 0.018995008 0.044585384 -0.06635187 0.020907896 -0.0266845 0.02642735 -0.05406477 0.02670023 -0.026538705 0.01133192 0.010249794 -0.03372578 -0.0661052 0.02522753 -0.05143255 0.03476048 0.08273356