34 128
12 -0.13947138 -0.003725502 0.14359476 0.008488484 0.18607154 0.11777902 -0.11363359 -0.035296742 0.08523725 0.037800476 0.050800446 0.049334005 -0.14070234 -0.047715086 0.1511063 -0.115865275 0.18919232 0.32049572 -0.16665368 -0.042670593 -0.08680999 -0.16883777 -0.117254436 -0.12454718 0.061922383 0.20310688 0.11217921 0.012306941 0.07070476 0.36060807 0.16878246 0.11490396 -0.011470183 0.008454169 0.1744754 -0.28390363 0.056385953 0.022797814 0.1339368 0.0066674594 9.936803E-4 0.095052205 -0.027630841 -0.12445038 -0.16224729 0.24254765 0.098211974 0.27726403 -0.1537147 0.1185992 0.15884635 0.16113314 -0.015355047 0.18498987 0.16136105 -0.06150583 0.011070442 -0.15566373 -0.28433782 -0.33278194 0.1300956 0.088231914 -0.06957966 -0.0018026005 0.0025213922 -0.0031301267 0.23866862 -0.12921724 -0.41937158 -0.0037892065 -0.062677555 -0.06471198 -0.11869192 -0.2630277 0.057828743 0.27651647 -0.13746738 -0.19929683 0.073255874 0.10186272 0.11435196 -0.06789622 0.11034031 -0.15977949 -0.09637865 0.058365162 0.09965618 0.1540655 -0.06029657 0.27042493 -0.17977062 0.22260478 0.020173239 0.21064574 -0.07264638 -0.1314606 0.11323697 -7.8472635E-4 0.24052414 -0.14193253 -0.087023 0.21750218 -0.2522731 0.10776886 0.07916129 -0.094782226 0.28175458 0.07716147 0.18438753 0.18485335 -0.40986943 0.12800328 0.054771647 0.05683127 -0.033858243 -0.1083498 -0.23804931 -0.060954653 0.067899525 0.30685198 0.051664993 -0.152567 0.20712908 0.028592411 -0.046480432 0.21393695 -0.004213069 -0.109186105
15 0.3090173 0.02763013 -0.18239723 0.028747745 -0.0863237 -0.018155996 -0.23929204 0.020836968 0.21198204 -0.0066257776 -0.026178282 0.012684409 -0.015763951 -0.36752814 0.020846635 -0.054737184 0.34175524 -0.016342068 0.017417451 0.059181526 0.12153345 -0.18901919 0.01623287 -8.3659973E-4 -0.0025154364 -0.020470394 0.07620676 -0.080827355 7.7334343E-4 -0.0059018955 0.22774377 -0.1434175 0.19519012 0.16834284 -0.083010904 -0.06076371 -0.008281186 0.0067477035 0.04565119 -0.19172557 -0.0018106212 0.42411 -0.16171043 -0.14893417 -0.19718583 0.22916831 -0.11034469 -0.092668295 0.064484194 -0.15388876 -0.3422272 0.17805876 -0.07642399 -0.14295873 -0.039704718 0.024998521 -0.101674676 -0.08299979 0.10919214 0.22684495 0.13072981 0.16690822 -0.05788451 0.29835895 -0.09759788 0.113637835 -0.011373599 -0.061210338 -0.036077827 -0.08730462 0.21173562 0.1824008 0.22637686 -0.15373006 0.105075546 -0.13521148 -0.04512519 0.12209436 0.15154465 -0.026827104 -0.100301385 0.008683984 -0.0034675468 0.080678046 0.08299651 0.122065514 0.452601 0.26885715 -0.118311875 -0.11450703 -0.050474245 0.22760439 5.412183E-4 0.17594367 -0.06568197 -0.040910106 -0.22913487 0.082647875 -0.11218813 -0.097782455 -0.1038234 0.19089037 -0.26310554 -0.14071666 0.13841097 0.16593455 -0.13546751 0.04358769 -0.4534913 -0.031838838 0.26105452 0.050745808 -0.083683714 -0.15021448 -0.10942193 -0.08496943 -0.1572483 -0.23745964 -0.149407 0.12995632 0.313565 -0.018465333 -0.08413822 0.059921123 -0.23270923 0.11727475 0.45882627 -0.14291845
19 0.27332985 0.023765486 -0.17184801 0.0472658 -0.1005854 -0.043065928 -0.21513295 0.022608822 0.22256544 0.017293312 -0.0017693749 0.0432146 0.01792221 -0.34392244 -0.013164961 -0.08478079 0.34398463 -0.04948647 -0.024844099 0.071800604 0.13680759 -0.1777253 -0.0110329045 0.01896913 -0.015295612 0.00824637 0.068590425 -0.07233843 -0.039797753 -0.012149347 0.23622541 -0.14721899 0.23717201 0.19281499 -0.066229016 -0.071356654 -0.01041852 0.015779188 0.06617186 -0.20315014 0.046632946 0.4527065 -0.18232572 -0.18511161 -0.15357502 0.25469077 -0.12247204 -0.0794187 0.09640002 -0.16600901 -0.35343122 0.19170645 -0.03568084 -0.103945285 -0.019755708 0.04774505 -0.08485933 -0.09566599 0.13492317 0.2335589 0.16095822 0.16350925 -0.07314312 0.3175224 -0.11143094 0.10322175 -0.03090618 -0.05620531 -0.017621016 -0.08293379 0.23118529 0.1817759 0.22135445 -0.15374608 0.13078113 -0.1409954 -0.062329095 0.15315355 0.15948974 -0.0123471785 -0.102644786 0.031025928 -0.015469881 0.049702648 0.11936235 0.12798442 0.46870393 0.27836794 -0.10239558 -0.07898654 -0.038165234 0.26997733 0.011126453 0.1795909 -0.07388143 -0.040683895 -0.24424005 0.05263366 -0.12149017 -0.11971368 -0.09734277 0.20423442 -0.25867334 -0.17389746 0.13761441 0.16600455 -0.123209484 0.047594838 -0.44383678 -0.031663023 0.26659924 0.050238967 -0.0983209 -0.13654275 -0.119646855 -0.10951735 -0.15838134 -0.21185184 -0.1393726 0.13184734 0.30689862 -0.023146382 -0.115587324 0.086589046 -0.25880462 0.11546552 0.5096213 -0.15429927
22 -0.19273986 -0.05255271 0.09326915 0.10852468 0.17459626 -0.03961796 -0.21244906 -0.10042399 3.8140346E-4 0.12888676 0.015381837 0.05606502 -0.04778464 0.021179646 0.09022551 -0.12076262 0.11983943 0.3822466 -0.09444803 -0.038536668 -0.016382735 -0.30296403 -0.11297999 -0.20854364 0.068595774 0.3192525 0.2012799 0.12659207 0.16351095 0.4796411 0.05418494 0.089383386 -0.14305758 0.0034278934 0.05483958 -0.29490635 0.08902881 0.057482075 0.028026773 -0.041033678 -0.13300726 0.020072386 -0.14239477 -0.14897338 -0.22548033 0.29568955 -0.039257694 0.08603977 -0.16577667 0.12711214 0.03232767 0.10568875 0.019033132 0.21735042 0.16503295 -0.055902775 0.011552266 -0.10067168 -0.35034198 -0.31562507 0.18627156 -0.008267475 -0.08400557 0.0366387 -0.1204311 0.07883291 0.13514894 -0.23796004 -0.34762874 0.01226071 0.036239214 0.028944911 -0.031368364 -0.1776456 0.041253697 0.11033564 -0.16827162 -0.05126448 0.11967956 -0.07574581 0.040116087 -0.049142487 0.008300938 -0.183337 -0.13289079 0.018740796 0.028203474 0.27924004 -0.16166076 0.14430115 -0.18845318 0.21308301 0.04526812 0.120264255 0.0053317077 -0.19008432 0.111251175 0.060230955 0.1875442 -0.13521059 0.0028831088 0.17980824 -0.27173367 0.068566985 0.115968995 -0.025614481 0.21474142 -0.0012835619 0.055127718 0.1858179 -0.19572283 0.18600145 0.18711096 0.06501008 -0.11761562 0.028665984 -0.31365708 -0.24041985 -0.0054570823 0.27950162 0.09799897 -0.16187379 0.21744688 0.01036876 -0.09185043 0.17441961 -0.09066909 -0.09323408
27 0.13097015 -0.1429113 -0.057863783 -0.010281345 -0.41198277 -0.042162914 -0.22179157 0.1413165 0.47252557 0.035029463 -0.09041458 0.14608757 -0.03509019 -0.40577412 0.018377885 -0.056683365 0.5344261 -0.08345549 -0.17762059 0.106962256 0.01796856 -0.31978637 0.047899038 0.10508174 0.016539566 0.0411093 0.19652526 -0.15691434 -0.30288324 -0.0041786577 0.24150161 -0.09026675 0.2959689 0.28254175 -0.12699676 -0.18656147 -0.15987806 0.038168263 -0.023538038 -0.018411053 0.25162926 0.44050518 -0.068556525 -0.22939841 -0.09535274 0.16560872 -0.10057355 0.085345134 0.0125425 -0.23037234 -0.37419072 0.2537709 -0.23981655 -0.068882115 -0.1841233 0.013324943 -0.0755747 -0.13156284 0.26032296 0.17392607 0.056121085 0.12029537 -0.043949045 0.05862897 -0.026374033 0.32448798 0.06435931 0.051724937 -0.18612194 -0.041547526 0.28175133 0.15500687 0.34815684 -0.2668848 0.22858806 -0.28411642 0.05547237 0.19074193 0.087204635 0.042410977 -0.15692587 0.31856865 -0.26941293 -0.05574704 0.045122605 0.18752183 0.47845662 0.2620654 -0.17215413 0.06918247 -0.08579825 0.04083027 -0.063393414 0.19655989 -0.16022374 0.006381657 -0.26024652 -0.039403558 -0.037903886 -0.049123958 -0.17076546 0.3409575 -0.27309668 -0.067415744 0.15862353 0.124415495 -0.07427689 0.23130631 -0.46357328 -0.04157219 0.061569415 0.027440691 -0.011507071 -0.1866241 0.03560375 -0.1760262 -0.022091195 0.07191299 -0.0021859044 0.19138555 0.28041422 -0.05226527 -0.096878685 0.25376272 -0.13483818 0.10659867 0.65228444 -0.08404018
10 -0.010251468 -0.09490084 -0.020081012 0.21972106 0.06071932 -0.22879106 -0.09955801 0.057216424 0.14061221 0.21492323 0.1345884 0.08116584 0.049192093 -0.019838251 -0.17229713 -0.106200606 0.1222827 0.027507512 -0.27345204 0.023268476 0.11909058 -0.13448204 -0.20703587 0.038345486 -0.010652137 0.17473225 0.011738122 -0.013655787 -0.10295818 0.080680005 0.24811986 0.09867966 0.33747923 0.24024624 0.07381972 -0.24779221 0.13969815 0.1217299 0.08869595 -0.0869966 0.08534682 0.20028512 -0.14674465 -0.21410929 -0.06594091 0.23889273 -0.07073213 0.053173542 0.14960313 -0.028881319 -0.2507758 0.0729773 0.25034815 0.12487744 0.0863453 0.14688161 0.058545664 -0.026004033 0.29123348 0.13797836 0.23845877 0.026729643 -0.047978017 0.19022849 -0.085891746 0.09969344 0.050205033 -0.14372571 -0.063668534 -0.109414265 0.21728572 -0.051621497 0.12154701 0.04433267 0.23738846 0.07572538 -0.13088429 0.13237773 0.09232217 -0.15764672 -0.016934566 0.16097008 -0.14347507 -0.16573349 0.04144888 0.05599685 0.16263454 0.13658193 -0.040517107 0.13601041 -0.12210181 0.1968816 0.13928983 0.033926107 -0.12989193 0.15490067 -0.15785076 -0.049423374 0.024390647 -0.24332039 -0.179533 0.17568888 -0.1667492 -0.13878532 0.13738893 0.0650315 0.17864351 0.08291118 -0.12271393 0.06249196 0.19264452 0.119268164 -0.07923306 0.02052542 9.3658495E-4 -0.20949195 -0.010953361 -0.18909846 -0.04253094 0.08088741 0.1816882 -0.09941369 -0.14343855 0.23970637 -0.33123106 0.1399053 0.34601352 -0.17432974
21 0.3072323 0.027139487 -0.1926009 0.052887 -0.09613892 -0.04398409 -0.21708536 0.011685519 0.18199624 -0.012292284 -0.044584103 0.037221715 -0.009975395 -0.33060706 0.012749689 -0.061037228 0.29552275 -0.036710884 -0.005404073 0.05606948 0.1260075 -0.22355567 -0.03682695 -0.017164014 -0.0025077614 -0.04522594 0.08395633 -0.066992044 0.0019929388 -0.015179301 0.2764038 -0.10024117 0.2341921 0.16224642 -0.057212725 -0.029104395 -0.03367077 0.024320431 0.063853785 -0.17235374 -0.00520131 0.39190108 -0.14812775 -0.17837471 -0.17341517 0.23660812 -0.10213432 -0.096928366 0.08254989 -0.118392825 -0.32861075 0.18926933 -0.06678801 -0.11157422 -0.009738421 0.060971934 -0.120811835 -0.11097824 0.1556375 0.26684543 0.10819162 0.18857153 -0.035244152 0.30261084 -0.09405356 0.11629752 -0.046798218 -0.03250647 -0.013571149 -0.09429876 0.20089659 0.15441324 0.18875715 -0.1533338 0.14753059 -0.1492748 -0.047828306 0.12615791 0.120230235 -0.050391488 -0.12689784 0.043012634 -0.06156351 0.05326433 0.08174238 0.11439445 0.43562302 0.25436825 -0.0826194 -0.12502189 -0.035100758 0.20879251 0.022999203 0.14145608 -0.08891712 -0.0037909048 -0.24209702 0.07018831 -0.12244908 -0.09293148 -0.091632694 0.16496405 -0.24310838 -0.14321819 0.1384828 0.17549789 -0.0662725 0.08463875 -0.43900877 -0.013159592 0.28689194 0.07352979 -0.10682913 -0.1452087 -0.07088737 -0.11461328 -0.14634292 -0.24368511 -0.15205497 0.08974747 0.33277422 -0.0075648315 -0.13125245 0.056275304 -0.24637267 0.13123153 0.4828595 -0.103007816
18 -0.14049314 -0.024485819 0.06193044 0.08634303 0.17177524 -0.0307102 -0.22446387 -0.120653905 -0.009746756 0.096744105 -0.008566239 0.038466953 -0.061361246 0.011463599 0.10000899 -0.11565058 0.099995784 0.39354876 -0.05269854 -0.055796262 -0.023449337 -0.3166887 -0.11301391 -0.23018047 0.0702251 0.27395272 0.20790367 0.12111434 0.2054295 0.4710965 0.0640679 0.107922964 -0.15765241 -0.009463097 0.045860153 -0.26618254 0.08163258 0.061104763 0.017040081 -0.04820517 -0.1668107 0.0058655697 -0.11828009 -0.14253452 -0.2622695 0.2789511 -0.03178698 0.061382677 -0.18267864 0.15063453 0.041203458 0.101963 -0.0039220555 0.18918872 0.17118798 -0.043455854 -0.009115914 -0.103643835 -0.355123 -0.2891809 0.14619793 0.019442515 -0.06911065 0.050613157 -0.10304556 0.06742125 0.11770636 -0.2305957 -0.3415981 -0.005760925 0.009734245 0.020499682 -0.044476938 -0.18214962 0.044677086 0.10175735 -0.1646445 -0.07246027 0.09982871 -0.07746931 0.027061563 -0.064442545 0.004317169 -0.1651716 -0.1393587 0.016895004 0.029138071 0.27998975 -0.16485903 0.103299595 -0.17315552 0.20205584 0.03437554 0.111539885 0.008959289 -0.18665807 0.10820113 0.10274305 0.16438907 -0.10910178 0.009200928 0.17038833 -0.2645475 0.07775396 0.12553294 -0.011179646 0.21006455 0.004496807 0.031727344 0.1919004 -0.18530232 0.18385598 0.16931306 0.05302817 -0.10809159 0.029145442 -0.31898502 -0.27532852 -0.015939036 0.25494796 0.122175604 -0.14376752 0.21337302 -0.019592194 -0.080156066 0.18722297 -0.10635423 -0.06418074
23 0.30377403 0.03837052 -0.18664245 0.054656155 -0.055356447 -0.04307615 -0.23811388 -0.0011936694 0.18879844 0.020508964 -0.02781036 0.006391252 -0.009781633 -0.32628012 -0.008206545 -0.07313707 0.2994065 -0.00884292 0.0063004307 0.02564265 0.13878782 -0.18272802 -0.020859282 -0.019052526 -0.0043744817 -0.010105936 0.068543844 -0.064885005 0.009538487 0.009293736 0.22181283 -0.11972854 0.19856557 0.17563467 -0.071321934 -0.06815273 0.0060395836 0.0046284865 0.050708752 -0.19399206 -0.030643778 0.39805162 -0.14642829 -0.16651797 -0.20706913 0.22463036 -0.08957249 -0.11383884 0.056679457 -0.13405608 -0.32895482 0.14917816 -0.045573536 -0.13902758 -0.019158453 0.03048484 -0.0812208 -0.090790905 0.10642043 0.2305126 0.13075879 0.15565728 -0.06102013 0.3359002 -0.0989844 0.10226037 -0.047713112 -0.06315204 -0.01876746 -0.109472886 0.18908708 0.16975719 0.19381742 -0.13711633 0.11213193 -0.122935556 -0.0722345 0.09597212 0.1451761 -0.027624944 -0.09910751 -0.017543368 -0.0075337533 0.047145817 0.09154523 0.10432925 0.39828882 0.29571548 -0.1155144 -0.10890057 -0.039656118 0.2409364 -0.007528609 0.16829254 -0.06300651 -0.03278628 -0.22731268 0.11018296 -0.11222206 -0.09856394 -0.08869275 0.16994205 -0.25513208 -0.13817239 0.15772861 0.18128797 -0.10735407 0.03418473 -0.42119217 -0.027869204 0.25066975 0.05782597 -0.09711938 -0.12512216 -0.11337565 -0.094480515 -0.17804004 -0.25081348 -0.14776777 0.103554696 0.30567095 -0.027061516 -0.086710975 0.049094673 -0.24941862 0.11010051 0.43053398 -0.12379216
16 0.2947377 0.014748207 -0.17465477 0.05954496 -0.095376365 -0.038315695 -0.23094457 0.010824201 0.1760201 -0.0014061375 -0.057837933 0.054406855 -0.01280128 -0.34655848 0.01769691 -0.06923914 0.3226771 -0.0386659 -0.009604481 0.046520263 0.13164763 -0.24105525 -0.020179082 -0.034354106 0.008372588 -0.034021303 0.10140066 -0.04243964 6.169968E-5 0.023762345 0.25647768 -0.117404066 0.20204504 0.16808797 -0.070899576 -0.027759846 -0.04696355 0.011240031 0.06259455 -0.16174982 -0.019418394 0.38859648 -0.14876853 -0.16441521 -0.16485378 0.2377079 -0.09927947 -0.09861188 0.06870791 -0.11910079 -0.33397084 0.17665376 -0.09175979 -0.094489984 -0.011435198 0.038291615 -0.12421814 -0.09609822 0.12268697 0.23809335 0.1121847 0.17824297 -0.05048129 0.2976558 -0.122755624 0.15214925 -0.041403934 -0.022570508 -0.01618075 -0.07882583 0.19125693 0.16693938 0.1911147 -0.16904418 0.1395822 -0.16452017 -0.04797314 0.13432105 0.11858469 -0.050888386 -0.12076641 0.040147685 -0.06438015 0.059853643 0.07183064 0.12764026 0.42660606 0.26783767 -0.10258528 -0.140789 -0.043596104 0.2089651 0.017495723 0.13907857 -0.0859745 -0.042368393 -0.23814656 0.07590477 -0.11416583 -0.077883154 -0.08698247 0.16221571 -0.24834403 -0.14467402 0.13981016 0.1683935 -0.08595246 0.06864281 -0.432435 -0.028285556 0.2712319 0.07624039 -0.087440714 -0.1557028 -0.081536114 -0.08332948 -0.17836854 -0.22673403 -0.14451477 0.11160573 0.32300454 -0.01541306 -0.12267216 0.062557146 -0.22093596 0.11248708 0.4561559 -0.09760266
13 -0.1777829 -0.03646019 0.20960478 0.10091339 0.3238318 -0.010303809 -0.0041030087 -0.06104706 -0.043604154 0.08683256 0.11802654 0.14564686 -0.01225802 0.0017899466 0.09170721 -0.1508647 0.105205506 0.22898835 -0.18461055 -0.030956615 0.010220264 -0.17719653 -0.16387688 -0.17880239 0.11288244 0.16008165 0.011174465 0.12548946 0.14632803 0.42153546 0.26371548 0.15237762 0.056079835 -0.009194095 0.2693394 -0.23923808 0.102486625 0.04157629 0.18976812 -0.06612627 -0.019080913 0.032970756 -0.08216169 -0.08139801 -0.037211083 0.39057514 0.08554477 0.34256396 -0.018985396 0.1454527 0.16857533 0.21319437 0.15841529 0.33724284 0.24906203 0.0057460056 -0.007339265 -0.08090052 -0.21707131 -0.31617913 0.25937822 0.108655944 -0.085777834 0.05656531 -0.18338436 -0.0075134225 0.24818774 -0.11003672 -0.32226622 0.04313727 -0.089884095 -0.12042505 -0.19974378 -0.20965171 0.03638506 0.3942511 -0.11804674 -0.13636047 0.10635866 -0.03080433 0.14711669 -0.035356805 0.1309035 -0.07782819 -0.06077196 0.08235704 0.10568465 0.021451456 0.044509687 0.24604239 -0.24001326 0.30234748 0.16983032 0.12297256 -0.10988017 -0.11145709 0.10591538 -0.1346934 0.2341363 -0.21090767 -0.11715243 0.13110343 -0.1556001 -0.048423782 0.017835047 -0.18233521 0.3463644 0.094319254 0.254062 0.15166393 -0.2064779 0.18316083 0.058270574 0.07584468 -0.020892238 -0.11689919 -0.27244145 -0.13788608 0.035461552 0.26443595 0.018919896 -0.19169264 0.04850332 0.08390153 -0.13339865 0.1904193 -0.036171917 -0.15253834
17 -0.041770063 0.14227337 -0.09955196 0.1140253 0.39251554 0.5647533 -0.21241766 0.05176383 -0.23186183 -0.09206588 -0.08815215 -0.18694589 -0.80163044 -0.06916366 0.51826495 0.13773444 0.1573452 0.51896656 -0.19137818 0.06690544 -0.15251255 0.070645936 -0.3043472 0.09264188 -0.053660132 0.10331136 0.018096067 -0.24961549 0.016441489 -0.20319848 0.32815883 0.08254713 0.19007814 -0.22033797 0.29281405 -0.22252852 0.105189465 -0.024383286 0.562452 0.17255941 -0.23507662 0.10202247 -0.080676526 -0.24529463 -0.30046248 0.21332365 0.21434067 7.298257E-4 -0.007407637 0.1208876 0.24363773 0.087282844 -0.18864077 -0.08834081 0.2345109 -0.21028377 -0.032672137 -0.4710524 -0.31850195 -0.036665693 0.06355057 0.022397278 0.05304571 0.04129589 0.19193098 -0.018842626 0.10645769 0.020677064 -0.3148964 -0.11902523 0.21629643 0.13998416 -0.24813773 -0.18790019 0.20764497 0.5055204 -0.16834317 -0.5060677 -0.048923936 -0.001772346 0.2743477 -0.29984033 0.37367395 -0.25258175 -0.14960693 -0.18521035 0.00557448 0.27544457 0.23840837 0.30901417 0.0022698238 -0.041018765 0.055607434 0.38398433 -0.18586944 0.37906742 0.014506433 -0.023753865 0.48172686 -0.28666636 -0.037482947 0.056332823 -0.67109483 0.56287986 0.101784885 0.09435741 0.72973216 0.064283416 0.18798047 0.32595444 -0.61228704 0.301792 -0.095499724 0.09452923 0.22523369 -0.22778554 -0.17264307 -0.20310284 0.10926263 0.20291267 0.1283133 0.002877854 0.4863008 -0.35810998 -0.17295064 0.39112228 0.15772748 -0.21975076
31 0.15411852 -0.01560329 -0.16180539 0.14811452 0.049783383 -0.110691465 -0.2741731 -0.114564046 0.049191255 0.08029134 -0.007845863 0.06717595 0.0046536312 -0.24023388 -0.04464163 -0.15172158 0.16278276 0.14686638 0.015446533 -0.03946307 0.18364881 -0.23298405 -0.03728309 -0.14069265 0.033434846 0.15012008 0.10365929 0.04925585 0.16601221 0.22481601 0.09083907 -0.057983585 -0.007374212 0.11892322 -0.06999138 -0.12986064 0.08196341 -0.0129650915 0.030826457 -0.1696595 -0.17743066 0.21566018 -0.21621138 -0.14433388 -0.2551961 0.26731157 -0.07441119 -0.1317211 -0.025268557 -0.013889378 -0.2854276 0.050104126 -0.010574357 -0.06582508 0.07567106 -2.4276905E-4 -0.013371 -0.031923294 -0.11771931 0.04090915 0.2110745 0.038107015 -0.038341638 0.27369368 -0.20796758 0.14164697 -0.06639045 -0.12134139 -0.047356155 -0.086393245 0.14451082 0.16113925 0.11011038 -0.08430338 0.09194985 -0.07505839 -0.076293245 0.11393004 0.1806624 -0.0510508 -0.06763779 -0.088371456 0.0072774715 -0.06440402 -0.034576297 0.016426593 0.22438233 0.3729326 -0.1835735 -0.16419418 -0.05725432 0.27373204 2.6860987E-4 0.1385161 0.009285998 -0.141732 -0.1379729 0.20191292 -0.068189815 -0.09364301 -0.01729354 0.10687557 -0.24781069 -0.10497999 0.19707896 0.1849619 -0.06729671 -0.07431486 -0.30174223 0.03595045 0.19153135 0.07065602 0.007617525 -0.054255746 -0.20749599 0.06541338 -0.31210655 -0.34261602 -0.11701293 0.16505447 0.23814407 -0.0642796 -0.044249818 0.011542001 -0.19891594 0.088349134 0.18168363 -0.07081987
26 0.23161338 0.0018255289 0.04229511 0.092483096 -0.060467135 0.015267799 -0.14548752 0.06690389 0.01688709 -0.0874638 -0.25844252 0.16227332 -0.029087128 -0.32711482 0.06645705 -0.08576038 0.27829802 -0.05653318 -0.16708711 -0.008088148 0.048435062 -0.48614827 -0.22540082 -0.21551816 0.1589743 -0.37112683 0.22787564 0.09496235 0.20701839 0.122454956 0.4940821 0.21023194 0.30384353 0.12489614 0.021553399 0.18537937 -0.31887504 0.06026724 0.225496 0.018434642 -0.16109161 0.13494253 0.096232444 0.039841328 -0.018488565 0.2948677 -0.007981697 0.085761435 0.059622765 0.17064695 -0.09494608 0.20905691 -0.15851475 0.22529422 0.06239298 0.14379352 -0.35112697 -0.02813008 0.29916322 0.23184013 -0.15963309 0.39771426 -0.0018484278 0.02814108 -0.07723871 0.29239142 0.19394265 0.14747958 0.010205291 0.13286906 -0.14036576 -0.19810534 -0.014731339 -0.31887412 0.20102385 -0.19856149 0.08925635 0.10803793 -0.27521002 -0.3255857 -0.0882829 0.36986873 -0.3907723 0.20469376 -0.16679563 0.21656722 0.38924998 -0.13497081 0.031247824 -0.27370143 -0.15221056 -0.06328977 0.22124752 -0.09861216 -0.3216471 0.13578194 -0.19105981 -0.040376045 0.031955265 0.050298907 -0.21824268 0.034054484 -0.12864196 -0.058633164 -0.065026686 -0.06125044 0.33877623 0.33132643 -0.19595467 0.11096067 0.30582878 0.14179264 -0.18666628 -0.37496233 0.30957973 -0.09427029 -0.14358313 -0.13844325 0.024463525 0.0070930333 0.39714405 0.0010194418 -0.32219228 0.16668634 -0.053534444 0.12809102 0.3733147 0.13246104
25 0.24254464 -0.02624933 0.107915446 0.085188925 0.01766303 0.101475105 -0.08336348 -0.00750245 0.048574958 -0.07177796 -0.16693638 0.24284738 -0.018384898 -0.43423352 0.011092925 -0.19312371 0.2773489 -0.063627996 -0.27354312 -0.018922186 0.1170891 -0.36582196 -0.15262817 -0.14943261 0.095395505 -0.36535135 0.101613596 0.09095231 0.20837465 0.061198458 0.5472289 0.23383637 0.30497566 0.17143796 0.09094334 0.1662904 -0.2922491 -0.048968855 0.32243815 0.04327095 -0.10516032 0.16312267 0.025374237 0.04601455 0.06853351 0.3586757 0.115810424 0.22746769 0.0899159 0.20842096 -0.04406349 0.21381591 -0.13498339 0.22761881 0.061724078 0.09350126 -0.26730877 0.033032726 0.25747082 0.13152063 -0.07777422 0.3698204 -0.03841209 0.03232431 -0.13920608 0.27007094 0.25136745 0.22741173 -0.007342544 0.12437704 -0.2271973 -0.2867409 -0.093988135 -0.33232313 0.19322538 -0.0678245 0.11292322 0.10472592 -0.23727664 -0.14773098 -0.00848789 0.32620957 -0.24646305 0.25078475 -0.22899273 0.22597615 0.48898292 -0.2287721 0.108933255 -0.23302202 -0.15992525 0.072519094 0.2153899 -0.0050689094 -0.28529212 0.08021065 -0.2290994 -0.032076903 0.08256202 -0.0037191096 -0.32393283 0.018914785 -0.08645794 -0.10570704 -0.07354281 -0.09916899 0.2939115 0.29539523 -0.049487773 0.105237894 0.19452359 0.08979305 -0.2800702 -0.35510537 0.17779852 -0.042155795 -0.1702147 -0.028558064 0.0856166 0.114387065 0.31160778 -0.009918506 -0.3978512 0.20987317 0.0033635404 0.11499208 0.37677997 0.1673979
20 -0.040535595 -0.03811441 -0.076154515 0.10032056 0.008174884 -0.07966319 -0.20981011 -0.12047823 0.08856588 0.088208064 -0.012387689 0.08146954 -0.055505954 -0.07682443 -0.002811767 -0.16634218 0.10135112 0.25012627 -0.0824709 -0.08055572 0.033264093 -0.26527625 -0.14354426 -0.15153007 0.0461486 0.21758887 0.1715299 0.02714858 0.110501476 0.3216262 0.070862494 0.091265604 -0.039358534 0.07303756 0.025370486 -0.2333922 0.057592615 0.033829235 0.01236474 -0.047370248 -0.09673412 0.08836138 -0.09521579 -0.19784479 -0.26516324 0.19646986 0.016565254 0.013488551 -0.15891811 0.076175265 -0.08637382 0.0779986 -0.03935501 0.023185834 0.124158375 0.011509624 0.01930596 -0.14240386 -0.18012263 -0.1396266 0.12929595 0.021288438 0.009620348 0.10808441 -0.051780976 0.08695062 -0.018934447 -0.13668546 -0.24507575 -0.09053081 0.048515968 0.055407755 0.003527933 -0.15642044 0.14176959 0.016466638 -0.08959709 -0.038356647 0.11551464 0.032924775 -0.046979185 -0.039199725 -0.061260205 -0.25677732 -0.06988212 -0.0063245287 0.05486955 0.37827063 -0.16124083 0.037887376 -0.06284804 0.1878125 -0.03760461 0.15266407 -0.02126468 -0.11872846 -0.016216405 0.17897491 0.03815926 -0.07719775 0.015878294 0.17400877 -0.22185156 0.03996671 0.2213052 0.12977108 0.14317799 0.048758283 -0.09530086 0.12936068 -0.13449897 0.0845948 0.03914311 0.03886454 -0.086443566 -0.038807876 -0.26909056 -0.2038354 -0.0028798855 0.1852812 0.16300364 -0.10248392 0.062017485 0.020928133 -0.11244051 0.15850633 0.09123025 -0.02502767
29 0.06787632 0.015103145 0.0019210364 0.18301706 0.08213025 -0.09764332 -0.0027123678 -0.008470442 -0.00751509 0.11926071 0.0077124042 0.089577004 0.0456878 -0.06541546 -0.09223387 -0.14064813 0.1319487 -0.055536848 -0.2300269 0.027512344 0.14272392 -0.17303999 -0.26388404 -0.009686087 -0.034943152 -0.07166221 -0.003515215 0.035789568 0.009009911 -0.019617304 0.3703791 0.12625949 0.3714827 0.13273063 0.13638373 -0.022994306 -0.026662499 0.04330551 0.2203021 -0.08907518 -0.021704266 0.18629725 -0.09337747 -0.18324104 0.036809593 0.31806478 -0.04154751 0.006898145 0.19675322 0.010447711 -0.14286652 0.19402902 0.15560333 0.17938781 0.1483495 0.11238128 -0.104692586 -0.10345425 0.26752108 0.21863951 0.15059511 0.15513109 -0.06415481 0.24507639 -0.11397459 0.03273435 -0.013494415 -0.013745895 0.063081466 -0.043989364 0.044914972 -0.07917934 -0.04603734 -0.107977875 0.20177329 0.046331737 -0.099365205 0.06698236 -0.03389844 -0.19503722 -0.008300599 0.16427122 -0.14486876 -0.0073994347 0.042757254 0.08428931 0.24071576 0.04588529 0.1233882 0.017406471 -0.093710266 0.16554996 0.20112231 0.024609106 -0.1826018 0.16993529 -0.20174809 -0.09542727 0.020327521 -0.17805219 -0.14750868 0.04846613 -0.1403686 -0.15803234 0.027604586 0.022837857 0.27767056 0.178465 -0.08718809 0.050092362 0.25871786 0.13401277 -0.14677598 -0.06714629 0.077876054 -0.20999421 -0.119091615 -0.12979816 -0.027486077 -0.01963434 0.21825793 -0.074218735 -0.21566713 0.1225599 -0.3134401 0.11379694 0.3976823 -0.09803424
5 0.032943368 0.114614934 0.04622603 0.0051110466 0.31222907 0.3826746 -0.15770295 0.016116852 -0.09616601 -0.05824683 -0.089216225 -0.13171956 -0.51811016 -0.068185784 0.42743263 0.118866265 0.23650736 0.38114205 -0.08129867 0.015206976 -0.1310829 -0.024303943 -0.1472911 -0.055357974 0.030967608 0.044706393 0.10062465 -0.0572351 0.08759785 0.025131164 0.28262818 0.0026871543 0.021408562 -0.12753977 0.20608836 -0.11172554 0.04327922 -0.066219665 0.35493407 0.09641988 -0.14356814 0.10182862 -0.0050960416 -0.16433384 -0.22080314 0.21397202 0.18903874 0.0694868 -0.107349515 0.12429124 0.27333248 0.13793261 -0.21803331 0.0034566051 0.16381472 -0.21580255 -0.15163556 -0.35873505 -0.3559846 -0.18750118 0.06545516 0.084929384 -0.050143782 0.10508354 0.04262875 0.01996426 0.09933348 -0.020357957 -0.33062392 -0.08593788 0.007861864 0.10512148 -0.21589732 -0.33103514 0.11327884 0.3099322 -0.20362343 -0.40223318 0.06625799 -0.0065918355 0.1526508 -0.24009226 0.28148133 -0.07529379 -0.049074758 -0.04234291 0.074775346 0.2692114 0.091657646 0.24258749 -0.03940436 0.02048504 0.018049844 0.22370672 -0.08347303 0.06364936 0.05012437 -0.028321745 0.35225654 -0.16300945 -0.07153244 0.098432615 -0.4420557 0.36862728 0.033678472 -0.0011107586 0.45777825 0.0772636 0.15125261 0.20142244 -0.49819496 0.31028897 0.00783263 0.08294442 0.10391153 -0.09381827 -0.15397857 -0.11057154 0.032890953 0.2598276 0.12604427 -0.038847946 0.4391443 -0.31440818 -0.0720352 0.30342296 0.01566081 -0.12014228
11 -0.059228916 0.13937977 -0.0034206635 -0.0011201415 0.28280407 0.4700629 -0.13732941 -0.013237072 -0.14667873 -0.16029036 -0.10366349 -0.06625065 -0.48659027 -0.124018036 0.4696223 0.03800754 0.19076647 0.38678023 -0.064936124 0.034254458 -0.14487113 -0.10758096 -0.12793472 -0.031563196 -0.025248626 0.0663368 0.020136204 -0.13047396 0.033638455 0.066056766 0.27027613 0.027029494 0.043801498 -0.23996189 0.23537749 -0.18741873 -0.013210964 -0.008883838 0.34691176 0.07150052 -0.17574216 0.09055403 -0.058519695 -0.16214193 -0.20697132 0.2397311 0.13238764 0.1197722 -0.06297523 0.04725221 0.22129062 0.23121661 -0.1920582 0.03406161 0.20022617 -0.16655198 -0.044584766 -0.34467578 -0.4043473 -0.13395065 0.02722331 0.11494085 -0.0037159242 0.008613572 0.06940404 -0.07267625 0.16559644 0.017812436 -0.3473251 -0.018731516 0.10144352 0.11539265 -0.22839838 -0.24184203 0.019171255 0.4146945 -0.09820156 -0.41021088 -0.025723226 0.11506359 0.21108632 -0.26599532 0.3398968 -0.10648012 -0.13144411 -0.051704302 0.124996096 0.12239562 0.16675402 0.23636194 -0.1211898 0.13592272 0.031026235 0.37824562 -0.11995029 0.09317441 0.109977916 -0.056017518 0.35227257 -0.16255657 0.037720058 0.05581072 -0.49263218 0.2993997 0.06056097 -0.036304444 0.46123713 0.050229188 0.17692865 0.23275816 -0.49139127 0.17774376 0.04460391 0.0036427525 0.063854784 -0.17346613 -0.32588363 -0.132448 0.04538206 0.21030684 0.04450089 -0.07744782 0.36323953 -0.22124892 -0.108041435 0.25419196 0.07227901 -0.18811777
9 0.21035819 0.05776516 -0.08957555 0.039682157 0.08415488 -0.059254624 -0.13518652 0.03911558 0.1845651 0.044899505 0.04260008 -0.01140647 -0.07519168 -0.047117136 -0.006015438 -0.030181497 0.1596695 0.06021076 -0.13168776 -0.096290134 0.0052435934 -0.143223 -0.15597415 -0.079840995 -0.0034960348 0.082980394 0.0432223 -0.044307556 -0.06693587 0.1492807 0.23934898 0.038790997 0.20065425 0.2028728 0.10280564 -0.16978969 0.048221853 0.08207047 0.06634497 -0.04065439 0.03848341 0.2430764 -0.017956205 -0.18345514 -0.17601113 0.07026177 0.032869894 0.021040803 -0.047955036 0.034842093 -0.1255333 0.06313522 0.068551205 -0.0014482654 0.07004648 0.10217301 0.014998364 -0.1136998 0.12293165 0.103104696 0.0076166317 0.14315225 -0.06318837 0.26366767 0.06424314 -0.014230045 0.03372823 -0.1021678 -0.1757512 -0.1923543 0.052172657 -0.038146116 0.05208129 -0.0982857 0.19837062 0.06211662 -0.23669302 -0.058083978 0.046927143 0.065992504 -0.07399653 -0.032107607 -0.047730558 -0.14995037 0.060650047 0.12784797 0.16965604 0.22502807 -0.12504123 0.11681964 -0.06514461 0.2405483 0.012971747 0.09298143 -0.09603726 -0.008832867 -0.05709059 0.11881416 -0.003073519 -0.10970834 -0.09292357 0.16932417 -0.14739312 -0.05704307 0.18495 0.09309528 0.11022305 0.03530042 -0.091243304 0.05062553 -0.059241842 0.1006553 -0.16648164 0.0017050641 -0.059898693 -0.22350514 -0.08582084 -0.15299596 -0.097660296 0.11065535 0.21083564 -0.05703755 0.0027548687 0.07712126 -0.16840848 0.16714494 0.23155706 -0.06342731
30 0.19415675 -0.15107952 -0.088650346 0.056968782 -0.25594482 -0.105136685 -0.30982035 0.17298241 0.35305372 0.02319924 -0.10704706 0.12247099 -0.08178236 -0.42380548 0.052128702 0.055463795 0.50301737 -0.08144609 -0.04576093 0.022968825 0.026036877 -0.3659105 0.037962366 -0.052038334 0.14674689 -0.027242716 0.22724597 -0.16026239 -0.15899082 0.12126202 0.18062991 -0.08958862 0.2724294 0.27669212 -0.11767265 -0.12567763 -0.083440304 0.07845047 -0.06063469 -0.027998272 0.04413934 0.35043976 0.036272608 -0.10561631 -0.20506276 0.13612925 -0.114886925 0.060793173 0.010231809 -0.22056799 -0.40966603 0.15813531 -0.24895199 -0.11480949 -0.14392364 0.03198644 -0.12331591 -0.011903693 0.29480368 0.19124593 0.038610067 0.15920399 0.005416673 0.084687635 -0.08818175 0.40476128 0.11329414 -0.0038788898 -0.13706428 -0.017940875 0.26674515 0.15175171 0.37275043 -0.16646636 0.18658593 -0.1895722 0.12894407 0.12044114 0.048224814 -0.15919407 -0.14281274 0.24787323 -0.28557664 0.018104287 0.034686852 0.18838026 0.3697591 0.20249192 -0.21541815 -0.092462935 -0.15590025 -0.09307513 0.039664656 0.066199705 -0.18427902 0.0061533093 -0.25777707 -0.03027816 -0.028630855 0.010541551 -0.19345154 0.2556216 -0.2527085 -0.07453107 0.16724424 0.10228032 -0.041807104 0.1872394 -0.47535446 -0.10237472 0.2094104 0.052976213 0.008231222 -0.26366207 0.17893855 -0.160351 -0.07340494 -0.07325348 -0.065553345 0.138138 0.3227822 -0.10744129 -0.13328902 0.22701612 -0.13651642 0.056424152 0.50451666 -0.11636909
28 0.18425415 -0.102619246 -0.05706319 0.15367125 8.800876E-4 -0.1598724 -0.22253998 0.09968052 0.118434764 0.0078770965 -0.045691412 0.10089188 -0.035221584 -0.17976716 -0.06416113 -0.035496272 0.093685284 0.09482506 -0.21569467 0.00402003 0.03400079 -0.34472197 -0.18837813 -0.095572 0.120237 -0.10382458 0.13113336 -0.0073644957 0.11003491 0.09500755 0.4019543 0.249172 0.31509045 0.20472476 -0.0018232239 -0.066339076 -0.037414435 0.18201783 0.121913895 0.023477558 -0.07537683 0.07407281 0.0049637943 -0.02484888 -0.16003487 0.16865572 -0.028426835 0.10857735 0.077317186 0.1747966 -0.17435136 0.02368777 0.062782176 0.1127744 0.026371857 0.23596857 -0.09640366 0.044519026 0.40070814 0.23426194 -0.04179095 0.20824404 0.061145335 -0.007446919 -0.017377296 0.25643095 0.20254132 -0.025773505 -0.08727155 -0.02581363 0.08751628 -0.23690164 0.1246395 -0.027670732 0.27663785 -0.067782775 0.029698854 0.16851705 -0.14275287 -0.30074742 -0.07714537 0.3144023 -0.33430615 -0.0077710086 -0.1811377 0.11855897 0.23981163 -0.106567524 -0.059980292 -0.13312206 -0.14039934 -0.023162203 0.18704972 -0.12654193 -0.24466495 0.25036576 -0.15829362 0.03801201 0.044673312 -0.08673856 -0.25937358 0.115690716 -0.11602834 -0.028694002 0.08146305 0.025049333 0.29174697 0.18700126 -0.17780848 0.17494887 0.2846445 0.13392453 -0.1873478 -0.20116906 0.21406284 -0.12904282 0.0662087 -0.28981456 -0.02379061 0.029062586 0.32495588 0.0068850243 -0.2567444 0.2433249 -0.124548115 0.18674277 0.2906149 0.054290496
8 -0.16922863 -0.060083915 0.17022698 0.19122727 0.29958206 -0.12199797 -0.08964181 -0.03263335 -0.054168597 0.20341682 0.08964543 0.09262968 0.010338236 0.10415801 0.01725525 -0.09562029 0.07755324 0.22288328 -0.21180049 -0.047192257 0.05009508 -0.21915688 -0.19993958 -0.16922873 0.07942778 0.24568865 0.06279209 0.16696776 0.089416295 0.3988815 0.20310864 0.14016593 0.06768189 0.07996274 0.1664996 -0.27067924 0.13795157 0.07849751 0.12582374 -0.046342246 -0.08162557 0.0016374951 -0.121186376 -0.13226293 -0.06479285 0.33789566 -0.010591345 0.15126014 8.575263E-4 0.123082206 0.038709357 0.10560019 0.20757829 0.3306723 0.20460252 0.027538901 0.018488653 -0.03542469 -0.11572752 -0.19626728 0.23820363 0.0143448375 -0.1259412 0.1280243 -0.1861874 0.07131641 0.16252017 -0.1876531 -0.2324439 -0.008204682 0.039459955 -0.077733226 -0.084179975 -0.08863416 0.09225798 0.24041523 -0.20562787 -0.032413397 0.09179354 -0.17948712 0.09290191 0.021132391 0.0010191132 -0.1305916 -0.05923709 0.06590832 0.028460726 0.10874768 -0.048714407 0.21568573 -0.23149492 0.2355289 0.16658498 0.030881092 -0.083317444 -0.04485014 0.06287209 -0.08180799 0.20534539 -0.22144584 -0.102931924 0.10582365 -0.19533005 -0.056410983 0.06320863 -0.10685185 0.31764588 0.028173286 0.16529775 0.13860692 -0.07236953 0.24065578 0.092772245 0.08170127 -0.03957566 -0.09204552 -0.21810123 -0.2135659 -0.0070172925 0.19730903 0.058219813 -0.18348844 0.075351536 0.109605156 -0.21300846 0.14746958 -0.041668434 -0.13459018
6 0.031975232 0.10647848 0.05487828 0.08762856 0.4278899 0.43020794 -0.23150326 0.09147854 -0.16460133 0.022293212 -0.14439237 -0.24846998 -0.64817774 -0.03461219 0.44042727 0.19101425 0.26122236 0.46181074 -0.143334 -0.010987639 -0.14664078 0.005839283 -0.21969487 -0.040721472 0.038145993 0.032837093 0.12210925 -0.06649616 0.108157426 -0.035787717 0.27521405 0.038441442 0.050628006 -0.120576896 0.15289846 -0.14301816 0.048611585 -0.067540914 0.39946064 0.15706576 -0.21891078 0.054289 0.009799688 -0.08309131 -0.27323347 0.19036992 0.19114727 -0.03945485 -0.12092087 0.15666024 0.25049454 0.023644665 -0.20589453 -9.2999224E-4 0.13759127 -0.25966373 -0.14434038 -0.30355227 -0.31912926 -0.14219034 0.02647032 0.047432993 -0.07660103 0.08671554 0.10547261 0.12293611 0.19333637 -0.043993484 -0.2978822 -0.06448094 0.03809809 0.08137135 -0.1672872 -0.22574958 0.11991638 0.33592787 -0.2554922 -0.43493795 -0.04730403 -0.15231088 0.21796434 -0.24504596 0.25820306 -0.054001585 -0.15126343 -0.05515624 -0.030655008 0.2683751 0.04724617 0.24738482 -0.07649518 -0.12146895 0.053857706 0.18900923 -0.11308645 0.22278096 0.04117045 -0.0043329843 0.46356118 -0.21108474 -0.12559274 0.08842258 -0.53705627 0.51353765 0.009949474 0.0012916861 0.57875687 0.06357923 0.15787189 0.22180952 -0.48581865 0.3541888 -0.007800763 0.064579606 0.20913504 -0.076978326 -0.09691893 -0.1807403 0.059199654 0.24843809 0.1560596 -0.010812663 0.5461473 -0.29457077 -0.0933996 0.3183022 -0.054604925 -0.14160359
7 -0.058614284 0.1478817 -0.023538666 0.056480646 0.33637133 0.4848031 -0.2055801 0.062621325 -0.20802939 -0.093885325 -0.1879015 -0.20643008 -0.59081227 -0.02421429 0.48296458 0.12575506 0.19930537 0.45125347 -0.10095221 0.00978562 -0.19713588 -0.12098728 -0.23180048 -0.026209854 -0.030990914 0.057166956 0.09279539 -0.13688587 0.023957074 0.026548559 0.24439399 0.08010842 0.06248871 -0.23370318 0.15899517 -0.19464192 -0.047847006 0.036295444 0.31689727 0.13659807 -0.21928927 0.04287926 -0.021842005 -0.10477105 -0.2672613 0.17649597 0.09601831 -0.048229244 -0.1013947 0.078610055 0.20343527 0.13202819 -0.18728456 0.053721607 0.1666358 -0.16974214 -0.059246723 -0.32233182 -0.33822334 -0.06290385 -0.07757447 0.10349134 -0.028598052 -0.011142324 0.19362034 0.005326393 0.22046754 -0.038430538 -0.31877753 0.00267175 0.13232535 0.101808265 -0.14984843 -0.14384814 0.029536227 0.37158793 -0.19489188 -0.43366712 -0.17015243 -0.029078452 0.2237651 -0.23415552 0.23311858 -0.106785454 -0.20664735 -0.05776334 5.4296566E-4 0.14346328 0.11088224 0.24406642 -0.13872357 -0.019111749 0.06539398 0.31381598 -0.15343593 0.23760371 0.11411458 -0.012029961 0.42101318 -0.178661 0.035825104 0.06235237 -0.5661921 0.4383217 0.04739569 -0.016478866 0.57540715 0.06034696 0.1361833 0.25617433 -0.450721 0.22458677 0.035173725 -0.0143273035 0.17266917 -0.19412689 -0.25647077 -0.20736164 0.05402037 0.15783305 0.10586989 -0.04268469 0.48274136 -0.19686635 -0.11903778 0.28624192 0.021809964 -0.19663978
14 -0.10181022 -0.057994105 0.044613045 0.18277985 0.15478505 -0.14033201 -0.07095342 -0.064053915 -0.0015945178 0.16799273 0.078062505 0.13381481 -7.8277907E-4 0.023933778 -0.026306491 -0.13395676 0.072159655 0.12994918 -0.18676557 -0.043027125 0.095641896 -0.18797426 -0.20489657 -0.11470288 0.05404129 0.21236227 0.04725534 0.09322564 0.027150162 0.28848138 0.19387595 0.10852828 0.11763273 0.09283352 0.14927034 -0.22769926 0.11745613 0.058159783 0.10501005 -0.056631137 -0.034995142 0.06466629 -0.1298706 -0.20760366 -0.079707995 0.28814214 0.019720783 0.102368325 0.011102963 0.058819927 -0.0487104 0.12314785 0.14997019 0.19466028 0.18448326 0.049989183 0.031138316 -0.103327446 -0.049319074 -0.10080622 0.24519677 0.015382018 -0.04437992 0.17039675 -0.16323666 0.06574217 0.022672385 -0.11369991 -0.17155932 -0.07062138 0.08428243 -0.0014117886 -0.067654 -0.09188879 0.14797361 0.17339624 -0.14013855 -0.023764685 0.13506389 -0.06482316 0.029405257 0.0031723124 -0.0072344136 -0.19794011 0.010373519 0.020676218 0.05564672 0.21068476 -0.027810317 0.15159948 -0.12432833 0.24059664 0.10162917 0.08724 -0.07750998 -0.024739265 -0.022510437 -0.027278956 0.093653694 -0.18666689 -0.05238963 0.09999189 -0.17622744 -0.083558924 0.1378366 0.0132051045 0.2445951 0.05961891 0.051970687 0.09009323 -0.042206082 0.17054783 0.027790792 0.0835233 -0.0443359 -0.12860656 -0.21643537 -0.17944676 -0.01305149 0.15022013 0.083960906 -0.15390751 -0.021551356 0.08768551 -0.23754162 0.13975109 0.11346303 -0.11147316
24 0.26672676 -0.09696157 -0.007563943 0.013039415 -0.18348014 0.037206657 -0.18754244 0.07964531 0.31939656 -0.051964063 -0.07546863 0.17302597 -0.03219461 -0.44476318 -0.008223326 -0.118106 0.35965344 -0.029184703 -0.24851769 0.061951574 0.05839252 -0.29047018 0.007892314 0.020873228 0.029912379 -0.14413223 0.11092983 -0.055989746 -0.045630593 -0.01710804 0.4235081 0.08334829 0.27842525 0.26104844 -0.049259376 -0.032010872 -0.19975667 0.00845695 0.14107041 0.027769612 0.12557846 0.31935287 -0.059751786 -0.06322249 -0.037558593 0.21374169 0.033450626 0.18521644 0.043438304 0.046272777 -0.21329662 0.16808505 -0.16211256 0.032345384 -0.10345166 0.09165738 -0.116780914 0.0016903472 0.2962719 0.16104625 -0.037030704 0.24269901 -0.028164424 0.01900452 -0.04268688 0.28700086 0.21025874 0.13129993 -0.12466579 0.010336344 0.04013435 -0.12698221 0.1752754 -0.23410328 0.22340141 -0.18219642 0.06645074 0.19411977 -0.060601205 0.015067128 -0.09390805 0.30839112 -0.22176833 0.11662593 -0.14540203 0.21551266 0.5318333 -0.0420537 -0.055081014 -0.09188513 -0.099746734 0.10386874 0.05140067 0.089271285 -0.19527316 0.0562587 -0.23880655 0.02308192 0.0145080285 -0.046321582 -0.29783028 0.20347084 -0.1471789 -0.07115329 0.055787962 0.031970225 0.048956893 0.20822933 -0.2587503 0.073711 0.11959462 0.03409762 -0.2133931 -0.25811556 0.026489077 -0.07885059 -0.0044796383 -0.020720249 0.02737809 0.19391805 0.30296338 0.032133028 -0.25569835 0.26231796 -0.008149224 0.15195622 0.49096137 0.08197255
4 -0.19533204 -0.0923906 0.1248258 0.23308986 0.38709733 -0.10772303 -0.14579767 0.0743123 -0.004317024 0.2223751 0.15913695 -0.053766303 -0.079098135 0.09123472 -0.041727696 -0.052426692 0.12043654 0.3350231 -0.2184971 -0.040394716 -0.018961022 -0.06689807 -0.14116926 -0.053165063 0.053476352 0.26227385 0.021569181 0.012582978 0.10554811 0.32478234 0.10218075 0.114953026 0.09697094 0.10275506 0.093391575 -0.36782306 0.22716694 0.108647615 0.1195805 -0.073163025 -0.0036015457 0.03990303 -0.12689406 0.034693033 -0.16347611 0.28606978 -0.06490341 0.13455006 0.020543495 0.10788146 -0.08951064 -0.04174589 0.2860545 0.24486953 0.16838571 0.022588875 0.08707466 0.08402333 -0.0497092 -0.19543311 0.25311422 -0.0051550344 -0.111438744 -0.0078107268 -0.07552766 0.087082 0.33049846 -0.26598334 -0.2209068 0.020522594 0.07304538 -0.11044425 0.07156523 0.097914115 0.0833961 0.35308653 -0.20200513 0.0020372719 0.03173099 -0.24352573 0.1631563 0.011341072 0.02441864 -0.12431186 -0.18918009 0.05170746 -0.034325276 0.07091656 -0.13107345 0.22384322 -0.2779587 0.15567037 0.21866985 0.033285834 -0.10565301 0.055975936 0.0387364 -0.03446597 0.25952664 -0.27985698 -0.1968721 0.22639294 -0.2390421 0.08208773 0.049204525 -0.07674173 0.30929953 -0.049378347 0.060689867 0.1406934 -0.010329686 0.107594796 0.07493852 0.09471364 -0.015678046 -0.0432376 -0.07024595 -0.27260378 0.015836645 0.25584614 0.13025272 -0.120855 0.1897782 0.21053016 -0.17999648 0.19307426 -0.063177176 -0.27945203
32 0.4155392 0.10566841 -0.03650642 -0.024290685 0.0965235 0.11304905 -0.23544404 -0.07208568 0.1439103 -0.08301368 -0.14386591 -0.02193514 -0.03525255 -0.33365348 -0.027984327 -0.15491444 0.13931544 0.09770104 -0.11156421 -0.16123962 0.036988046 -0.2557696 -0.12878217 -0.1298322 0.036850497 -0.32168296 0.01456814 0.0061725597 0.2841228 0.033125676 0.40843508 0.22682257 0.23579425 0.18268485 0.0321512 -0.0029777715 -0.10499782 -0.010062054 0.21004525 -0.05388265 -0.22509085 0.17039011 0.12120769 0.054944314 -0.26165098 0.16417056 0.14959507 0.06124898 -0.08469322 0.15913783 -0.013498027 0.08604149 -0.065056905 -0.08183119 -0.014100736 0.12179147 -0.15728958 -0.021703022 0.18224736 0.20591173 -0.16164505 0.2973898 -0.052891757 0.19650069 0.07404931 0.042135123 0.15080453 0.03786717 -0.10241413 -0.13024107 -0.18533161 -0.26473054 -0.062475417 -0.22222194 0.11931886 -0.017069645 0.012035493 -0.08859217 -0.18087135 -0.06266432 0.01903311 0.0326467 -0.08273799 0.15267734 -0.16511908 0.1803754 0.34067708 -0.05910873 -0.03867532 -0.15817189 -0.12707084 0.13789113 -0.008494856 0.094196945 -0.1596176 0.11235041 -0.1579754 0.26008534 0.014071111 -0.017586786 -0.24953583 0.093682684 -0.09976897 -0.018846726 0.10967866 0.04822146 0.18356046 0.1778084 -0.10559744 0.15037198 0.07123952 0.030609569 -0.3335426 -0.24331917 0.086063094 -0.10164456 -0.14840303 -0.20137388 -0.006980544 0.023519238 0.29087654 0.02508313 -0.19385137 0.0819637 -0.07322475 0.12230679 0.18535991 0.17938022
2 -0.06774066 -0.032622684 0.035323545 -0.08265199 0.19021836 -0.12952079 -0.06340832 -0.06227633 0.082631744 -0.020944584 0.19924274 -0.041303188 0.112114355 0.016868377 0.10513908 -0.031460315 0.02774947 0.35998443 0.09365353 0.21400775 -0.07684534 -0.17380908 0.02234817 -0.08902895 0.0621107 0.22068647 0.112588264 0.066952385 0.2138829 0.32790712 0.17819895 0.05960108 -0.089363895 -0.12283922 0.070441246 -0.20864935 0.17808686 0.19665231 -0.11266485 -0.24313162 0.12069004 0.1335781 -0.22163232 -0.1116331 -0.23659754 0.33386472 -0.15429865 0.23793207 -0.031212343 0.099795826 0.12309371 0.28697917 0.19815369 0.2158631 0.1383851 0.06027849 -0.0077896686 -0.078345165 -0.23718327 -0.26392847 0.30968818 0.1623395 -0.017628498 0.0033466753 -0.09127859 -0.14668852 0.25429037 -0.3516443 -0.4152566 0.0679682 0.07297959 -0.027102472 0.04286866 -0.12491467 -0.09593138 0.23900357 -0.15182725 -0.003757641 0.2700492 -0.060836174 7.970999E-4 -0.03747988 0.1738111 0.073987566 0.02039283 0.047141258 0.2421611 0.019986276 0.0035495984 0.18317004 -0.17208126 0.32272032 0.16492899 0.043193515 0.06376094 -0.1503601 0.16120917 -0.14460178 0.0823709 -0.22713672 -0.060868043 0.2837951 -0.13059668 -0.05352209 -0.048877995 -0.15480599 0.04753813 0.0909246 -0.06577342 0.19844422 0.06957659 0.18732809 0.19600484 0.11148652 -0.13935968 -0.059445664 -0.06892781 -0.42605832 -0.16678916 0.25179946 0.11299086 -0.11861647 0.17749864 -9.471114E-4 -0.12610565 0.3472643 0.010136671 -0.2810373
3 -0.05303868 -0.09143906 0.19979624 0.26818243 0.31821087 0.0011189393 -0.16992195 0.094130725 0.027527785 0.2446294 0.10893484 0.09213586 -0.02804139 -0.24850781 -0.122208916 -0.14702433 0.3078642 0.040227704 -0.29085132 -0.11331674 0.19876407 0.020497333 -0.05255062 -0.024702897 0.109661266 0.14251849 -0.08146799 0.046461806 0.044202153 0.19435383 0.11602843 -0.03778987 0.1994747 0.24254058 0.048631635 -0.25031152 0.17022997 -0.07847819 0.25607768 -0.09430032 -0.11158364 0.1867627 -0.08356677 0.10676595 -0.011290857 0.3120208 0.0698003 0.17892571 0.105678596 -0.043519627 -0.19152915 -0.0964664 0.16829477 0.13168994 0.05284321 -0.053350102 0.07209516 0.19881918 0.028677037 -0.10370235 0.29528227 -0.01735247 -0.16205183 0.14314042 -0.2275491 0.24115482 0.3028521 -0.048221435 -0.028222976 0.054479755 0.06797399 -0.040939536 0.06006406 0.03125132 0.039007947 0.25563672 0.0034701047 0.040061254 0.072268374 -0.13567503 0.2498339 -0.032105673 0.1394984 0.05008745 -0.09412914 0.065314785 0.16048017 0.007360668 -0.13225028 0.06627045 -0.23669133 0.2111572 0.09563185 0.14661779 -0.13449487 0.023379706 -0.12295726 -0.02378217 0.19659631 -0.21530038 -0.302892 0.096609406 -0.24877512 -0.10017304 0.040621746 -0.09234133 0.096376166 -0.11894147 0.064623386 -5.676013E-5 0.031238748 0.033305198 -0.059303787 -0.10441476 -0.03450982 0.029852834 -0.1880889 -0.06705258 0.09869432 0.27909145 0.047812458 -0.15489689 -0.08033156 0.26499936 -0.2273114 -0.04050015 0.059879657 -0.19974379
33 0.10344785 0.07393445 -0.029257243 0.033785075 -0.16230977 0.06917909 -0.20343898 0.11035187 0.108816266 0.025529515 -0.11396014 -0.039130118 0.039968167 -0.1084504 0.1018842 0.028285762 0.33043098 -0.024808435 -0.08573628 0.14757459 -0.004154273 -0.27172264 -0.07375474 0.03353848 -0.062399264 0.0076483544 0.17936693 0.07074684 -0.09158329 -0.032735053 0.244554 -0.13774313 0.15284096 0.10279253 -0.14359154 -0.01876113 -0.18277927 0.07812301 0.073127605 -0.10711384 0.08080978 0.36199263 -0.19899638 -0.18314862 -0.0036183086 0.25764367 -0.26160243 -0.20431048 0.08064959 -0.121778354 -0.21778837 0.22218949 -0.06630601 0.1468384 -0.045854952 0.04173707 -0.22300936 -0.1605156 0.085421294 0.24802448 -0.033298545 0.13886704 -0.19387606 0.1970336 -0.021736858 0.08200258 -0.009088295 -0.0984878 0.0052870596 0.018870935 0.27328202 0.18583302 0.2366806 -0.19445476 0.09381447 -0.37590525 -0.19057834 0.23572063 -0.0061415 -0.2058338 -0.11342233 0.17828004 -0.15225485 0.11752905 0.072815455 0.20589761 0.4206831 0.16051424 -0.09940207 0.03435869 -0.059860326 0.16071573 0.01398646 0.07206729 -0.07835602 0.005194142 -0.11876395 -0.076111525 -0.049361236 -0.10531806 0.0038828931 0.1795195 -0.30309075 -0.083543554 0.0041579083 0.0743282 -0.016810955 0.083162315 -0.37403867 0.05692399 0.23906814 0.1621394 0.026377257 -0.12806472 -0.07297027 -0.06350451 -0.08412591 -0.15636314 -0.12118395 0.07035316 0.30248222 0.069720075 0.047882155 0.064613886 -0.19836493 0.11720022 0.40214857 -0.079035155
1 -0.012270968 -0.036434524 0.02717874 0.099064454 0.29278946 0.04826131 -0.12853535 -0.041457526 -0.15672947 -0.056773465 -0.009550086 0.003788063 -0.2216355 -0.022043435 0.26453567 0.06989987 0.0357545 0.366018 0.044664506 0.08415482 -0.03494673 -0.22837141 0.009935431 -0.12192501 0.055590317 0.0685099 0.05408591 0.05619253 0.1674029 0.20288023 0.27615154 0.06436908 -0.047280166 -0.15954177 0.119379304 -0.114952385 0.11360631 0.07320356 0.12787665 0.0055435593 -0.19241643 -0.080224924 -0.12705399 -0.10879655 -0.18618551 0.28810972 0.0073161884 0.10284859 0.026485933 0.12953295 0.09851132 0.15595528 -0.04287107 0.13345388 0.16671914 -0.074969135 -0.091956936 -0.1237705 -0.24419267 -0.12107498 0.1918135 0.061068855 0.016529506 0.009632207 -0.2068627 0.08223685 0.09332642 -0.09832956 -0.24312578 -0.02395314 0.10548257 0.0435467 -0.11902228 -0.10281145 0.049043406 0.27621773 -0.07972236 -0.10232977 0.1191577 -0.19103524 0.069641344 -0.103259005 0.13288955 0.0023249693 -0.16634151 -0.04492246 0.07946909 0.021627925 0.099809796 0.026374605 -0.16398175 0.06259539 0.19369042 0.014113242 -0.025831508 0.036365867 0.05822531 -0.08786583 0.24600537 -0.14369334 -0.07577157 0.013622412 -0.24674775 0.09700242 0.0035866671 -0.061695974 0.30093464 0.017754035 0.04705273 0.17430623 -0.0191112 0.27713817 0.19592017 0.051487554 -0.00745394 0.030177709 -0.14172587 -0.32565925 -0.103195965 0.16710001 0.10167312 -0.07643669 0.20961913 -0.14845115 -0.1390438 0.25158852 -0.07301197 -0.1228881
34 0.13987985 -0.019033035 0.07420193 -0.0035873225 -0.056840792 0.003553394 -0.19253357 0.06648352 0.22184548 0.109541185 -0.094935335 -0.08088926 0.07434172 -0.2647435 0.007439759 -0.02100729 0.42570004 -0.00856362 -0.034220707 0.05083983 0.043358948 -0.2133515 0.049298353 0.0329104 -0.011784544 -0.0762548 0.1016367 0.0010154537 -0.025294272 0.024143834 0.15063396 -0.08934462 0.19907975 0.17838271 -0.12796524 -0.11439206 -0.06511668 -0.004493075 -0.017694872 -0.16911007 0.009825278 0.33257288 -0.043427173 -0.028281014 -0.12262526 0.25321704 -0.16735646 -0.053320345 0.028280044 -0.20606501 -0.24067937 0.21225788 -0.0484448 0.015493721 -0.13243942 -0.07714296 -0.14366277 0.015412713 0.11204662 0.13709007 0.10337751 0.120766595 -0.19600597 0.1931525 -0.06765504 0.16268222 0.14841805 -0.107497975 -0.07240092 0.034619603 0.12553899 0.089178875 0.23984104 -0.16249076 -0.035784688 -0.12742285 -0.04257242 0.09255419 0.017545277 -0.20807709 0.016652089 0.14678752 -0.08985826 0.22523203 0.031102538 0.20097351 0.35712525 0.10139164 -0.12612377 0.030354258 -0.20873001 0.062312588 0.028013082 0.12072883 -0.06901444 0.007700563 -0.1729268 -0.05368604 0.026359083 -0.101230636 -0.18345973 0.23430884 -0.2389224 -0.090284064 0.0030334902 -0.027372926 -0.06942561 0.13067573 -0.34926635 -0.077368505 0.24563405 0.06979326 0.054778624 -0.189538 0.02713443 -0.072088584 -0.11267202 -0.0954622 -0.06700287 0.08441362 0.21750231 -0.09384172 0.02967481 0.15660195 -0.21657436 0.02010872 0.32112864 -0.16687444