34 128
12 0.048283286 -0.23649247 -0.053033154 0.08588152 -0.151528 -0.17608194 0.34788415 0.041462574 -0.09566972 -0.071027525 0.07590417 -0.2933071 -0.08920636 0.079791516 0.055987883 0.07270601 -0.28324455 -0.22170855 -0.2687935 -0.27052736 0.115715764 0.09996926 -0.008887433 -0.11181316 -0.19835594 -0.23087618 -0.11925876 0.067969225 0.37776995 -0.1274879 -0.062071897 -0.061661147 0.15531634 0.020053903 0.02633139 -0.18205331 0.007757312 -0.015000896 0.15824333 0.16044115 -0.10842106 0.117616884 0.13699184 0.30472484 -0.050991736 0.025582265 -0.037763353 0.12789069 -0.095527686 0.22831532 -0.20325477 0.07225178 0.10291454 -0.048143435 -0.005392239 0.07163197 -0.09017916 -0.2643795 -0.018412294 0.064244896 -0.13600333 -0.019195009 -0.10387849 0.09965018 -0.23432979 -0.13709493 -0.08738944 -0.37528086 -0.20594974 -0.20615353 -0.010118623 -0.033505812 -0.16601035 0.024198992 0.31326517 0.06188094 -0.0539035 -0.18780814 -0.16737773 -0.110856056 -0.03911868 0.03497781 0.16434832 -0.06523349 0.19640996 0.14556552 -0.23286851 0.03903966 0.22923991 -0.0067704436 -0.2696989 -0.1709191 0.15528698 0.03201791 -0.10962366 -0.18942595 0.1943654 -0.10407977 -0.040963534 0.07457572 0.12326049 -0.060098853 0.13250063 -0.29106387 -0.13177826 -0.2508653 0.091794185 -0.19920143 -0.15835065 -0.46744666 -0.07459494 -0.03941777 0.049720407 0.21390139 -0.03028703 0.23907648 -0.00934384 -0.22532247 0.013064403 -0.08712954 -0.12849742 -0.23382963 -0.12738264 -7.3227327E-4 0.027228976 -0.1708049 -0.16899176 0.015781267
22 -0.029846411 -0.17104048 -0.24019456 0.05279719 -0.09784763 -0.09648093 0.17700775 0.01707646 -0.009733333 -0.09561171 0.0021973683 -0.3471953 -0.15775356 0.05801242 0.3203367 0.05306444 -0.20453961 -0.29036686 -0.31683818 -0.34304866 0.121108234 0.1771996 -0.010175407 -0.22659719 -0.2057468 -0.2236225 -0.14354679 -0.025634862 0.20079032 -0.07708214 0.026140025 -0.05342022 0.18101159 0.020301702 -0.051141657 -0.19321103 0.02440757 -0.045297854 0.19404642 0.10453738 -0.2793313 0.22332646 0.00393587 0.2817942 -0.08881825 -0.011930164 0.076840386 0.032375783 0.0012496938 0.11751642 -0.14641938 0.051748373 0.08021693 -0.052955955 -0.07384927 0.08451367 -0.12784122 -0.3637798 -0.17887346 0.08105408 -0.16348359 0.03698005 -0.15943523 0.19589573 -0.15476774 -0.1348755 -0.06340837 -0.31951034 -0.13452064 -0.18537901 0.08013969 -0.047785662 -0.42456022 -0.033376735 0.0957585 0.09584703 -0.10608309 -0.22666271 -0.23850693 0.008840445 0.062907495 -0.07452331 0.30433452 -0.12951864 0.04462292 0.11791159 -0.24777545 -0.01313905 -0.032730762 0.037452735 -0.17261791 -0.11817085 0.010186342 0.043351237 -0.054796554 -0.22594078 0.2234737 -0.084132574 -0.052605737 0.013266998 -0.06018408 -0.16716811 0.041118182 -0.30839005 -0.18312533 -0.16946599 0.18668419 -0.09551649 0.029724143 -0.32756248 -0.034918167 0.20818955 0.062352914 0.17455162 0.0034736358 0.19058405 0.018583862 -0.30096292 -0.055412646 -0.03230231 -0.025007537 -0.2860936 -0.0038959763 -0.036951724 0.08458127 -0.08027605 -0.21771237 -0.08817163
16 0.045603942 0.17040734 -0.24296185 0.076085776 -0.26337034 -0.016718192 -0.28468642 0.085033596 -0.054142047 -0.0259401 0.06464969 -0.14816229 -0.14152099 0.34971762 0.19374168 -0.09691061 -0.054161742 -0.13909674 0.17365506 -0.052288774 -0.28632656 0.094380535 -0.06221511 0.20971105 -0.009602628 0.20761983 -0.14149325 0.28575507 -0.19855139 0.025840936 0.2789267 0.075560495 -0.21819115 0.011669281 -0.0875427 0.0930866 -1.9037533E-4 -0.08870853 -0.04077252 -0.0093099205 -0.34857956 0.27534986 -0.10731585 -0.113263875 -0.0073026484 -0.15051022 0.06413387 0.16912945 0.022273937 0.1555527 -0.18013956 0.055712402 -0.06711311 0.008948584 0.14706105 0.07056966 0.21591878 -0.19996193 0.10958141 -0.17825952 0.15754022 0.16170506 0.041775465 0.2612253 -0.30561253 0.1855733 0.19071998 -0.051478956 -0.16035926 0.08359882 0.027050879 -0.14132284 -0.09107174 -0.15984721 0.088120356 -0.17378347 0.13391003 -0.048189286 -0.17517014 0.26812965 -0.06971813 0.09924384 0.12030978 -0.0014888026 0.19262175 -0.16682969 0.030854547 -0.011113839 0.27734768 0.0055248803 -0.22358525 0.19276112 -0.17304283 0.01948717 0.1921858 -0.29489127 -0.0042482084 0.0018341494 -0.3107064 -0.008711751 -0.30529293 -0.26210016 0.22989617 0.17443998 0.12280908 0.27206242 -0.086681664 -0.124304906 -0.12673505 0.15934409 0.2683176 0.2924092 -0.019758971 -0.19560222 0.03497173 0.045263615 0.0719411 -0.17538589 0.08425172 0.2660999 0.06980379 0.21904072 0.07375885 0.11757102 -0.027568229 0.14006066 -0.17892464 -0.026775112
27 0.008366303 0.13225165 0.024777982 0.087118305 -0.52325946 -0.09229598 -0.062576644 0.22070482 -0.15821965 0.080935635 0.01664822 -0.034557864 0.14888085 0.39797467 0.15331152 -0.24843556 -0.06806824 -0.30227882 0.36486164 0.086310014 -0.2884364 -0.009342186 -0.05931706 0.27083126 0.013909113 0.23841277 -0.16427532 0.19887844 -0.10837799 0.1744683 0.021966 0.07440575 -0.16794415 -0.0408951 0.04038925 0.024848804 -0.09851221 -0.29286513 -0.18946692 -0.07614171 -0.40881994 0.32998005 -0.16039109 -0.0146408975 -0.005358676 0.07617157 0.08950632 -0.060153715 0.016039586 0.31172866 -0.18631141 0.01233905 -0.17725077 -0.23380604 0.23517722 -0.09918261 0.24855258 -0.14287099 0.13627382 -0.29354772 0.15851162 0.060536228 0.14836027 0.22071017 -0.1744923 0.23803753 0.34418142 -0.07264143 -0.40749773 0.10218289 0.14717449 -0.30963367 -0.05846491 -0.050596356 0.1979174 -0.15630887 0.0074066957 0.027638724 -0.11136107 0.35329556 -0.10905345 0.12415865 -0.016282398 -0.033754062 0.28363007 -0.059399065 0.22548419 0.079861 0.4628647 -0.047639787 -0.28546417 0.4090063 0.018034076 -0.018389845 0.3767513 -0.1537816 0.13990983 -0.15791322 -0.3593692 -0.1454501 -0.123304896 -0.30002797 0.43958327 0.12662886 0.18943019 0.10168673 -0.2850757 -0.25819325 -0.3887408 -0.010829565 0.23756513 0.25713274 0.105832994 -0.24777311 0.20093599 0.13768725 0.07868847 -0.15491392 -0.12876818 0.14708175 0.070389204 0.3473395 0.13850084 0.09886046 -0.23372093 0.19895796 -0.011413774 0.018588299
15 0.07996576 0.16671944 -0.25456002 0.08434743 -0.28014842 -0.03421845 -0.25466886 0.073955275 -0.06737321 -0.016365547 0.07851124 -0.14419664 -0.13853869 0.36031386 0.15510719 -0.10892704 -0.06794167 -0.123563044 0.1803204 -0.0440872 -0.28623462 0.0999701 -0.08492746 0.22424288 -0.008480181 0.20403433 -0.13856322 0.29494172 -0.18347397 0.007346946 0.25612077 0.057907123 -0.22261085 0.009992583 -0.06940346 0.09465854 -0.010527787 -0.10272357 -0.0405197 -0.016074391 -0.34927046 0.27591008 -0.097252265 -0.122810684 0.01900271 -0.16847202 0.026978727 0.17665783 -0.012273866 0.18553889 -0.1828955 0.088665634 -0.06946275 0.011703482 0.1506367 0.059952375 0.23156656 -0.19763121 0.12076164 -0.18342578 0.16637139 0.16054115 0.06094918 0.2491116 -0.34121713 0.19634399 0.22711414 -0.06266023 -0.17837073 0.08419554 0.015248125 -0.15922141 -0.093057804 -0.19760561 0.12365636 -0.1852745 0.13984904 -0.033112973 -0.1867613 0.23498288 -0.08918125 0.10003088 0.09729767 -0.003912579 0.23522347 -0.16088079 0.04117625 0.004029382 0.30641326 0.0044734655 -0.24387616 0.19417056 -0.16044617 0.044778638 0.18912522 -0.29352614 -0.008428374 -0.011425218 -0.31425098 0.0027406455 -0.2895577 -0.23366477 0.25016853 0.12966672 0.1222984 0.24649344 -0.1160184 -0.1368272 -0.12827398 0.120302394 0.26354274 0.2957736 -0.034261953 -0.18644826 0.02644704 0.034798015 0.070664816 -0.18579724 0.09100782 0.28862804 0.057050746 0.2257975 0.051815294 0.12327781 -0.021175394 0.11573886 -0.18243346 -0.010751351
18 -0.018824408 -0.15460192 -0.23756368 0.039562613 -0.12076919 -0.1041485 0.1997803 0.004244126 -0.006015256 -0.08126468 0.0090011805 -0.33910063 -0.14980814 0.06509599 0.29685497 0.056368005 -0.2043603 -0.28954875 -0.3021904 -0.32285064 0.117914 0.18946685 -0.036440495 -0.22522716 -0.1761741 -0.2088268 -0.14677088 -0.04056776 0.1962112 -0.0684887 0.026846023 -0.05186039 0.17205535 0.024409615 -0.040345896 -0.18652135 0.0086167585 -0.05262725 0.18055438 0.08693357 -0.27989918 0.24302538 -0.0044212732 0.25242475 -0.07507922 -0.003914465 0.04164219 0.009571916 6.7482603E-4 0.11604859 -0.16257831 0.07081078 0.083947994 -0.066035174 -0.06153303 0.07185741 -0.1271874 -0.36348554 -0.18876058 0.06631255 -0.16682011 0.02298972 -0.13598867 0.18719397 -0.16030128 -0.12564425 -0.033307042 -0.32693282 -0.16952161 -0.1772162 0.07626034 -0.07791813 -0.4154496 -0.039041717 0.07682128 0.08579788 -0.090747096 -0.22039206 -0.24710241 0.014535592 0.057063874 -0.07649087 0.28581515 -0.16400523 0.055783425 0.09912602 -0.21658835 -0.006756394 -0.019499738 0.03926278 -0.1702242 -0.105622165 0.019820832 0.060675833 -0.021624798 -0.2307963 0.20368972 -0.10301522 -0.052564934 -0.010676725 -0.05593916 -0.13876961 0.050429832 -0.3173457 -0.16786395 -0.17417127 0.16550413 -0.09695536 0.019039176 -0.3547316 -0.029337915 0.20833002 0.074886985 0.1657008 0.01193183 0.1975024 0.027751705 -0.2875789 -0.054452937 -0.026990216 -0.039068207 -0.28711453 -0.02285009 -0.048008174 0.0904902 -0.07006977 -0.1947324 -0.07215988
17 0.038358644 -0.3388063 0.3824213 0.24873912 -0.0567583 -0.47506985 0.320764 -0.05201933 -0.27326453 -0.33831784 0.34058282 -0.3851545 -0.07043802 0.2935509 -0.08125514 0.40466025 -0.25377333 -0.17664008 -0.27378294 -0.21072546 0.1009651 0.059000157 0.35766628 0.26643056 -0.21735993 -0.12146696 -0.2964898 0.21780252 0.5780216 0.051958688 0.20648168 0.10063898 -0.020383114 -0.0025157116 0.18733522 0.017125502 0.2786842 0.044488024 0.1034176 0.11207541 0.17035395 0.11095712 0.6717715 0.4794189 -0.015023135 0.27722633 -0.08236693 0.44888705 0.019086812 0.121476024 -0.60150874 0.015194469 -0.038055286 0.17243591 0.17747912 -0.08610405 5.700156E-4 -0.049484845 0.17118333 -0.09068108 -0.13023901 -0.26504567 -0.012458107 0.49793318 -0.042544533 -0.3320997 -0.23661909 -0.60481113 -0.41857663 -0.2404497 -0.18739706 0.22892278 0.20717089 0.21182099 0.40715083 0.08962267 0.22261819 -0.38401216 -0.016601805 -0.14287333 -0.1410853 0.19896449 -0.0031274112 -0.12395493 0.3787684 0.12462543 -0.22934245 0.030866245 0.5025736 -0.114860065 -0.47243837 -0.2448405 0.43308568 -0.22484922 -0.042247046 -0.148928 0.038510714 0.07908929 -0.38243166 0.15560785 0.1786601 -0.18472923 0.17631298 -0.045815684 0.036227945 -0.22985403 0.18234211 -0.170557 -0.471998 -0.28198892 -0.17062393 -0.2905072 0.019921452 0.24388663 -0.20364718 0.3660215 -0.0961998 0.099883616 0.10588195 -0.2763786 -0.6335428 -0.1991603 -0.24579178 0.16724075 0.1517987 -0.25264698 -0.32561597 0.040305115
23 0.05254051 0.16710779 -0.254433 0.07909056 -0.27773213 -0.031325478 -0.27087376 0.08006657 -0.062631704 -0.0220131 0.07924902 -0.14657211 -0.14252113 0.35593653 0.17796278 -0.11537495 -0.07836626 -0.1367035 0.18164694 -0.05481241 -0.27742106 0.10801936 -0.07330456 0.22866452 -0.013002763 0.2043865 -0.13799451 0.29445195 -0.20266423 0.023688661 0.25853875 0.06290232 -0.22492802 -4.2156913E-4 -0.07392811 0.09773959 -0.007944537 -0.08951121 -0.039417107 -0.0227995 -0.3548357 0.28151932 -0.1003645 -0.11206837 0.009648118 -0.16411807 0.037262894 0.16676818 0.009878471 0.16896307 -0.18929933 0.088409625 -0.06649469 0.01476395 0.14763145 0.06178339 0.22792874 -0.19382016 0.113493845 -0.1788127 0.16539912 0.15936674 0.05846787 0.26233715 -0.3310604 0.19003539 0.21412057 -0.043685574 -0.1745005 0.077208035 0.026362695 -0.16319111 -0.09760228 -0.19626254 0.109293684 -0.17724593 0.1312187 -0.03898653 -0.19664577 0.25043646 -0.09193228 0.11005484 0.11603328 -0.00819665 0.22570026 -0.1548249 0.034357853 -4.0273275E-4 0.28709957 0.008890454 -0.22805959 0.2007198 -0.16425757 0.044807203 0.18861581 -0.28845748 -0.010349562 -0.01598986 -0.31254038 -0.0014877605 -0.31609112 -0.25597465 0.23971878 0.1453635 0.11093537 0.26993904 -0.10162829 -0.12897937 -0.12426874 0.13490087 0.26409432 0.30522215 -0.023867274 -0.18812716 0.02673522 0.037805825 0.07009186 -0.1822835 0.07619713 0.2804283 0.055547327 0.23472524 0.06394418 0.119096175 -0.010476344 0.12608674 -0.16619685 -0.018804839
21 0.0589279 0.1683968 -0.2644351 0.07924971 -0.25980505 -0.01934908 -0.2808961 0.06360527 -0.047494665 -0.028257977 0.076662175 -0.14870201 -0.16580516 0.35057428 0.15830582 -0.08531958 -0.06624518 -0.11626177 0.16396274 -0.07011184 -0.28014943 0.099376865 -0.07646012 0.21031037 -0.006802974 0.1916203 -0.14357585 0.31221706 -0.18874647 0.0057261563 0.29468015 0.07602272 -0.2365741 0.007603017 -0.08616701 0.10251145 -6.6215586E-4 -0.06992299 -0.030742813 -0.022363827 -0.32714257 0.26410145 -0.092488974 -0.13049898 0.0060482495 -0.18478964 0.034361232 0.19590738 0.008842963 0.16652498 -0.18327016 0.0678613 -0.050539628 0.030602593 0.1520321 0.0744979 0.21000282 -0.19418138 0.11871304 -0.1675657 0.16299658 0.1526731 0.04830459 0.25411892 -0.35101485 0.18398826 0.18518318 -0.04865439 -0.15369226 0.07970902 0.011433297 -0.1423857 -0.08625067 -0.1891505 0.110191174 -0.1825682 0.1428608 -0.046526033 -0.18837385 0.24981697 -0.07736944 0.115802474 0.12420031 0.0029738669 0.21329145 -0.17010207 0.022997847 -0.01570599 0.2864525 0.0016816243 -0.23386581 0.17084126 -0.18087554 0.028499752 0.168645 -0.29615355 -0.020825649 0.004989435 -0.31034482 0.0022326093 -0.3161949 -0.25671726 0.23452118 0.17064296 0.12059288 0.27108005 -0.083177626 -0.12983976 -0.11141851 0.14601518 0.2697759 0.29586622 -0.03776995 -0.19239351 0.01675905 0.038038354 0.071508996 -0.18405794 0.1076265 0.28172866 0.065615736 0.22131573 0.05713727 0.12516437 -0.018267903 0.107889615 -0.1896552 -0.025349643
10 -0.09362047 0.0045809546 -0.21629488 0.07100919 -0.27678433 0.02397339 -0.0659431 0.119555324 0.010714256 0.12175019 -0.15237065 -0.078870706 -0.13193725 0.16594073 0.16361643 -0.13642661 -0.082264885 -0.22549798 0.1489895 -0.28690192 -0.12984695 0.026209556 -0.03008837 0.04924063 -0.08410014 -0.110130236 -0.041864064 0.2882676 -0.04270205 -6.18251E-4 0.12461378 0.08594177 -0.09691717 -0.05957443 -0.12864393 -0.04563601 -0.07933935 -0.0050164694 -0.0040599653 0.055018384 -0.15586765 0.13058026 -0.146518 -0.022297796 -0.18700956 -0.12903279 0.16144748 0.10344726 -0.016258683 0.25863427 -0.069945924 -0.04372035 0.013462805 -0.08798252 0.06251468 0.12225022 -0.03618639 -0.22126147 0.10718477 0.015567276 0.07301593 0.062203243 -0.03024648 0.09921523 -0.34810045 0.1245782 -0.08857293 0.08426757 0.005583326 -0.012775293 0.015423271 -0.16376589 -0.1414917 0.027259711 0.27053094 0.01734817 -0.13008903 0.009965194 -0.06487087 0.11259852 -0.0050647254 0.2813326 0.2583144 0.22356813 0.084293075 0.034047727 -0.13020912 -0.10661816 0.20113386 -0.01812402 -0.15563847 0.13548566 -0.12282425 0.038217913 -0.06743383 -0.14659089 0.22693151 -0.11461652 -0.074030876 -0.046478707 -0.26429233 -0.33050627 0.2512866 0.1277605 -0.09363092 0.14484471 0.015229711 -0.3118583 -0.0614359 -0.01856654 0.13388073 0.2737782 -0.028809113 -0.0808604 0.028414961 0.080213934 0.07634792 -0.27419618 -0.063058585 0.14764813 0.23912181 0.20459943 0.21367846 0.09215888 -0.22879983 0.025645325 -0.028057013 -0.12936662
19 0.073868066 0.15675604 -0.22117661 0.08376388 -0.2654895 -0.03469744 -0.26489154 0.0749543 -0.05916231 -0.025677262 0.063427 -0.13678758 -0.128675 0.3539922 0.15644854 -0.08407653 -0.05013322 -0.12141383 0.16440667 -0.042483248 -0.2784328 0.08148998 -0.06892803 0.20129034 -0.0065023373 0.20265916 -0.14803895 0.28872913 -0.17610517 0.011418302 0.27731776 0.07223903 -0.22720695 0.010382057 -0.06607381 0.10169462 0.0039139157 -0.089367054 -0.03828478 -0.017058033 -0.32483888 0.2594827 -0.07768194 -0.1215322 0.0037948631 -0.15611091 0.054931395 0.1978131 0.0069191423 0.16006587 -0.18200798 0.050583262 -0.070608236 0.010925302 0.16006786 0.05641448 0.20243776 -0.18998644 0.12618923 -0.18136035 0.15555383 0.14402704 0.042522047 0.25388932 -0.31857055 0.16828717 0.18525611 -0.064452186 -0.15952499 0.08653674 0.009377343 -0.13146628 -0.07631944 -0.16606341 0.10485806 -0.18781301 0.15317576 -0.04629564 -0.17317927 0.25544506 -0.07481737 0.0927714 0.10719975 0.0047945003 0.20486513 -0.16545758 0.03671852 -0.017472753 0.3004014 -0.008230549 -0.24784686 0.16964652 -0.1597231 0.0155701395 0.18226956 -0.28892338 -0.020742422 0.015018995 -0.31074095 0.002639808 -0.27562767 -0.25285903 0.24389681 0.170236 0.13801937 0.25040385 -0.09218973 -0.123475425 -0.13426577 0.14290097 0.25621387 0.27781335 -0.04176283 -0.19449107 0.038974486 0.041289028 0.07608025 -0.17508672 0.09823478 0.26111993 0.056525998 0.21807592 0.06250043 0.13741533 -0.030314479 0.114059605 -0.18983848 -0.0205241
13 0.017007835 -0.16969538 -0.1550961 0.10717268 -0.10132421 -0.051481202 0.14373268 0.11084709 -0.06450808 -0.10098494 -0.11684167 -0.36846226 -0.092055805 0.08182444 0.019487003 0.15374826 -0.18458065 -0.052499965 -0.24298756 -0.34823844 0.028017309 0.06828749 -0.076348126 -0.19433118 -0.14873052 -0.33068255 -0.18426034 0.115136735 0.30273914 -0.23004735 -0.0010888571 0.02878181 0.11419156 -8.51606E-4 -0.010531972 -0.26626763 0.01954134 0.039034184 0.15979697 0.18910567 -0.044402137 -0.07255004 0.09038495 0.26448435 -0.054885864 -0.048142664 0.12415666 0.22472705 -0.12550867 0.1840804 -0.013091991 -0.15285057 0.18372278 -0.08348693 -0.029693095 0.15748613 -0.23251344 -0.38257584 2.5979467E-4 0.08467061 -0.2094877 0.04625662 -0.18936832 0.07810968 -0.28379986 -0.22434571 -0.15908815 -0.3341423 0.03356927 -0.17230138 -0.024024768 8.6318236E-4 -0.13657878 0.15518388 0.25777182 -0.0895243 -0.112473115 -0.11424438 -0.08328754 -0.013035822 -0.03778964 -0.021797594 0.24992679 0.059665356 0.03883754 0.055334236 -0.26429397 -0.12848207 0.2952422 -0.11740093 -0.3730295 -0.22929312 -0.072464146 -0.06159619 -0.18244308 -0.3721002 0.09771066 -0.002917682 0.0133990105 0.04319105 0.16127586 -0.09305969 0.11561352 -0.102216125 -0.11816111 -0.15072711 0.14813502 -0.18095207 -0.14423229 -0.36209095 0.020142116 0.087666914 -0.03602465 0.09781023 0.028384294 0.15204987 0.115143135 -0.3313135 0.14597024 -0.09608248 -0.008923246 -0.26119596 -0.1181311 0.10717786 -0.07183795 -0.19470152 -0.34845957 -0.0837149
26 0.15839535 0.13527168 0.035580773 -0.26739562 -0.25405243 0.016505059 -0.038696155 0.3624993 -0.10365853 0.08621849 0.098985344 0.030990377 -0.17685246 0.15392865 0.3309942 -0.13084285 -0.10039623 -0.46020204 0.01965813 0.15812829 -0.2534212 -0.13967708 0.1945924 -0.09553316 -0.101647995 0.49315673 0.11127822 0.15856603 -0.03285076 -0.06961518 0.14955032 -0.019176695 0.016875153 0.22699797 -0.16927077 0.024395134 -0.12216326 -0.12559292 -0.18685779 0.51470333 -0.32491213 0.29615992 -0.23380737 0.052382536 -0.3767096 0.09850447 0.33469653 -0.025793362 0.028334426 0.1436562 -0.2725042 -0.040156774 0.18717505 -0.27844954 0.09575762 0.30718678 0.3205484 -0.17497832 0.12775443 -0.20432931 0.032648098 0.26857048 -0.18700348 -0.0330882 -0.002386981 0.3595091 -0.12572125 -0.16071646 -0.31665513 -0.019415608 0.098042615 0.015303023 0.25519064 0.3546187 -0.0026004673 -0.13105161 0.20806819 -0.19860323 -0.21072605 0.38233107 0.15554833 0.11938408 0.119460754 -0.058076005 0.09185831 -0.2614573 -0.06356295 0.11318431 0.27540183 0.28226796 0.049171496 0.20990041 0.12111041 -0.12765662 0.3419977 -0.23599325 0.23310131 -0.045712423 -0.08797547 -0.12554485 0.012212638 -0.07951709 0.055368014 0.40785545 0.11075894 0.30039406 -0.25202733 -0.11917665 -0.37896833 0.15067603 0.20545818 -0.29282698 0.23496374 -0.19731225 0.25656733 0.44846243 0.11744054 -0.07169853 0.13544403 0.10287339 0.140357 -0.051943835 0.01411339 -0.055402856 -0.23245348 0.36729306 0.0513811 0.28877315
11 -0.024256395 -0.31243476 0.104875065 0.116614506 -0.023112228 -0.33292177 0.31988862 -0.08518077 -0.12559995 -0.22660634 0.28119123 -0.35368016 -0.19675411 0.14441057 0.005112072 0.31147194 -0.33079097 -0.20433503 -0.33847564 -0.30625242 0.13777612 0.17203072 0.23471114 0.11068712 -0.23945285 -0.1833556 -0.16940154 0.18795668 0.4505484 -0.026642889 0.19996358 0.022359647 0.039495613 0.037828084 0.044309013 -0.041234747 0.14331825 0.14395776 0.17418003 0.18634863 0.09183988 0.13830064 0.4662606 0.3899305 -0.049402766 0.12247696 -0.11051835 0.3502535 0.032128897 0.12074465 -0.54163206 0.14296064 0.09510835 0.19578019 0.048802875 -8.6253317E-4 -0.032632068 -0.16083263 0.025191884 0.058449354 -0.10209531 -0.14386356 -0.06775102 0.34940434 -0.15098177 -0.2446815 -0.2750477 -0.4764903 -0.30133894 -0.26566252 -0.16119917 0.15159515 0.046515215 0.10135723 0.29815337 0.119348004 0.13163996 -0.35435092 -0.1619348 -0.15362108 -0.06848772 0.177699 0.15419824 -0.14946386 0.30937833 0.122302845 -0.30701536 0.047057822 0.2676126 0.026135784 -0.3049761 -0.2817146 0.30561075 -0.052001152 -0.081920005 -0.1812303 0.06841361 -0.031211369 -0.19696628 0.15000226 0.046879854 -0.12965456 0.09443601 -0.15531978 -0.09663001 -0.17920674 0.23751953 -0.12745853 -0.2557687 -0.35590288 -0.15773161 -0.1908022 0.02721467 0.2999254 -0.20929307 0.36496192 -0.06705321 -0.02739407 0.07458419 -0.21364956 -0.44876704 -0.2668742 -0.24965334 0.053652987 0.22201844 -0.1997472 -0.20549563 0.022258867
25 0.028948776 0.08082473 -0.029921321 -0.15486915 -0.18015608 0.066887595 -0.061195422 0.43990934 -0.16237773 0.096366614 0.02802098 0.010930999 -0.10701993 0.049637776 0.30879986 -0.2905824 -0.17294651 -0.38572472 -0.01097348 0.16397882 -0.29894716 -0.2443696 0.1793893 -0.102329694 -0.24562073 0.405586 0.098108605 0.18923254 0.06900949 -0.11086126 -0.09430296 -0.12530054 0.065038435 0.19933067 -0.19511735 -0.1382347 -0.15926881 -0.15394208 -0.20029555 0.58880323 -0.31779182 0.07492021 -0.25800648 0.19765437 -0.3137747 0.051626466 0.36167526 -0.011509167 -0.08285907 0.22036903 -0.11250705 -0.08212191 0.19062498 -0.25749758 0.023361532 0.3055341 0.3468932 -0.14820988 0.20052938 -0.14249969 0.13209258 0.366588 -0.22196911 -0.10864749 -0.015555615 0.40724143 -0.08757791 -0.15415068 -0.15623412 -0.09281109 0.2129899 0.081150234 0.2070591 0.2777565 0.15508324 -0.16600196 0.062859215 -0.12283185 -0.15809578 0.24892145 0.07602796 0.03609239 0.12543295 0.07781765 0.16991134 -0.10209801 -0.14161064 0.1513962 0.32719344 0.27338606 0.044283688 0.17225812 0.066496275 -0.1731713 0.16727172 -0.21921666 0.30465168 -0.010323109 -0.06993309 0.021961909 0.16897196 -0.064267 0.056949943 0.32467127 0.052785154 0.17282628 -0.20820025 -0.15701553 -0.40263456 0.12735654 0.18431114 -0.32178763 0.23754779 -0.13436428 0.32977745 0.32389563 -0.027076596 -0.17734687 0.1367894 0.08446233 0.27142015 -0.0067702974 -0.025340375 -0.07209593 -0.29989854 0.2869902 -0.08648474 0.26604232
20 0.05216279 -0.04770359 -0.2970194 0.055569176 -0.18063863 -0.12312313 0.096938804 -0.04449633 0.026946204 -0.05110733 0.0026811345 -0.25763297 -0.15891409 0.15966626 0.2743299 0.015488618 -0.123225115 -0.27440834 -0.12958986 -0.22046053 0.026761744 0.21717538 -0.07614568 -0.083182596 -0.08324511 -0.08607764 -0.13921078 -0.0038200389 0.019735469 -0.018642986 0.07115821 -0.0364186 0.011631786 0.03383809 -0.020129416 -0.061624203 0.01038441 -0.122412734 0.10452298 0.0147701455 -0.32043615 0.33287668 -0.036229804 0.07581271 -0.060109694 -0.049438156 0.013235989 0.00254002 -0.025367243 0.11057624 -0.1941162 0.16527629 -0.022141453 -0.06858605 -0.009359891 0.08416907 -0.032320812 -0.30157393 -0.1179984 -0.0100753745 -0.078873694 0.027789315 -0.032365624 0.2069452 -0.22585429 -0.01528079 0.09109145 -0.21875346 -0.21651094 -0.06437766 0.011657631 -0.14546491 -0.35596457 -0.14638503 0.03715256 0.050232176 -0.019275965 -0.18647195 -0.23223688 0.01093182 -0.022926906 -0.025788376 0.18824615 -0.14183928 0.118317656 0.028502336 -0.11204624 4.2131142E-4 -0.011760939 0.07261772 -0.11817822 0.04536325 -0.01635107 0.14206535 0.062151186 -0.19731979 0.13031052 -0.12705286 -0.1184435 -0.015709504 -0.20113914 -0.12622759 0.11744112 -0.28234285 -0.124478616 -0.057416186 0.036614385 -0.099303104 0.058141503 -0.238124 0.04625813 0.2962332 0.02292304 0.07865799 -0.008892674 0.1542 0.06448433 -0.20812462 -0.07108733 0.13048537 -0.050319757 -0.11630206 0.057364535 -0.014460951 0.08070668 0.013092306 -0.120971754 -0.0652565
29 -0.07115139 0.12890804 -0.2930255 -0.056414668 -0.16207828 0.06270047 -0.11721668 0.14345886 0.030625938 0.13006498 -0.07502909 -0.045920994 -0.30533814 0.06872265 0.208115 -0.115835086 -0.124634154 -0.24243136 0.05459095 -0.224356 -0.19919589 0.028885566 0.1190946 0.04363399 -0.117099866 0.12009989 0.08360788 0.31713557 -0.024891123 -0.06454586 0.1841939 0.037256684 -0.12119692 0.08562538 -0.23572414 -0.038490415 -0.12853439 0.028543528 -0.041742206 0.33174434 -0.13030627 0.16306837 -0.20254779 0.021603685 -0.31722146 -0.10968941 0.14127862 0.073910095 -0.027997911 0.2212103 -0.18267396 0.054004032 0.15391803 -0.059740853 -0.032159984 0.30563682 0.1521867 -0.18728255 0.09280626 -0.024377827 0.13590401 0.1678522 -0.08214986 0.044952404 -0.25265324 0.2971912 -0.17427024 0.057064828 -0.06568098 -0.022564135 0.027712397 -0.009427052 0.048270755 0.111139484 0.17239445 0.02087978 -0.049566317 -0.095255814 -0.06895691 0.07686599 0.06317059 0.33855432 0.2583422 0.15621796 0.124016605 -0.08330491 -0.22675835 0.015321505 0.14461412 0.19317472 0.06021216 0.14893039 -0.022416653 0.020656446 -0.032681946 -0.1694258 0.24249268 -0.11023877 -0.077837385 -0.051738363 -0.2404987 -0.18354605 0.02138881 0.20048618 -0.17458808 0.24400249 -0.026986811 -0.25973338 -0.06796937 0.12528428 0.17693917 0.06056248 0.06610975 -0.06629897 -0.02824899 0.23582208 8.48172E-4 -0.19907486 0.091622695 0.20792927 0.22417393 0.102820955 0.08240032 -0.01517523 -0.22042018 0.11487979 -0.02246008 0.052866828
31 0.045156717 0.09351154 -0.30601025 0.10805392 -0.16828036 -0.053345576 -0.18290697 -0.01681377 0.018718578 -0.048619933 -0.019005997 -0.22085932 -0.17833124 0.24841502 0.33032307 0.007251514 -0.0022619101 -0.19737549 -0.039838295 -0.13639966 -0.13391303 0.14563179 -0.08544605 -0.012986445 -0.005787932 0.06284524 -0.21688883 0.09915919 -0.105625466 0.004763686 0.2621442 0.05941856 -0.12199952 0.041259818 -0.041589566 0.009757736 0.050111707 -0.11455547 0.05452403 -0.07028154 -0.37480706 0.30029228 -0.090407096 -0.047406383 -0.030544179 -0.11352429 0.08499796 0.111708924 0.05961475 0.064796075 -0.1457343 0.022220949 -0.09394688 -0.01619351 0.08362498 0.042749174 0.043371484 -0.322145 -0.06962369 -0.10927286 0.034194913 0.12581834 -0.049198437 0.31506023 -0.19074172 0.045103837 0.12613174 -0.16829194 -0.124085836 0.044590894 0.053613923 -0.07534096 -0.34129667 -0.15374528 -0.056794025 -0.073615305 0.10177164 -0.10492634 -0.19783582 0.22877228 0.020177133 -0.079834536 0.20684426 -0.08195201 0.028450688 -0.11229134 -0.025112 -0.06790957 0.022003368 0.017279774 -0.18814798 0.060748134 -0.1702735 0.009820398 0.13191277 -0.2723085 0.042329133 0.054554343 -0.25831476 -0.037774995 -0.28663334 -0.2225972 0.12403485 -0.02828019 0.043497443 0.10875062 0.0512225 -0.034290068 0.031589825 0.07457046 0.14904253 0.3650076 -0.027747171 -0.08904555 0.044461392 0.05339431 0.054860186 -0.23631091 0.07272727 0.20232256 0.07841745 -0.017264133 0.10797865 0.06803596 0.035703298 0.11300739 -0.24239013 -0.1267626
5 -0.010046908 -0.28265548 0.2358849 0.13684307 -0.1052629 -0.34899607 0.39250138 0.047872182 -0.23705268 -0.18462363 0.22532418 -0.3179426 -0.105070725 0.12864833 -0.0024424873 0.22434653 -0.328093 -0.25436378 -0.23245156 -0.28133455 0.15234976 0.091604486 0.28648725 0.116462044 -0.22324711 -0.16369335 -0.13687521 0.16169895 0.487122 -0.02790749 0.012309237 0.021252807 0.118206464 -0.013412694 0.1217751 -0.108636044 0.106590904 0.06873832 0.11874316 0.23660728 0.07987211 0.1374948 0.42655617 0.4919441 -0.13893925 0.22435363 -0.042236075 0.21888945 -0.0013806368 0.20288377 -0.44495004 0.069965385 0.0990195 0.048586916 0.0043490645 0.028159518 -0.0012732872 -0.13251092 0.0658024 -0.015753571 -0.17059918 -0.15000248 -0.0757964 0.3037739 -0.056542315 -0.22150555 -0.26120803 -0.4353129 -0.34384483 -0.27047825 -0.08571292 0.09809842 0.08276774 0.24817237 0.39134598 0.17559128 0.0076814927 -0.26184243 -0.058645267 -0.15560016 -0.059344683 0.2345056 0.11776355 -0.0724012 0.2714397 0.16376595 -0.25355074 0.08528527 0.341444 -0.052020855 -0.30697036 -0.15489674 0.4069123 -0.11496531 -0.094720036 -0.08534901 0.22248927 -0.079029225 -0.15188324 0.08054139 0.17210348 -0.1204038 0.07794421 -0.16250446 -0.13457485 -0.18687609 0.12193654 -0.2177573 -0.3636748 -0.37793818 -0.16526337 -0.22996496 0.10710781 0.25876188 -0.15989493 0.3811825 -0.067114934 -0.033044826 0.021186573 -0.25683907 -0.4175833 -0.23009352 -0.19747932 0.050735436 0.06335508 -0.20520696 -0.14803585 0.07175193
6 -0.05941023 -0.30119446 0.30424318 0.20279907 -0.13674484 -0.39776552 0.4157441 -0.03452664 -0.19396387 -0.16003875 0.23516993 -0.2886764 -0.08907667 0.17791061 -0.041071374 0.2701038 -0.31182814 -0.2690047 -0.17893797 -0.2762676 0.1276235 0.089647956 0.2904005 0.2518672 -0.19952767 -0.16937065 -0.17610501 0.22654781 0.51756483 0.04293347 0.107668154 0.06401755 0.007964488 0.004577516 0.13832754 -0.03942686 0.124599755 0.10979376 0.12486354 0.16905944 0.1530915 0.15837306 0.4972522 0.4382181 -0.1509937 0.26620108 -0.12036659 0.30355102 0.026884833 0.22070146 -0.5614187 0.11480129 -0.0051015043 0.11646312 0.07800855 -0.044922084 0.008909503 -0.10633199 0.11641734 -0.03346662 -0.10207481 -0.20767051 -0.017925836 0.38171723 -0.069854625 -0.19883542 -0.2682323 -0.43708345 -0.4039754 -0.23507707 -0.14615105 0.11911398 0.13659367 0.21863003 0.42842025 0.2191012 0.076162145 -0.27736026 -0.0019056355 -0.19001634 -0.104956955 0.3134764 0.0899921 -0.04280304 0.32121894 0.17817143 -0.2358358 0.100700594 0.37695023 -0.061410278 -0.3164528 -0.14723195 0.43496817 -0.08518387 -0.10222005 -0.035485838 0.19721329 -0.08153886 -0.2363054 0.10271236 0.10751316 -0.15378033 0.15504949 -0.12542263 -0.1156785 -0.21319999 0.14792806 -0.26400694 -0.37371364 -0.34383962 -0.19295801 -0.257642 0.071864076 0.29125926 -0.22734337 0.39929026 -0.101972796 0.03725155 0.04458213 -0.28192174 -0.47025087 -0.13618042 -0.17703561 0.092034295 0.058206704 -0.18786807 -0.08300698 0.029530667
9 0.1310712 -0.05454035 -0.15704507 0.04997978 -0.21350813 -0.051261973 0.016371373 0.08034304 -0.07640037 0.065875106 0.04309753 -0.0760979 -0.13007474 0.2041379 0.06921525 -0.10794271 -0.13569015 -0.16136666 0.014910067 -0.15541986 -0.06479739 0.032885563 -0.10407344 0.027680553 -0.1098169 -0.035028435 -0.03768185 0.26864165 0.021159044 -0.11333766 0.105961055 -0.02104089 -0.03330332 0.0050364584 -0.04560072 0.013289077 -0.035531398 -0.017227825 0.08127428 0.07036326 -0.17421931 0.11714059 -0.024947973 -0.046895612 -0.029528335 -0.19707659 0.034736134 0.21679237 -0.079030044 0.24018891 -0.088134475 0.046400897 0.026770474 0.004696408 0.08567289 0.08144686 0.054890867 -0.19961151 0.119853705 -7.124447E-4 0.06081061 0.11489372 -0.04280999 0.057727206 -0.37411177 0.07121335 -0.0026918198 -0.0702298 -0.06424546 -0.016780682 -0.023648523 -0.11195861 -0.1093798 -0.11704661 0.29291108 -0.061908495 0.043804426 -0.0046914537 -0.18934229 0.07246218 -0.04804831 0.108075574 0.16543958 0.131396 0.144005 0.017269945 -0.102873035 -0.021221804 0.23667726 -0.0031677964 -0.26768366 -0.03497922 -0.072850145 0.070661075 -0.038497142 -0.16897815 0.111457616 -0.024114544 -0.0736776 0.07285712 -0.11519648 -0.15176912 0.23724678 -0.018879663 0.022770038 0.057153556 -0.024110734 -0.1849019 -0.07700534 -0.11728281 0.07447683 0.120478876 -0.07600945 -0.006700336 0.027291685 0.057407178 0.084818065 -0.26363486 0.029404031 0.16096057 0.117683925 0.07800537 0.032378286 0.08371361 -0.021471659 -0.034303397 -0.07920217 -0.02617478
28 0.14108491 0.009867792 0.06361891 -0.13019975 -0.35324845 -0.034863494 0.062399276 0.2830357 -0.06996725 0.18307576 -0.102409996 0.062421776 -0.09768224 0.1872088 0.24528587 -0.0939285 -0.014238772 -0.44972622 0.12193894 -0.01032811 -0.13188598 -0.1222293 0.06461538 -0.09766847 -0.029991979 0.15890528 0.022574345 0.1592788 -0.022427812 -0.045583796 0.104411945 0.0734952 -0.007037336 0.09284879 -0.057019036 0.015356552 -0.11286974 -0.11095476 -0.12667826 0.2841181 -0.20399684 0.22437441 -0.17487028 -0.041234247 -0.3554535 0.054451372 0.35555908 0.01941379 0.021574674 0.20779459 -0.15146069 -0.14090672 0.07483652 -0.31633663 0.13648324 0.19042869 0.04479994 -0.23748198 0.135914 -0.099944465 -0.048828546 0.12779967 -0.16074555 -0.011374641 -0.122404456 0.18161818 -0.1816271 -0.059309453 -0.19504584 0.015958784 0.0021034123 -0.12076464 0.09245719 0.3466017 0.12704651 -0.03151328 0.06258965 -0.06102621 -0.117388055 0.31591967 0.0959583 0.16718955 0.18330072 0.13536331 -0.022822417 -0.10643819 -0.027887542 -0.052034236 0.26817083 0.094669186 -0.11611942 0.16264695 0.042017642 -0.08376241 0.20563729 -0.13833489 0.2836001 -0.083155945 -0.0047239093 -0.16422226 -0.058628645 -0.19385046 0.24289311 0.2988714 0.05511876 0.20029473 -0.18372647 -0.23143636 -0.29753315 0.0012226077 0.10129412 -0.06450588 0.08341909 -0.16187298 0.24988838 0.34674972 0.22016206 -0.16622905 9.55014E-5 0.060066123 0.21253172 0.037129924 0.19585177 0.037494093 -0.31815934 0.24548192 0.123590216 0.052264538
7 -0.087304644 -0.32438582 0.22836158 0.17908028 -0.09240142 -0.3435623 0.3812592 -0.13242723 -0.08151422 -0.1857737 0.27012295 -0.31975803 -0.13416077 0.17584588 -0.055949017 0.32405663 -0.3232579 -0.21049011 -0.2801457 -0.28080922 0.1135827 0.12788808 0.19964254 0.21250159 -0.20440736 -0.18634106 -0.19435458 0.23206614 0.5207054 0.044442613 0.25730395 0.06312169 -0.035953596 0.040861323 0.05572978 -0.011041889 0.14279932 0.19770513 0.17311187 0.10136729 0.15689519 0.14031303 0.4892587 0.35367948 -0.0807873 0.19675158 -0.19776781 0.4029784 0.05726998 0.17199124 -0.60683274 0.14123048 -0.006041511 0.21267366 0.14120215 -0.06514097 -0.034545027 -0.13825102 0.088885196 0.021670852 -0.04889844 -0.20423067 -8.672468E-4 0.3780854 -0.16093409 -0.20990396 -0.2663756 -0.4810464 -0.36286867 -0.23504932 -0.17935576 0.16195764 0.108067654 0.118236534 0.3554182 0.15499566 0.18766916 -0.33748114 -0.08546564 -0.1639514 -0.08882564 0.26483834 0.11956957 -0.11047802 0.33950248 0.122082 -0.2623287 0.0682509 0.3372039 -0.028033204 -0.3181665 -0.26980588 0.33419928 -0.023494178 -0.10858264 -0.13238542 0.06922259 -0.051628146 -0.26039794 0.1523412 0.035901885 -0.1529067 0.1746822 -0.07907319 -0.055864748 -0.23566037 0.25193468 -0.21431339 -0.2935277 -0.3539155 -0.1732209 -0.26916057 0.029210925 0.29740512 -0.25570664 0.37089452 -0.12360231 0.028664 0.11072238 -0.26756436 -0.4562919 -0.1739544 -0.22663862 0.09863905 0.14585131 -0.18015218 -0.12146845 0.0050798464
30 0.17251247 0.117863245 0.070639774 -0.04476615 -0.39816412 -0.10564105 -0.17308347 0.29054162 -0.23178354 -0.058378175 0.09369968 -0.058677938 0.12803367 0.4361978 0.26299262 -0.17451128 -0.0068053165 -0.2863451 0.24711573 0.12797102 -0.23757988 -0.04929397 0.012962236 0.10170395 -0.031843264 0.3437853 -0.13514724 0.09065654 -0.18391785 0.13070682 0.10383599 0.032491 -0.034229424 -0.012325342 0.028946823 0.091558374 -0.024329493 -0.34857506 -0.14212029 0.028834576 -0.46660748 0.34015724 -0.0888608 0.009097007 0.025820404 0.08054267 0.2608171 -0.013451587 0.0462049 0.15456429 -0.14391768 -0.0839718 -0.07925123 -0.25499272 0.20111817 -0.026227541 0.2376398 -0.16063881 0.08353061 -0.29453823 0.015532142 0.06587791 0.011816886 0.19529833 -0.060535822 0.16181457 0.26478887 -0.15680765 -0.35230547 0.10252539 0.12009111 -0.22197126 -0.056692317 0.060405895 0.027131416 -0.23831807 0.09105792 -0.06260894 -0.21880558 0.44340688 0.00253822 -0.05433742 0.010392325 -0.14642785 0.19618523 -0.17676309 0.23519957 0.025018612 0.38476336 -0.024823396 -0.30773482 0.312507 0.011847974 -0.13248494 0.47680995 -0.24452718 0.05677203 -0.043525107 -0.31295398 -0.14937654 -0.020329468 -0.2736638 0.35794142 0.19582897 0.306695 0.17365798 -0.24537294 -0.066532366 -0.37920228 0.05094667 0.23647653 0.24862112 0.09462567 -0.29701212 0.30842328 0.13237853 0.20779778 -0.114978574 -0.12109934 0.12685277 -0.01594081 0.17711647 0.1008772 0.11809002 -0.07501605 0.22840528 -0.12834467 0.100564525
8 -0.016153334 -0.11776582 -0.19232519 0.09589661 -0.10469279 -0.022114102 0.057828736 0.11674266 -0.04946046 -0.039694335 -0.16663006 -0.2814581 -0.15134132 0.06789225 0.13920237 0.10660683 -0.10791695 -0.1466781 -0.19122612 -0.38079467 0.031068908 0.04831956 -0.016497932 -0.23487744 -0.120818876 -0.29611808 -0.17001945 0.11731647 0.21900202 -0.15289958 0.06172635 0.07956677 0.09674341 -0.03292515 -0.038126957 -0.22724158 -0.0029905634 0.0027491795 0.124597505 0.12308013 -0.08636041 -0.014344326 0.002030894 0.20766109 -0.11825475 -0.07049912 0.21546878 0.1448593 -0.032257907 0.16782102 0.016955998 -0.2160191 0.16505995 -0.12291412 -0.013655201 0.13739936 -0.24821815 -0.36302453 -0.034625523 0.080067374 -0.16458564 0.03284878 -0.20349936 0.1184235 -0.23297295 -0.18350136 -0.22029746 -0.2214621 0.05843825 -0.12656753 0.021329524 -0.019781107 -0.23800589 0.1784498 0.20294753 -0.03664903 -0.15215905 -0.079745844 -0.08071521 0.097529374 0.05865767 0.023187635 0.31574452 0.09875643 -0.051809583 0.063273884 -0.2493141 -0.19175479 0.1814411 -0.09055341 -0.31485626 -0.1780147 -0.088399254 -0.12751953 -0.14002979 -0.30237928 0.1758285 0.020588204 0.0010616389 -0.04827812 0.035262343 -0.20585318 0.10451171 -0.030509397 -0.12809187 -0.07130177 0.17366317 -0.18528283 -0.094732694 -0.22592653 0.025760189 0.19970876 -0.025788901 0.039891366 0.077630416 0.14012673 0.104539536 -0.35986272 0.077539265 -0.033949915 0.11586969 -0.22071809 0.010000984 0.07197426 -0.14655383 -0.12524053 -0.30510142 -0.14032142
24 0.074999176 0.053301655 0.07786779 0.02326692 -0.3363794 -0.030506164 -0.06951814 0.34836772 -0.18098375 0.09122488 0.025483 0.0049446546 0.08287729 0.26583597 0.2466553 -0.28558967 -0.07729914 -0.34288225 0.16106614 0.23651104 -0.31558353 -0.20312288 0.022566782 0.086030915 -0.1466166 0.33900106 -0.08231401 0.18227088 -0.004090592 0.0032346183 -0.05719723 -0.058824353 -0.055632275 0.11774457 -0.03003504 -0.037012417 -0.07747348 -0.24125722 -0.19748375 0.23687801 -0.39247233 0.138615 -0.16894282 0.063336834 -0.11028458 0.057562012 0.26000956 0.051450714 -0.059726268 0.24130666 -0.11157351 -0.08765702 -0.08191535 -0.22681332 0.18164188 0.044633657 0.3089511 -0.14495829 0.22794393 -0.2352556 0.16657488 0.27011153 -0.067971654 0.062298097 -0.066004 0.30599234 0.16703422 -0.17026822 -0.2379723 0.019869957 0.18461086 -0.0674743 0.07347645 0.077513345 0.18983506 -0.21197289 0.13019621 -0.030500209 -0.13650495 0.32333487 -0.050224926 -0.04807192 0.008223635 0.07419754 0.20121689 -0.05873878 0.06693864 0.108790964 0.41616046 0.09196178 -0.18161681 0.2464053 1.9428068E-4 -0.117960505 0.27517906 -0.18689252 0.19573087 0.009577233 -0.23017265 0.022925114 0.07893222 -0.17495076 0.2965464 0.2429815 0.22224283 0.10047852 -0.25325358 -0.15719959 -0.40888715 0.109969154 0.17383355 -0.10781052 0.11765451 -0.18875423 0.3265037 0.17365484 0.014052064 -0.17169107 0.036434256 0.09338091 0.19446597 0.18087354 0.07879551 0.057323113 -0.24789447 0.261551 -0.08654634 0.103000015
14 0.024444798 -0.069005035 -0.2114447 0.11385818 -0.15327607 -0.060231846 0.025597116 0.061485197 -0.014744506 0.005658236 -0.17758717 -0.22956985 -0.13672617 0.14272739 0.14726615 0.08534406 -0.04864058 -0.16520269 -0.08942188 -0.30213088 -0.025453467 0.07435216 -0.048262537 -0.11663535 -0.079565845 -0.22500755 -0.17566955 0.115194745 0.12505543 -0.10740468 0.09413916 0.072156884 -0.011365751 0.008401415 -0.016106332 -0.13464293 0.0034190959 -0.056491293 0.07985913 0.08535745 -0.113525495 0.06498915 -0.008568119 0.09076041 -0.11645077 -0.0693197 0.16793272 0.1422114 -0.05786113 0.16091348 -0.042754713 -0.12446995 0.053285975 -0.107146524 0.011010107 0.1209453 -0.18184131 -0.3353206 -0.008565787 0.029983986 -0.113052085 0.030794954 -0.13458487 0.14933082 -0.23554224 -0.09541844 -0.11622057 -0.18641074 -0.01261918 -0.053342655 -0.028126685 -0.061163936 -0.21841435 0.09265956 0.16088086 -0.023329033 -0.09640279 -0.08749361 -0.057101976 0.059091236 -0.002046516 0.03339907 0.25337815 0.10650477 -0.009805172 0.039940752 -0.18134648 -0.15872929 0.1610163 -0.0393582 -0.26371968 -0.06312035 -0.09033475 -0.042915028 -0.06659358 -0.25252873 0.15203081 -0.011145955 -0.049948893 -0.0476176 -0.061172493 -0.18217012 0.15450765 -0.06038507 -0.11239006 -0.04327366 0.094296426 -0.1841031 -0.051458668 -0.16303758 0.04883825 0.24651934 -0.064289756 0.014627033 0.050314326 0.13960738 0.12484121 -0.296009 0.052298214 0.052057628 0.08982965 -0.11060039 0.068660885 0.08928748 -0.13731937 -0.060340196 -0.2302234 -0.1531819
32 0.14981894 -0.0037791284 -0.0899652 -0.13990346 -0.16990606 0.035756975 0.06669017 0.16569084 0.014711319 0.17820092 0.1399337 -0.01713989 -0.19019493 0.11943001 0.18967685 -0.15983868 -0.18750876 -0.30830258 -0.12827884 0.14681624 -0.22908321 -0.08499431 -0.08374952 -0.028554065 -0.19218034 0.28051132 0.046645273 0.19665734 0.093941785 -0.17051314 0.104241356 -0.12669279 -0.025896495 0.25841177 -0.1691294 0.019673027 -0.11079259 0.0050815786 -0.05636507 0.40174523 -0.28639165 0.18702175 -0.18556511 -0.069827534 -0.18294322 -0.11352664 0.01905244 0.19804798 -0.088150136 0.18364912 -0.25623265 0.16074337 0.081793584 0.0121861305 0.08130476 0.22068666 0.2558363 -0.20358978 0.14187165 -0.054551344 0.15483546 0.3331941 -0.16018663 -0.10934407 -0.22298 0.3702134 0.021290038 -0.2247815 -0.21127923 -0.068255335 0.025378993 0.013216931 0.108310565 -0.07342966 0.0779332 -0.08430321 0.2657169 -0.17333484 -0.25678492 0.09376845 -0.0075221993 -0.020778967 0.13284722 0.012238703 0.2241499 -0.1472205 -0.118365705 0.19779876 0.2146933 0.28022996 0.018167019 0.01107647 -0.0049431166 0.09320449 0.118052125 -0.20393814 0.16193524 -0.03140708 -0.038131632 0.1314435 -0.035668764 0.02413868 0.09819559 0.101380445 0.072300486 0.070552446 -0.13904886 -0.11692289 -0.17329627 -0.009532575 0.12300468 -0.33071628 0.062439315 0.009959807 0.13437344 0.29727063 -0.0042971373 -0.14149736 0.22913155 0.17071538 0.17356567 -0.032227725 -0.06776146 -0.044818673 -0.046788372 0.20283847 0.033158574 0.16367112
4 -0.20811571 -0.20428348 0.0555045 0.06703952 -0.23184963 0.124291815 0.20888099 0.14123137 0.08526792 -0.06250124 -0.09640902 -0.3536359 0.09923049 0.07776332 0.23208179 -0.007559213 -0.14527337 -0.18288997 -0.20877033 -0.32816845 0.048089735 -0.072764635 -0.12581584 -0.23422126 -0.19827513 -0.3295398 -0.07864555 0.041550152 0.31184062 -0.017459007 0.08617866 0.01919613 0.18743625 -0.044706058 -0.18176927 -0.26403886 0.074958056 0.1494227 0.17426142 -0.026096057 -0.19739074 0.054412354 -0.113554545 0.26004153 -0.17895307 0.102842204 0.09338947 0.13306022 0.014759375 0.17605694 -0.0022669302 -0.19171304 -0.050152104 -0.12095685 0.11249652 0.043812755 -0.24765807 -0.36820716 -0.0302113 0.058214188 -0.17630522 0.009111363 -0.10787044 0.08128733 -0.19220336 -0.10762995 -0.10197767 -0.22003633 0.016936531 -0.19316712 0.18389948 -0.01281283 -0.27616474 0.18152301 0.21054375 0.062443566 -0.074082226 -0.12734945 -0.05439902 0.1162112 0.11280334 0.052170746 0.27959904 0.05128783 -0.06527454 0.053858798 -0.21251458 -0.070866086 0.12816027 -0.20961408 -0.23299085 -0.10505218 -0.14949065 0.06433917 -0.26214296 -0.2441326 0.26076773 -0.0661012 -0.032454174 0.04470746 -0.022603352 -0.32637176 0.17129599 0.07484621 -0.012001981 -0.19145502 0.27291474 -0.29659912 -0.031557564 -0.28027427 0.03889497 0.024840005 0.1109952 0.047760792 -0.008602733 0.06520974 -0.02740009 -0.31158713 -0.017295169 -0.21351476 0.17286022 -0.08011075 0.16680153 0.09681366 -0.16048183 -0.08457058 -0.118213356 -0.17881735
2 -0.27056736 -0.1754577 -0.22062838 -0.015995428 -0.008377296 0.012146575 -0.14445539 0.22092742 -0.105101444 -0.14130417 0.026933467 -0.31683412 -0.026427891 0.05484283 0.34419203 -0.14225535 -0.33638853 -0.15413536 -0.09709572 -0.32867348 0.023482775 0.15959767 0.0071305614 -0.028250206 -0.31024632 -0.23171698 -0.075530596 0.16181022 -0.1335064 -0.06652391 -0.043322355 -0.09432349 0.2292249 -0.1070465 -0.10295073 -0.21259138 -0.01579077 0.14901157 0.17057958 0.21910691 -0.27588147 0.038670015 0.06768822 0.34505326 0.0014109493 -0.08072861 0.23891538 0.15841296 0.042523105 0.033490192 -0.061105575 0.048405938 0.20800908 0.12446551 -0.21196653 -0.010116524 0.010503767 -0.35137793 -0.12402272 0.16130243 -0.11924669 0.19157426 -0.1892219 0.21144463 -0.16552815 -0.12979837 -0.09620101 -0.07597751 0.1530419 -0.27382654 0.12327049 -0.13474405 -0.32338065 -0.057520036 0.08718624 -0.04373547 -0.20348059 -0.04175415 -0.32803 0.12252513 -0.04859025 -0.05965161 0.41524258 -0.03870692 0.03851582 0.1341777 -0.20394236 0.025041768 0.0033368676 -0.06635341 -0.2435296 -0.020992717 -0.19535145 0.04451686 -0.070577085 -0.25417337 0.10900193 -0.12660353 0.056066904 0.15035747 -0.062318932 -0.29742742 0.06618094 -0.092080005 -0.11163298 0.104418814 0.23392323 0.04230213 -0.03246792 -0.16302323 0.047731258 0.31051955 0.04129818 0.0967525 0.050599582 0.009027827 0.13828819 -0.31623957 -0.1763264 -0.21790242 -0.043501265 -0.08958383 -0.050669134 0.10856397 0.27215588 -0.051631767 -0.18831012 -0.14645316
3 -0.060917493 2.2862783E-4 -0.15885939 0.043254294 -0.19348457 0.17111184 0.09305609 0.10265616 0.085373685 -0.07377484 -0.054961246 -0.3127947 -0.067922786 0.042949963 0.032920793 0.009555276 -0.11419039 -0.05069056 -0.18434514 -0.12940556 -0.12986849 -0.06221852 -0.21320596 -0.2657764 0.007834531 -0.067910805 -0.12009984 0.060695164 0.2373 -0.1196579 0.0960866 0.07743266 0.03744525 -0.0125701 -0.17837839 -0.23786682 -0.018421829 0.06682975 0.0028561086 -0.010721177 -0.20678535 0.039059494 -0.22095232 0.068537794 -0.08793457 -0.04680065 0.044007763 0.09523765 -0.009907822 0.16924569 0.030663542 -0.16116484 0.06764815 -0.15469766 0.21089743 0.15057951 -0.16308267 -0.30342188 0.05239848 -0.02479637 -0.030710889 0.11485704 -0.08785942 -0.031114353 -0.31912577 -0.016994793 0.014901949 -0.22552018 0.05130812 -0.12410508 0.099763505 -0.015843473 -0.10768187 0.11066726 0.108601056 -0.1683558 0.09079331 -0.048128862 -0.10197533 0.19457604 0.07448406 -0.010213521 0.15760069 -0.04018669 0.037995737 -0.16110732 -0.10507763 -0.12627587 0.27259365 -0.12577103 -0.17458165 -0.13882072 -0.21533939 -0.001877089 -0.13852802 -0.4225584 0.044013903 0.033658028 -0.06813152 0.0082689095 0.008036334 -0.14272001 0.1315597 0.21389768 0.09699264 -0.039152108 0.09079087 -0.2387259 -0.14042152 -0.19774264 0.2020577 -0.05241401 0.10172732 -0.121053465 0.098463096 0.043388773 -0.041685604 -0.2677992 0.2608183 0.015549252 0.23379494 -0.13527746 -0.010334707 0.06290124 -0.23658304 0.015138411 -0.23006533 0.0015211366
33 -0.204235 0.1739508 -0.14898612 0.004810492 -0.23359355 0.109508455 -0.29720095 0.15204008 -0.06118948 -0.090873234 0.09555822 -0.18429157 -0.09058744 0.24782985 0.12161825 -0.06409278 -0.13639541 -0.11502069 0.19631875 -0.12169995 -0.2599486 0.14761919 0.07991969 0.2189964 -0.06599658 0.09531226 -0.12806424 0.27152178 -0.15586807 0.14367062 0.19676687 0.14165185 -0.15365312 -0.079776086 -0.1382174 0.0420993 -0.05895417 0.0051846546 -0.05592798 -0.07519489 -0.2899483 0.16388045 -0.18254565 0.053844094 0.028781848 -0.09240207 0.0801848 -0.08520408 0.13206019 0.1508472 -0.12658371 -0.06208091 0.10282356 -0.017497417 0.07116967 0.03564045 0.1693205 -0.036379587 0.057716317 -0.12877381 0.096634135 0.057986833 0.10725562 0.25073108 -0.18830444 0.123805024 0.16603363 0.041868974 -0.19917603 0.03450483 0.15238011 -0.21650732 -0.05578348 -0.06140698 0.087769285 -0.16311775 -0.093150385 -0.08953448 -0.12175454 0.36814266 -0.04089857 0.2623915 0.10703142 -0.073174015 0.1851986 -0.038385704 -0.028475503 -0.0046095634 0.31999663 -0.015922727 -0.1409044 0.25525877 -0.11109702 -0.08584465 0.25623983 -0.24645321 0.05350925 -0.124966115 -0.2754927 -0.13260296 -0.3058229 -0.3556671 0.11501838 0.28099364 -0.01709998 0.28587237 -0.067705736 -0.16088927 -0.1700007 0.12015601 0.28745326 0.28484747 0.14768375 -0.14638603 -0.0038602855 0.09991639 -0.0066019325 -0.08230639 -0.023009066 0.146894 -0.006283841 0.24142252 -0.009579376 -0.044305645 -0.110743605 0.103237994 -0.1251733 0.017972318
1 -0.119598255 -0.21032354 0.019981325 0.10225011 0.024714883 -0.11640916 0.06271321 0.062092096 -0.026217835 -0.14158763 0.04955307 -0.2934925 -0.074639045 0.111958414 0.29514718 0.092540085 -0.106566995 -0.19694963 -0.27273238 -0.24964748 0.0033604368 -0.02414884 0.18496104 -0.025559803 -0.319324 -0.13464051 -0.10017069 0.0781536 0.25502563 -0.0012639953 0.14392999 -0.0215366 0.102953844 0.07640958 -0.10739462 -0.08358283 0.16456775 0.056842167 0.1269655 0.2083286 -0.10065166 0.09415566 0.15191673 0.32178503 -0.1370983 0.10299691 0.13409252 0.2505854 0.0078401 0.025644017 -0.2407247 -0.044429086 -0.042132746 0.10271415 -0.03561034 0.05703864 -0.0530598 -0.2144145 -0.01109198 0.0240493 -0.078098245 0.007174934 -0.16135715 0.24372709 -4.213492E-5 -0.07999055 -0.19095705 -0.29301363 -0.032592595 -0.18935868 0.04183427 0.17720366 -0.13154152 0.10299017 0.14220925 0.12977268 0.032028645 -0.2984509 -0.062538534 -0.07091293 0.047484756 0.024257012 0.23022878 0.02829327 0.07884358 0.086015426 -0.2792228 -0.015033669 0.05049362 0.026051423 -0.13184655 -0.08976514 0.059823927 -0.0707071 -0.1484582 -0.15747485 0.20872636 0.04361133 -0.13856325 0.14661105 -0.031223325 -0.25574753 0.033358853 -0.03094969 -0.085356064 -0.11653849 0.26947415 -0.08943054 -0.05035507 -0.03829529 -0.055376623 -0.0390488 -0.0012574781 0.15374635 -0.08056891 0.15601878 -0.08692427 -0.12648298 -0.0042723157 -0.1253381 -0.08583994 -0.12854446 0.0616261 0.08882813 0.06920376 -0.082833156 -0.25547388 -0.10271174
34 -0.18866639 0.19924264 -0.16038452 -0.008623165 -0.21817599 0.11696823 -0.1870593 0.14519668 -0.07346125 0.0014332249 0.120455034 -0.15812467 -0.06366076 0.15106072 0.08695207 -0.15109698 -0.18679124 -0.049821906 0.10608076 -0.097459495 -0.24194925 0.06732418 -0.07315547 0.12508576 0.022729367 0.18889591 -0.108499795 0.23577791 -0.02568783 0.08754353 0.17509289 0.1198905 -0.06220182 -0.09180589 -0.13675566 -0.103421785 -0.12852848 0.02434973 -0.073405966 -0.0436375 -0.2831681 0.18826336 -0.20888895 0.07114118 0.05676652 -0.06305591 -0.06393674 -0.0043741222 0.16930155 0.19881791 -0.1173728 0.018169334 0.09138901 0.02942689 0.11011812 -0.034137003 0.18735586 -0.18997344 -0.038079575 -0.14991148 0.18009192 0.12378128 0.038874723 0.15933849 -0.1730244 0.1757001 0.16129994 -0.046101138 -0.14889877 -0.035158318 0.18798512 -0.16140988 -0.103937306 -0.072188 0.017959654 -0.15800336 -0.0025788501 0.0657261 -0.16728282 0.3370148 0.049558736 0.12555355 0.17877986 -0.15860194 0.21550362 -0.18626986 0.10750926 0.07008232 0.265814 -0.051047996 -0.15378845 0.1270887 -0.09642634 -0.089653626 0.16831039 -0.27045563 0.036968987 -0.07098076 -0.25394857 -0.12273403 -0.1403204 -0.25311095 0.10742375 0.21712422 0.10785542 0.16153526 0.008551503 -0.1268386 -0.24742912 0.035204448 0.25776884 0.17996691 0.1589313 -0.19141662 0.0698548 0.062359575 -0.06771058 -0.18353815 0.12163123 0.07184497 0.12579344 0.10367046 -0.10725962 0.019965177 -0.07373568 0.1028939 -0.13699728 0.052312396