34 128
12 0.52202773 0.07759448 -0.0869577 -0.16612336 0.10748155 -0.02758859 -0.04205261 -0.02669163 0.37605754 -0.05992142 -0.42419106 -0.012793007 0.0020189355 0.33604363 -0.33687526 0.5505037 0.106074244 -0.02350593 -0.4514325 0.060201086 -0.19058505 0.8045138 -0.17517251 -0.36281314 -0.119032316 0.36548373 0.17920864 0.024496874 0.0067774104 0.055214122 -0.50935984 0.01852659 0.46754837 0.5464006 -0.09747069 0.41146648 -0.14186591 0.10565293 0.35161787 0.43800068 -0.16740379 0.29442963 0.36396748 0.4506376 -0.04054121 -0.37402815 0.62607604 -0.5229081 0.6032877 0.041575324 -0.40551317 -0.23652226 0.34475386 -0.27493712 -0.17924933 -0.30499816 -0.2688053 -0.07773327 -0.60825646 0.03172864 -0.38526466 0.6941437 -0.10492295 0.16558993 0.29144892 2.0261976E-4 -0.2649346 0.6090888 -0.32931554 0.24264051 0.25417748 0.08760782 0.16175064 0.15625882 -0.066553645 0.056716796 -0.018723011 0.17502719 -0.24503712 0.18283209 0.066867016 0.117331676 -0.35889405 0.105632916 -0.43283084 0.66095287 0.13661468 0.38240978 -0.45641387 0.30983323 -0.48524824 -0.15577632 -0.1968127 0.47925425 -0.06331564 -0.13550383 0.28783673 -0.2533838 0.09682569 -0.3043474 -0.50820124 0.320695 -0.1155728 0.07654611 -0.5877063 -0.7586778 -0.3591327 0.0069870236 -0.074470885 -0.20123328 -0.323047 -0.37645963 0.2717956 0.067059405 0.31519574 0.52481633 -0.13891137 -0.24942239 -0.24184091 -0.19723019 -0.13086693 0.453393 0.04182951 0.23323652 -0.59656256 -0.120631374 -0.231899 0.57555014
22 0.5235984 0.076628 -0.08344567 -0.16442728 0.104859546 -0.02953874 -0.04295909 -0.02636511 0.37134522 -0.057383742 -0.4245421 -0.01268156 0.00594111 0.33711582 -0.33828914 0.54772604 0.10320723 -0.024131563 -0.45229295 0.059155572 -0.190479 0.8049733 -0.17899382 -0.35868764 -0.12317916 0.36800623 0.18102668 0.025936987 0.007540023 0.052858766 -0.5089558 0.017928936 0.46331427 0.5454494 -0.09740421 0.40793145 -0.142023 0.10159263 0.35659903 0.44411 -0.17078096 0.29079318 0.3681659 0.448677 -0.040329415 -0.3716397 0.62927085 -0.52415144 0.5995664 0.041561447 -0.40301153 -0.23442273 0.34046566 -0.28036642 -0.17632972 -0.30219817 -0.2685257 -0.07804932 -0.6116695 0.033752423 -0.38552877 0.69592285 -0.10075961 0.1653688 0.28843778 0.0014592877 -0.260593 0.6092449 -0.32363746 0.24049374 0.25675514 0.08732943 0.16286878 0.15919949 -0.06923646 0.06258549 -0.02253437 0.17746729 -0.23870964 0.18373278 0.06352531 0.12191164 -0.35847402 0.10893702 -0.43723422 0.66485655 0.13484342 0.3778539 -0.4556975 0.30483863 -0.4892394 -0.15639424 -0.19599825 0.48408306 -0.06650445 -0.14090177 0.2850162 -0.2578638 0.10024994 -0.3037718 -0.50590515 0.32405943 -0.115286715 0.077092804 -0.58356565 -0.7565744 -0.36486676 0.004884171 -0.07021645 -0.20034917 -0.32712734 -0.37003613 0.27441892 0.0651193 0.31379953 0.5217972 -0.1373087 -0.25135544 -0.2425995 -0.19523048 -0.12986536 0.4562615 0.041020215 0.23595478 -0.59939677 -0.120725356 -0.23204704 0.5744039
13 0.51804245 0.077125385 -0.08628757 -0.16285916 0.10217082 -0.029249642 -0.048789214 -0.028388102 0.37180835 -0.061131172 -0.427044 -0.01584366 0.0049569192 0.33379242 -0.33861798 0.5452357 0.1040977 -0.025587061 -0.44945067 0.0607313 -0.18797411 0.8060984 -0.18032382 -0.36022878 -0.12170809 0.36280578 0.17612879 0.027510045 0.007914522 0.05503547 -0.51193357 0.01673865 0.4659281 0.5476236 -0.10292588 0.41277817 -0.14034607 0.10374148 0.35125545 0.44105563 -0.16962916 0.29179478 0.36527768 0.44828683 -0.03725433 -0.3726097 0.6290497 -0.52172506 0.6046881 0.03582822 -0.40612003 -0.23839691 0.3432614 -0.28049687 -0.178691 -0.2996919 -0.26447198 -0.07478735 -0.61042005 0.03549777 -0.38286573 0.69144356 -0.10269506 0.16882019 0.28669333 -0.0019262345 -0.26470837 0.6134148 -0.326807 0.24098794 0.25607595 0.085276686 0.15819444 0.15701878 -0.06766278 0.05977268 -0.019678993 0.17975523 -0.23958686 0.18014121 0.06625042 0.12245293 -0.36269113 0.10996292 -0.43790817 0.6649677 0.13866723 0.3821172 -0.45438448 0.30490467 -0.48391134 -0.15848087 -0.19389257 0.4850506 -0.061619397 -0.14307493 0.2875899 -0.2573836 0.099775165 -0.30790493 -0.50705266 0.32136598 -0.11044688 0.07985393 -0.58165693 -0.755683 -0.36664596 0.0048101787 -0.070585445 -0.20168304 -0.32219502 -0.3765821 0.2715873 0.06642376 0.3165675 0.5241138 -0.13850269 -0.2544808 -0.24345505 -0.19129302 -0.13704002 0.45495367 0.04054281 0.23208433 -0.5975647 -0.120031446 -0.23311208 0.5736675
17 0.518824 0.07742129 -0.083194874 -0.16167666 0.10752027 -0.026034921 -0.04247232 -0.028340101 0.37732726 -0.056734852 -0.42457193 -0.0115065025 0.001085739 0.33529887 -0.33420604 0.55357385 0.10519348 -0.021028643 -0.45137218 0.062052537 -0.18851863 0.80104846 -0.17952281 -0.3606766 -0.12555964 0.3642783 0.17521338 0.027043572 0.007042845 0.056904957 -0.5150919 0.016381416 0.46359342 0.5468503 -0.101591915 0.4082264 -0.13618924 0.102630876 0.3516511 0.4425135 -0.16745387 0.28992635 0.36291036 0.4509655 -0.039254207 -0.37379405 0.6279085 -0.5258778 0.6010257 0.038661994 -0.40151408 -0.2392108 0.3374684 -0.27911767 -0.17571095 -0.3006314 -0.26664832 -0.07695292 -0.610466 0.03634158 -0.3847783 0.69160575 -0.100405976 0.1699051 0.28618166 0.0026946282 -0.26510078 0.61455053 -0.3246265 0.24684413 0.25767013 0.0857689 0.16129126 0.1604427 -0.073950805 0.062373888 -0.024172297 0.17789866 -0.243297 0.17905185 0.0659609 0.11890894 -0.36222652 0.11057217 -0.43696082 0.66744745 0.1423949 0.3822932 -0.45256057 0.3030215 -0.4861612 -0.1561571 -0.19466348 0.4801899 -0.06790286 -0.13801596 0.28827 -0.25546816 0.09729667 -0.30882856 -0.50379413 0.3235041 -0.1134668 0.07781432 -0.5839638 -0.75779957 -0.36304066 0.01043969 -0.07262486 -0.2015496 -0.32850447 -0.37372157 0.27492896 0.06648887 0.31252044 0.52193135 -0.14072378 -0.24952306 -0.24696578 -0.1970426 -0.13431662 0.45711434 0.043837216 0.23477845 -0.5950212 -0.12192491 -0.23329484 0.5724843
16 0.52395666 0.07733431 -0.08046906 -0.16654673 0.10763986 -0.029605627 -0.04571527 -0.029195363 0.37402022 -0.05928672 -0.42521027 -0.013539587 0.005800862 0.3336217 -0.33846056 0.55099094 0.10371127 -0.025606671 -0.45184857 0.059472587 -0.19379984 0.80559886 -0.17437959 -0.36155996 -0.12254465 0.36385635 0.18160707 0.025163792 0.00337391 0.056802433 -0.5121863 0.018812492 0.4666301 0.5490843 -0.096017435 0.40821716 -0.14015087 0.101902954 0.35345563 0.43737918 -0.16891365 0.29046705 0.36885858 0.44946197 -0.036995664 -0.37113053 0.6272544 -0.523063 0.6004913 0.03664039 -0.40140924 -0.23339531 0.33763817 -0.27611077 -0.1808706 -0.30173194 -0.27013946 -0.0802504 -0.611515 0.034894913 -0.38358903 0.6968738 -0.100650094 0.17303793 0.2880495 0.004497667 -0.26003483 0.6072875 -0.32628763 0.2408116 0.2582362 0.082123205 0.16214673 0.16007705 -0.073220715 0.064112596 -0.02269707 0.17808804 -0.24008207 0.18208359 0.07018411 0.12125549 -0.3636922 0.105319016 -0.4367181 0.66126657 0.14082752 0.38288718 -0.456254 0.30739897 -0.48752528 -0.15473638 -0.19299695 0.47941568 -0.065139346 -0.1413436 0.2831826 -0.2527653 0.101058096 -0.3057265 -0.50813085 0.32571274 -0.11675869 0.07577954 -0.5833861 -0.7581195 -0.36338052 0.010467067 -0.07398932 -0.20472784 -0.32729548 -0.3717953 0.27725607 0.061647713 0.31651372 0.5208047 -0.13781714 -0.25154552 -0.24697481 -0.19478822 -0.13407046 0.45843714 0.041008778 0.23517439 -0.59261775 -0.12487141 -0.2280785 0.5698308
21 0.5238484 0.07846383 -0.084850155 -0.16596648 0.09957571 -0.029820746 -0.047855407 -0.025112607 0.3734068 -0.062343303 -0.42470014 -0.016393507 0.004911283 0.32983038 -0.33471677 0.5475205 0.10204826 -0.025190022 -0.44812354 0.057669263 -0.19454235 0.8036387 -0.17767866 -0.36189133 -0.12178165 0.36768427 0.17767677 0.03151024 0.0067928727 0.057461377 -0.5117586 0.021856546 0.46580285 0.5508656 -0.10249598 0.40846637 -0.13837948 0.10609714 0.35351646 0.442398 -0.16943416 0.2943739 0.3643963 0.44369477 -0.04313903 -0.36874062 0.6303539 -0.5240393 0.6023589 0.041944306 -0.40483207 -0.23447965 0.34313294 -0.27642334 -0.17389299 -0.30563605 -0.2655756 -0.07944414 -0.6079753 0.031320203 -0.3824518 0.6959795 -0.1058671 0.1685964 0.2857387 0.0022113933 -0.26328266 0.60915595 -0.3226063 0.24374369 0.25287443 0.086709015 0.1619356 0.16207227 -0.072269045 0.057360698 -0.021745116 0.17418836 -0.24049996 0.17965463 0.06764929 0.12195984 -0.36368126 0.10437665 -0.43899944 0.66484284 0.1405082 0.38195655 -0.45259106 0.30519715 -0.48583877 -0.15959606 -0.19656108 0.482166 -0.06599668 -0.14082883 0.28495315 -0.25458822 0.09530335 -0.30880246 -0.5041647 0.32718167 -0.11028871 0.0797515 -0.58327395 -0.7597704 -0.36448783 0.009348184 -0.071976595 -0.20094422 -0.3241241 -0.3762071 0.27476656 0.06120426 0.31262547 0.52166706 -0.14334449 -0.25315887 -0.24371165 -0.19386475 -0.13495563 0.45761105 0.03783813 0.23765783 -0.5965261 -0.12174707 -0.2299712 0.5727842
18 0.5208261 0.07724192 -0.08354122 -0.16454002 0.101235956 -0.027692525 -0.045868676 -0.02381007 0.37169325 -0.059556223 -0.42452565 -0.0133313425 0.0055644987 0.33449787 -0.33694318 0.54605365 0.107313916 -0.023117164 -0.44825545 0.0626785 -0.18853202 0.80150914 -0.18019232 -0.35872537 -0.12277174 0.36192867 0.17619479 0.02966785 0.0042832056 0.05238877 -0.50812835 0.018175507 0.46902317 0.5516622 -0.097094804 0.41029963 -0.14230187 0.10784371 0.35536963 0.4411841 -0.16722696 0.29246926 0.3637952 0.44719735 -0.04139623 -0.37082714 0.63100505 -0.5230427 0.59983283 0.039813798 -0.40577018 -0.23784277 0.34280038 -0.2785361 -0.17478178 -0.29925966 -0.27103302 -0.08068644 -0.61163104 0.036019202 -0.38243034 0.6959076 -0.10349204 0.16748519 0.28775278 5.4430234E-4 -0.26274467 0.6134976 -0.3280402 0.24246275 0.2532551 0.081414424 0.16294879 0.16133226 -0.06966049 0.058571335 -0.021726917 0.17417724 -0.24525174 0.1767989 0.06955985 0.11631045 -0.36299866 0.10366508 -0.43324244 0.66377246 0.1410965 0.3762366 -0.4574978 0.3087505 -0.48498878 -0.15548721 -0.19005239 0.48295274 -0.06797433 -0.14312072 0.2824145 -0.25456813 0.09473633 -0.3077608 -0.50809205 0.32710335 -0.110997796 0.08284936 -0.5859006 -0.7587199 -0.36442453 0.011324838 -0.07090117 -0.20409723 -0.32937518 -0.37071735 0.27175313 0.06628432 0.31749132 0.526838 -0.13773794 -0.249296 -0.24169582 -0.1975981 -0.13093172 0.45343906 0.04251624 0.2359077 -0.59848475 -0.12437398 -0.23200408 0.57086277
23 0.5250715 0.08070755 -0.08695703 -0.16657248 0.103373826 -0.024135953 -0.046170704 -0.029896097 0.37018895 -0.05516827 -0.42700407 -0.014297607 0.0015548955 0.33226237 -0.3387592 0.5509841 0.107561395 -0.027962048 -0.45117265 0.05709839 -0.19015445 0.8011278 -0.18041195 -0.3604764 -0.12419651 0.36752805 0.17512982 0.031007685 0.0074528027 0.05735323 -0.5108765 0.016978534 0.4628149 0.54984516 -0.10092142 0.41291022 -0.1416034 0.103694156 0.35497603 0.44054508 -0.16979407 0.2912144 0.36808136 0.44564182 -0.043537304 -0.37358847 0.6293373 -0.52401114 0.60226 0.043245323 -0.40096098 -0.2387703 0.34290266 -0.277542 -0.17938036 -0.30270314 -0.2646573 -0.07571701 -0.6085372 0.036284875 -0.38699836 0.6966122 -0.10269302 0.17130774 0.28586662 -0.0027397994 -0.26352262 0.61253273 -0.32295898 0.24273227 0.25682113 0.08528006 0.1599572 0.15629783 -0.07178623 0.056813937 -0.018327229 0.17567219 -0.24063256 0.18282221 0.0630284 0.11978439 -0.35990453 0.10525639 -0.4343463 0.6626507 0.14066046 0.37859443 -0.45287493 0.30839577 -0.486711 -0.15986289 -0.1921363 0.48398042 -0.065580666 -0.13695134 0.2852253 -0.2577345 0.10136208 -0.30900827 -0.50556415 0.324723 -0.114788614 0.08226839 -0.5814915 -0.75467134 -0.36132586 0.0056742993 -0.067785524 -0.20418775 -0.32855588 -0.37518924 0.27119666 0.060647268 0.31706813 0.52131647 -0.14040299 -0.2558052 -0.24682912 -0.19189851 -0.1343397 0.45610273 0.036415376 0.23644967 -0.5974428 -0.12116638 -0.23126613 0.56911206
19 0.52240026 0.078721024 -0.08591471 -0.1662454 0.10193975 -0.024825646 -0.043569833 -0.02972931 0.37263867 -0.061579578 -0.4277663 -0.011280874 0.0037905155 0.33270478 -0.3385838 0.547166 0.104048155 -0.025684094 -0.45343593 0.062919125 -0.19475508 0.8047484 -0.18052416 -0.3612531 -0.12194888 0.3671647 0.18022288 0.02506807 0.0011449713 0.05351404 -0.5115722 0.02155076 0.46892107 0.5471617 -0.10271206 0.41289258 -0.1371464 0.10265246 0.3556303 0.43662268 -0.16940975 0.2925755 0.36731938 0.44620752 -0.04176835 -0.3699456 0.6287633 -0.52542126 0.60362375 0.03747954 -0.3992668 -0.23731154 0.3439037 -0.2794571 -0.18077381 -0.30650067 -0.26931486 -0.07699008 -0.6092094 0.034980968 -0.38737392 0.6903684 -0.100463696 0.16860077 0.28885177 0.0025199074 -0.261838 0.6073526 -0.32363003 0.24623553 0.2574178 0.08525085 0.15629558 0.15921894 -0.07308883 0.057677094 -0.022138854 0.18134393 -0.24044217 0.1772898 0.069885604 0.11968063 -0.35760993 0.10869836 -0.43132013 0.6598797 0.13827723 0.38265154 -0.45434836 0.30853167 -0.48813534 -0.15580365 -0.19583942 0.47947985 -0.06304082 -0.14136316 0.28547505 -0.25089708 0.09673047 -0.30512604 -0.5038505 0.3266533 -0.114512764 0.08389723 -0.58800274 -0.7599016 -0.3643517 0.0055468814 -0.07229726 -0.20518304 -0.32696515 -0.37057588 0.27681938 0.06275063 0.31244585 0.5214595 -0.14372872 -0.25501505 -0.24218477 -0.19716099 -0.13057037 0.4594331 0.04194262 0.2371508 -0.5936395 -0.12462345 -0.22927624 0.5688896
15 0.51926184 0.07638092 -0.0868802 -0.1674489 0.10233305 -0.024344403 -0.04728809 -0.022921422 0.37521148 -0.057802726 -0.42736706 -0.018200409 0.0070606014 0.3345674 -0.33571425 0.55036724 0.10150865 -0.026690003 -0.44976676 0.062388342 -0.18855423 0.800172 -0.17525768 -0.36492655 -0.12147105 0.36645544 0.17705166 0.028575685 0.0014428012 0.055293057 -0.51068056 0.018929526 0.4649961 0.5460196 -0.10165078 0.411887 -0.14324602 0.099712715 0.35166624 0.44217888 -0.1703348 0.28987676 0.36450687 0.4472532 -0.043287154 -0.37293038 0.6281393 -0.5218093 0.6041137 0.039536137 -0.4061031 -0.23739247 0.34263745 -0.27652156 -0.17752133 -0.3028183 -0.27014518 -0.08061196 -0.61491024 0.029547866 -0.38184705 0.6933685 -0.09987318 0.16609448 0.28955242 0.0010354741 -0.26256856 0.6118998 -0.32769808 0.2413054 0.25634366 0.08318301 0.15733717 0.15628934 -0.06639061 0.06148561 -0.022597155 0.18003714 -0.23923072 0.17812136 0.06323348 0.12015245 -0.36308807 0.110047475 -0.43451446 0.66371065 0.14016147 0.37737918 -0.45614532 0.30719942 -0.48741364 -0.15996693 -0.19128163 0.47948396 -0.06785253 -0.13710211 0.2865022 -0.25015503 0.097091295 -0.30777335 -0.5082681 0.32320336 -0.11106516 0.07999561 -0.5884274 -0.7548747 -0.36468753 0.011695867 -0.070862435 -0.2055188 -0.32348683 -0.3701771 0.2716376 0.06178072 0.31824917 0.5237316 -0.13779573 -0.25136575 -0.24650136 -0.1938238 -0.13117446 0.4566362 0.038393788 0.23236723 -0.5990566 -0.12598631 -0.23275718 0.57449627
27 0.521056 0.07423118 -0.08554597 -0.16770461 0.10354304 -0.022848928 -0.046835877 -0.02747319 0.3777741 -0.058533203 -0.42306527 -0.019090956 0.0073278155 0.33267707 -0.33356035 0.5497194 0.10267949 -0.02470402 -0.45103812 0.05623052 -0.1922788 0.80152047 -0.18059844 -0.36273515 -0.12104896 0.3636356 0.17674106 0.024029523 0.0012734552 0.053201064 -0.5088148 0.023321329 0.46904162 0.54712796 -0.09768347 0.4118472 -0.13898954 0.10227053 0.35288793 0.43787596 -0.16628729 0.29532987 0.3706844 0.44836476 -0.044720855 -0.37144008 0.63129944 -0.5254376 0.59831005 0.041809395 -0.40583786 -0.23693022 0.34147382 -0.28036785 -0.1807014 -0.30049977 -0.270599 -0.079253234 -0.615549 0.032185156 -0.38771954 0.698106 -0.10447982 0.16817051 0.28739765 -0.002657527 -0.25863114 0.60687643 -0.32317343 0.24338983 0.25670865 0.086525775 0.16150315 0.15939502 -0.06870275 0.057089973 -0.023942815 0.17978749 -0.24209805 0.17729163 0.062113848 0.12332617 -0.3644059 0.10594814 -0.43499842 0.6611176 0.1376017 0.37729463 -0.45413965 0.3062253 -0.48651353 -0.1579706 -0.19199651 0.48312876 -0.06918212 -0.14316452 0.2859431 -0.25302237 0.094856344 -0.3101665 -0.50912523 0.32649848 -0.11749927 0.082173586 -0.5842092 -0.7549357 -0.35876414 0.0068161213 -0.0712701 -0.2003331 -0.32993665 -0.37200207 0.2752126 0.066446826 0.31738645 0.5239314 -0.13740087 -0.2534735 -0.24591817 -0.19252564 -0.1325174 0.45475528 0.043491833 0.23669812 -0.5925098 -0.12502813 -0.23273121 0.56849027
10 0.5196889 0.07458924 -0.084542744 -0.16476399 0.10257041 -0.025499862 -0.04142551 -0.03016746 0.3708866 -0.058716495 -0.42586476 -0.014911827 5.2653876E-4 0.3367566 -0.33654055 0.5505766 0.106212646 -0.020611187 -0.44762516 0.06391285 -0.18838441 0.80503017 -0.17594306 -0.36183816 -0.12495758 0.36412925 0.17855272 0.02825858 0.0029613255 0.05450634 -0.51203614 0.015875522 0.4679658 0.5515963 -0.10130893 0.41262537 -0.14333193 0.10695192 0.3526685 0.43764725 -0.17010976 0.28833196 0.37072006 0.44544595 -0.03913157 -0.36812088 0.63052243 -0.52040863 0.5978277 0.03785661 -0.40166774 -0.23347318 0.34088674 -0.27998 -0.18026388 -0.30618152 -0.26999483 -0.0784226 -0.6145586 0.03487942 -0.38056198 0.695042 -0.10238794 0.16851173 0.2889447 -0.001757735 -0.2611346 0.61138415 -0.3237451 0.2436077 0.25799277 0.08689164 0.15586886 0.15672085 -0.07363747 0.05852304 -0.019262085 0.17701867 -0.24251015 0.18277012 0.06321756 0.116552606 -0.3629582 0.10687538 -0.4344107 0.6606944 0.13771087 0.37935188 -0.45415384 0.30836505 -0.48304665 -0.15661113 -0.19116536 0.48297867 -0.06427153 -0.13750288 0.28317147 -0.25460324 0.10053601 -0.30914304 -0.5058733 0.31993312 -0.111609764 0.07660422 -0.5845885 -0.7610882 -0.36350635 0.005189607 -0.070820935 -0.20280933 -0.32877094 -0.37315398 0.2719586 0.059988055 0.31410256 0.52499336 -0.14265892 -0.24869318 -0.24804898 -0.19716983 -0.13367647 0.4560197 0.0404956 0.23589756 -0.5949416 -0.1267289 -0.2341103 0.5758434
5 0.52122426 0.074967325 -0.08216946 -0.16590635 0.1031345 -0.024258377 -0.04892727 -0.02679397 0.3763503 -0.05847118 -0.42276636 -0.0117808925 0.0063066147 0.33637726 -0.33498985 0.54711854 0.10587013 -0.027158722 -0.44983158 0.06055815 -0.19291139 0.80401284 -0.1760943 -0.36240593 -0.11862334 0.364662 0.18182293 0.029467374 0.003962848 0.0565194 -0.51413363 0.022245891 0.46716663 0.545185 -0.10116194 0.406967 -0.14328352 0.105282985 0.35387203 0.44155863 -0.16910148 0.2958807 0.36430463 0.44919255 -0.043874633 -0.3705509 0.6267498 -0.5270706 0.6013233 0.03958716 -0.40049633 -0.23639573 0.33811054 -0.27830535 -0.18035543 -0.3035461 -0.26575884 -0.079088956 -0.60993576 0.030949363 -0.3848979 0.6954292 -0.10457215 0.17219809 0.29253533 0.0017814364 -0.262982 0.60974133 -0.32789773 0.24555086 0.2568405 0.081826985 0.15644734 0.1568724 -0.06735127 0.05830157 -0.01835424 0.1801872 -0.24240227 0.18109077 0.06486529 0.12165632 -0.36218393 0.11107493 -0.43309474 0.66273767 0.1394303 0.37802708 -0.45355722 0.30708474 -0.48672396 -0.15939975 -0.1941853 0.47898507 -0.06455434 -0.14142475 0.2839934 -0.25763357 0.09527934 -0.30700788 -0.50673646 0.32062823 -0.11642 0.0833685 -0.5849094 -0.75584865 -0.36099023 0.009979895 -0.07150391 -0.2026395 -0.3258955 -0.37277952 0.27746844 0.062167987 0.31180513 0.5221017 -0.13931464 -0.25270954 -0.24564332 -0.19608912 -0.1332309 0.45646054 0.037210215 0.23793727 -0.6002733 -0.123228565 -0.23231025 0.57318723
26 0.5219783 0.08061719 -0.08542429 -0.16814512 0.105030745 -0.029950688 -0.0496955 -0.028144708 0.37384093 -0.058290448 -0.42852363 -0.013752629 0.0017634188 0.3340596 -0.33271778 0.5509413 0.10182872 -0.026697796 -0.4514026 0.056805186 -0.1926222 0.80288976 -0.17739242 -0.35836285 -0.12175988 0.3662122 0.18153563 0.028232876 0.007841597 0.055201232 -0.51418173 0.023429358 0.47031766 0.5500542 -0.09648767 0.4123017 -0.13713008 0.104982175 0.35536972 0.43894044 -0.16476005 0.29055482 0.36738753 0.45103666 -0.04167594 -0.36792988 0.63072526 -0.5264204 0.6015933 0.036423244 -0.39918268 -0.23484011 0.33813432 -0.28015313 -0.18037565 -0.3027087 -0.2687141 -0.07569284 -0.6134668 0.029669842 -0.3849675 0.68996114 -0.10004315 0.16646472 0.28842738 0.0037789617 -0.2640177 0.6137387 -0.32813504 0.24138145 0.25222534 0.08526477 0.16228181 0.15511046 -0.0735632 0.05865659 -0.024096021 0.17460865 -0.24200901 0.18105854 0.07010595 0.12227266 -0.3641803 0.10608885 -0.43332615 0.6656494 0.14176275 0.38070253 -0.4585716 0.30708408 -0.490177 -0.15733807 -0.1909359 0.48516926 -0.06383197 -0.13738659 0.2841303 -0.25290307 0.09830517 -0.3046523 -0.5024771 0.3203067 -0.11608609 0.07824874 -0.58164895 -0.75646657 -0.3605686 0.006309911 -0.06715717 -0.19776979 -0.3282587 -0.37310693 0.2703792 0.06312195 0.31280652 0.5253917 -0.1373439 -0.25019878 -0.24220796 -0.19259362 -0.13188767 0.46134025 0.040074803 0.23261084 -0.5913333 -0.12513411 -0.23134966 0.5716764
25 0.52064085 0.074797615 -0.086840525 -0.16644587 0.10392145 -0.028348427 -0.045710746 -0.028709263 0.37624177 -0.058093708 -0.424598 -0.01936027 0.003474772 0.33432367 -0.333827 0.5474174 0.107578434 -0.024710879 -0.4550122 0.06168731 -0.19369192 0.8034053 -0.17720348 -0.35937247 -0.1243637 0.36178726 0.17936835 0.030514276 0.0014247501 0.05916195 -0.5123528 0.018305803 0.46348453 0.55068636 -0.10122466 0.4145455 -0.14138943 0.10471242 0.35587743 0.4410076 -0.17113619 0.292339 0.36929244 0.44544175 -0.044380646 -0.37227508 0.6300983 -0.52498555 0.59870815 0.037469506 -0.4051699 -0.23119076 0.33787504 -0.28012416 -0.17825598 -0.30318907 -0.2670808 -0.07588608 -0.61485493 0.031965602 -0.38264847 0.69206387 -0.10055346 0.17354688 0.29011676 -4.869071E-4 -0.2610074 0.61109644 -0.32545182 0.24338832 0.25093585 0.08220598 0.16246426 0.16152257 -0.070582554 0.05960723 -0.020881692 0.17889956 -0.24303332 0.17892382 0.06531629 0.12264998 -0.36281365 0.10421003 -0.43273735 0.66253334 0.13728851 0.37855655 -0.45462632 0.30307412 -0.48982757 -0.15631784 -0.19678554 0.48128942 -0.06526106 -0.14002526 0.28619695 -0.25139552 0.095097564 -0.30900368 -0.50693893 0.32421577 -0.11560435 0.08201778 -0.5853382 -0.75488937 -0.36534828 0.0056427685 -0.07414486 -0.2042056 -0.3294522 -0.3720644 0.27426067 0.06053198 0.31509566 0.52143455 -0.13857716 -0.24928099 -0.24410744 -0.19613422 -0.13497537 0.4551036 0.04363936 0.23313268 -0.5950833 -0.11894959 -0.23146512 0.57298714
20 0.52300066 0.07502735 -0.0836422 -0.16568267 0.10668729 -0.027268672 -0.041481104 -0.024526238 0.37332204 -0.057538044 -0.4215676 -0.011295343 0.0068431953 0.33478293 -0.33492172 0.543783 0.10771311 -0.020745294 -0.44973427 0.061935917 -0.1948492 0.8035931 -0.18101494 -0.3646192 -0.1216708 0.36664018 0.17729288 0.026459163 0.0061317496 0.05286316 -0.51375604 0.01868844 0.4654333 0.54905355 -0.10103876 0.40714762 -0.13613622 0.10201302 0.35144702 0.44018438 -0.17142624 0.29112458 0.36547354 0.44788003 -0.040126935 -0.3714653 0.63230234 -0.5235492 0.6024699 0.036530584 -0.40348288 -0.22984894 0.34368825 -0.28070977 -0.17688128 -0.30384856 -0.26926872 -0.08094352 -0.61378264 0.03050046 -0.38310647 0.6895936 -0.10300534 0.17185357 0.29343656 0.003822406 -0.26061848 0.61325043 -0.32754716 0.24479721 0.2504923 0.08047456 0.15611255 0.16233084 -0.07167623 0.06305581 -0.01799173 0.17982534 -0.24434358 0.1825364 0.06501622 0.116911784 -0.35896584 0.101778105 -0.4346446 0.660347 0.13853881 0.38129744 -0.455109 0.30781445 -0.48828226 -0.15366568 -0.19422285 0.48175982 -0.062769465 -0.14312842 0.28475377 -0.25512168 0.09979972 -0.3041651 -0.506438 0.3257374 -0.11423186 0.079662316 -0.58693343 -0.7582705 -0.36440375 0.005159823 -0.07180642 -0.20474078 -0.32448956 -0.3727276 0.27724516 0.06134372 0.31079 0.52244204 -0.13937852 -0.25199848 -0.245862 -0.19182989 -0.1340402 0.45818025 0.039244983 0.2332544 -0.5963692 -0.122414455 -0.23334141 0.57171226
29 0.5204067 0.07594559 -0.085988894 -0.1667107 0.10670331 -0.028539347 -0.0485192 -0.026019251 0.37489632 -0.05497099 -0.42380333 -0.01411423 0.006991609 0.33213907 -0.3376333 0.5518412 0.10330004 -0.023929814 -0.45358723 0.061783224 -0.19146542 0.8052378 -0.1802256 -0.36234945 -0.11965538 0.36260012 0.17984809 0.030331178 0.0051229224 0.057831563 -0.5121615 0.02218709 0.46416545 0.5447996 -0.09587847 0.41028497 -0.14027245 0.104678944 0.3529728 0.43745017 -0.16688362 0.2924003 0.370026 0.4507642 -0.040292546 -0.37167627 0.6296054 -0.5245062 0.6026298 0.03652311 -0.40214297 -0.23389694 0.3414239 -0.27582055 -0.1798206 -0.3043279 -0.2656046 -0.07462422 -0.6121028 0.03453347 -0.38493782 0.6960358 -0.10498132 0.17156214 0.28920755 0.0015518898 -0.26336837 0.61393243 -0.32677665 0.24736334 0.25792077 0.08389826 0.16124418 0.15561597 -0.072080135 0.06151941 -0.018339556 0.17774586 -0.24350892 0.18265481 0.06830479 0.11678572 -0.36259294 0.1075938 -0.43131298 0.66517764 0.13870093 0.375616 -0.45805147 0.30425775 -0.4867159 -0.16109544 -0.18997887 0.48047176 -0.062221233 -0.14148894 0.28806806 -0.25156912 0.096433796 -0.30378747 -0.50253713 0.32651985 -0.11576548 0.0833446 -0.5815727 -0.7591847 -0.36337173 0.009380591 -0.06947402 -0.20263278 -0.32314944 -0.37052047 0.27330065 0.06524201 0.3137288 0.5234767 -0.13864484 -0.25395837 -0.2445886 -0.1912441 -0.13315384 0.456934 0.036068596 0.23460531 -0.5929467 -0.12507515 -0.23115586 0.5710971
11 0.5252359 0.080333225 -0.08459232 -0.1637893 0.10280726 -0.027108138 -0.043515753 -0.03044319 0.3744867 -0.055507667 -0.42769876 -0.015917337 0.0054707685 0.3356575 -0.33257264 0.54803604 0.10736438 -0.022545494 -0.45411268 0.058259968 -0.19103654 0.8025662 -0.17569527 -0.35931328 -0.11989023 0.36529317 0.17469783 0.026378483 0.005545035 0.05579907 -0.51198417 0.020075778 0.46217802 0.5464139 -0.10291277 0.40936768 -0.13739997 0.105364986 0.35303375 0.4374948 -0.17105912 0.29304755 0.3681732 0.44709823 -0.042199332 -0.3723789 0.6265438 -0.5221038 0.6049783 0.036813583 -0.404589 -0.23264694 0.34154776 -0.27637666 -0.18023393 -0.30419245 -0.2664547 -0.07746695 -0.610122 0.032981765 -0.38673538 0.69677025 -0.10086981 0.17206907 0.28608343 -0.0020067361 -0.25946358 0.6142081 -0.3269483 0.2419181 0.25668368 0.08648171 0.15983641 0.15828153 -0.06896813 0.060062274 -0.02489207 0.1779657 -0.23780185 0.17918906 0.06258631 0.11666487 -0.36494714 0.10692147 -0.43733475 0.66226023 0.14000928 0.3756931 -0.45788437 0.30997354 -0.48731565 -0.15837698 -0.19326432 0.47955993 -0.065067604 -0.13833052 0.2889621 -0.25691617 0.098326094 -0.30907577 -0.5061622 0.32415882 -0.11706859 0.080472425 -0.582331 -0.7556197 -0.36101145 0.0059609646 -0.06847353 -0.2017119 -0.32468295 -0.37548354 0.27441815 0.06702406 0.31355274 0.524398 -0.13863267 -0.25230786 -0.24803568 -0.19605069 -0.13242258 0.45397666 0.039483886 0.23147656 -0.5957953 -0.124902464 -0.23494686 0.57376087
31 0.5209311 0.079739384 -0.08514817 -0.16743198 0.10502953 -0.027459674 -0.042947937 -0.027128236 0.376642 -0.06246861 -0.4221659 -0.015026832 0.0013123713 0.32996455 -0.33377486 0.54873663 0.10352403 -0.024402494 -0.4482332 0.058343317 -0.19259839 0.8013458 -0.17486268 -0.35887137 -0.12498837 0.3639301 0.17600043 0.02740952 0.00740428 0.058392674 -0.5113026 0.020455936 0.463737 0.5462364 -0.096590705 0.4092262 -0.1412681 0.10062473 0.35277292 0.44286504 -0.1725107 0.29120955 0.36907244 0.44807696 -0.043427218 -0.37219584 0.6332705 -0.5261497 0.6032987 0.037914768 -0.40611294 -0.23355506 0.33834216 -0.27746713 -0.17810065 -0.30596685 -0.26947474 -0.0748486 -0.61141825 0.0314734 -0.38772222 0.69595164 -0.099837296 0.1679839 0.2920553 -0.0018984628 -0.26383194 0.6118713 -0.32331735 0.24433109 0.25837266 0.08252781 0.15969788 0.15898773 -0.06711702 0.062905125 -0.023559596 0.17646022 -0.2427435 0.18165307 0.06300047 0.11707472 -0.3631145 0.10698256 -0.43578884 0.6620156 0.13854074 0.37748444 -0.45318654 0.30782846 -0.48760545 -0.15644154 -0.19373967 0.480132 -0.06334 -0.13640663 0.28174657 -0.25014716 0.10181221 -0.30306324 -0.5045088 0.32746252 -0.11272356 0.08225972 -0.58547413 -0.7596571 -0.3619792 0.008413446 -0.07112418 -0.20347446 -0.32427928 -0.37173906 0.27399033 0.06625633 0.3121659 0.52714616 -0.14133336 -0.2483544 -0.24289082 -0.19418758 -0.13062663 0.4572042 0.039591014 0.23743476 -0.6003699 -0.12305855 -0.22971275 0.57209545
9 0.5242153 0.078779146 -0.087373346 -0.16419554 0.10022572 -0.02420126 -0.044787608 -0.02521049 0.370137 -0.059565537 -0.42502993 -0.015165861 0.0019949602 0.3327698 -0.33432904 0.550237 0.106585845 -0.020986347 -0.44723567 0.0634292 -0.19420372 0.8031136 -0.17696439 -0.35925364 -0.1192579 0.36774918 0.17653976 0.02768721 0.0066737407 0.058668062 -0.51175606 0.02320115 0.4681876 0.5508014 -0.09786943 0.41524526 -0.13662493 0.10079438 0.35365054 0.4431443 -0.1697226 0.29230863 0.36369666 0.4515824 -0.038761135 -0.36777478 0.62713337 -0.52423537 0.6021387 0.03761903 -0.40302896 -0.2383762 0.34048116 -0.2748756 -0.17686598 -0.30086738 -0.27053988 -0.081539266 -0.614546 0.03437691 -0.38492215 0.69658893 -0.105754025 0.17246743 0.28645712 0.004373889 -0.26084548 0.60941714 -0.32526356 0.24222147 0.25760454 0.08283766 0.15653022 0.15860927 -0.07068973 0.059285976 -0.024087999 0.17434692 -0.24412729 0.18275832 0.069241345 0.116397895 -0.36029434 0.10864438 -0.43386143 0.6613378 0.13612449 0.378819 -0.45661235 0.3077805 -0.4850004 -0.16066192 -0.19487363 0.48115423 -0.064777106 -0.14011303 0.28599295 -0.25144473 0.100840636 -0.30900368 -0.50826365 0.3243108 -0.11372711 0.07549462 -0.5825747 -0.7557659 -0.35983247 0.011280323 -0.069066375 -0.19866271 -0.3303827 -0.37342617 0.2734183 0.061436243 0.31485307 0.5229618 -0.14450806 -0.25495222 -0.24512205 -0.19196753 -0.13378118 0.45443845 0.037624296 0.23203905 -0.59531844 -0.12420389 -0.23439507 0.57539165
7 0.5197869 0.07942275 -0.08506108 -0.16852464 0.10566066 -0.030196674 -0.04903012 -0.02977102 0.3728849 -0.06106728 -0.4251377 -0.017005969 0.007925514 0.3346558 -0.33335605 0.5514928 0.108290665 -0.024199963 -0.45125052 0.06285487 -0.18983279 0.8013367 -0.17923395 -0.36436054 -0.12492842 0.36577287 0.17828222 0.030895973 0.007818811 0.05650462 -0.5077809 0.018100899 0.4626802 0.5442145 -0.09894386 0.4148903 -0.13635384 0.106597275 0.35213387 0.44350776 -0.17172356 0.29412198 0.36531973 0.45129383 -0.039841972 -0.3669009 0.62621504 -0.5220529 0.59935796 0.040253848 -0.40464175 -0.23352464 0.34003696 -0.27938417 -0.1794243 -0.3061656 -0.26978964 -0.08111313 -0.613332 0.035452373 -0.38501596 0.69498974 -0.10679423 0.16678338 0.29255068 0.0026271562 -0.260011 0.61418515 -0.32736596 0.23973028 0.2546946 0.08331427 0.1574411 0.1601744 -0.07134585 0.064342126 -0.021456724 0.17569993 -0.24494953 0.1786556 0.06329996 0.11832259 -0.3604742 0.10875827 -0.43716753 0.66511935 0.14026415 0.37831655 -0.45585614 0.3049375 -0.48299733 -0.15474492 -0.19029912 0.48301288 -0.06428641 -0.1398041 0.28488708 -0.25389874 0.10071603 -0.3069284 -0.5028987 0.32041514 -0.11686834 0.08265968 -0.5849152 -0.7573118 -0.3653606 0.0075236144 -0.06704612 -0.2034019 -0.32243958 -0.37188733 0.2765122 0.06397701 0.31291136 0.525095 -0.14236906 -0.24974507 -0.24477397 -0.19460182 -0.13593678 0.45963842 0.03845269 0.23524457 -0.59726775 -0.11969443 -0.2326181 0.57333446
6 0.52405906 0.08196333 -0.08348177 -0.16491742 0.10586598 -0.026501454 -0.048332233 -0.026273781 0.37306446 -0.057195865 -0.4222455 -0.012279006 0.004439193 0.33535638 -0.3371665 0.55378807 0.10322351 -0.026164334 -0.45117244 0.063173726 -0.1904591 0.8047765 -0.17524834 -0.36303115 -0.12205255 0.3663717 0.1778196 0.02779951 0.006908661 0.057343677 -0.5140696 0.018761646 0.46517003 0.5505224 -0.09707895 0.40772063 -0.13660316 0.10567424 0.35228077 0.44154567 -0.16775353 0.29103434 0.36392298 0.4510773 -0.039396513 -0.36960748 0.62883615 -0.5218669 0.6032773 0.03653549 -0.39914516 -0.23470296 0.34457448 -0.28015473 -0.17910542 -0.3047827 -0.2659793 -0.07440902 -0.6142218 0.028879553 -0.3815026 0.6947337 -0.106514506 0.16972202 0.2916407 0.0041848086 -0.2595677 0.61009425 -0.32534483 0.24143496 0.25197437 0.082586676 0.16319695 0.16088994 -0.065872096 0.06121303 -0.019275317 0.17380108 -0.23792756 0.18406978 0.06755699 0.118717946 -0.3604656 0.111814305 -0.4383942 0.66588694 0.13502352 0.38121837 -0.45174256 0.30888095 -0.4835584 -0.15774232 -0.19595818 0.48108315 -0.064802706 -0.13628536 0.28503275 -0.25279114 0.100019895 -0.3088669 -0.5037765 0.32473114 -0.11048055 0.075974636 -0.5843812 -0.76021236 -0.3586735 0.010393863 -0.0687356 -0.20188124 -0.32622907 -0.37321705 0.2777277 0.06341196 0.31114736 0.5211267 -0.14183818 -0.2520689 -0.24222602 -0.19115807 -0.12994975 0.4573706 0.04140378 0.23066112 -0.5936792 -0.1195046 -0.23423113 0.5756576
8 0.5207295 0.08265948 -0.080593616 -0.16299973 0.102008566 -0.02374007 -0.045813743 -0.027061446 0.37451383 -0.060470443 -0.42274886 -0.018927865 0.0038924115 0.3341614 -0.3378665 0.5509276 0.10865414 -0.024734208 -0.44776672 0.06205387 -0.19251181 0.80425227 -0.17823301 -0.3658584 -0.121504806 0.36574346 0.18105638 0.028486159 0.0054418454 0.05596667 -0.5096502 0.016114663 0.46622273 0.5443499 -0.09696246 0.40723428 -0.13728294 0.10537005 0.3565648 0.44009322 -0.16910137 0.29030192 0.36492962 0.4483907 -0.039976053 -0.37318188 0.6331954 -0.5214484 0.6034706 0.041659456 -0.39969355 -0.23517826 0.34420407 -0.27914733 -0.17464475 -0.30154625 -0.27084717 -0.07602465 -0.6109131 0.03024809 -0.3873371 0.6967134 -0.10446579 0.16833389 0.28989866 -3.056633E-4 -0.25913334 0.61370903 -0.32505947 0.24055469 0.25524706 0.084321454 0.15991586 0.16085729 -0.066616364 0.06285415 -0.022407398 0.17391807 -0.24029581 0.18016993 0.065379634 0.121280886 -0.35848585 0.110393435 -0.4348486 0.6629577 0.14063218 0.3783385 -0.45443153 0.303021 -0.48432106 -0.15623425 -0.19018914 0.479083 -0.06312744 -0.13985889 0.28316566 -0.25758728 0.0997575 -0.302412 -0.5097979 0.32179877 -0.113546945 0.082883954 -0.58794355 -0.7588337 -0.36125317 0.006674519 -0.07115297 -0.19822198 -0.32534757 -0.37324893 0.27530745 0.06574899 0.31344554 0.5266373 -0.14060616 -0.25293243 -0.2429908 -0.19657801 -0.13265781 0.4562161 0.03933584 0.23050487 -0.597233 -0.122523524 -0.2324378 0.57388514
28 0.5198997 0.07470411 -0.0800244 -0.16251874 0.10573712 -0.030218808 -0.047264956 -0.02912158 0.37769374 -0.05982678 -0.42630705 -0.015227063 0.0026766546 0.33230674 -0.33883718 0.5529063 0.10089774 -0.022559341 -0.44842678 0.058935717 -0.19032407 0.8019683 -0.17931536 -0.3589201 -0.12168011 0.36306736 0.17618456 0.026411526 0.005177469 0.05448265 -0.51091164 0.023042416 0.46628243 0.5494285 -0.09672832 0.40933883 -0.13654134 0.10612082 0.34966254 0.44243392 -0.16739912 0.29299733 0.36759332 0.45018557 -0.038474556 -0.36673462 0.62965685 -0.52283734 0.60116947 0.04004689 -0.4034325 -0.23558684 0.33762893 -0.27702573 -0.17585252 -0.3060694 -0.26545835 -0.07590013 -0.6076584 0.033177275 -0.38514188 0.69630295 -0.10762692 0.16854078 0.291337 0.004084409 -0.26101628 0.61131036 -0.32897273 0.2438377 0.25616878 0.08554086 0.15811008 0.15703985 -0.070841245 0.058293153 -0.021457518 0.17601195 -0.24048631 0.17840299 0.064092316 0.1213877 -0.35914594 0.10395027 -0.43557602 0.6630282 0.14213462 0.3799286 -0.4563745 0.30764955 -0.48693705 -0.15741234 -0.19477399 0.48035288 -0.06654134 -0.13653937 0.2854751 -0.25567004 0.094885595 -0.30793157 -0.5077815 0.32000655 -0.11566515 0.07742555 -0.58677614 -0.7588355 -0.36198118 0.0062072175 -0.070105836 -0.20460303 -0.328304 -0.37537602 0.2760612 0.060280554 0.31412435 0.52422 -0.14392069 -0.24874018 -0.24647821 -0.19474919 -0.13041045 0.4540382 0.041472442 0.23322032 -0.5971982 -0.12590538 -0.23461878 0.57433975
30 0.5210431 0.07865973 -0.08067584 -0.16122057 0.10355116 -0.03011031 -0.04351143 -0.029619083 0.37782082 -0.059287556 -0.4242554 -0.019686455 0.0029211345 0.3334142 -0.3381221 0.55134803 0.10023993 -0.020869885 -0.4532493 0.057050698 -0.19355601 0.80154854 -0.17972872 -0.35846046 -0.120886 0.36303464 0.17985244 0.023532534 0.0012325901 0.056549106 -0.51378495 0.019247381 0.4680849 0.55007195 -0.102641016 0.41207364 -0.1429379 0.106804006 0.3507677 0.43720436 -0.16816263 0.29268876 0.37201712 0.44747388 -0.042398408 -0.3724903 0.63230824 -0.5230771 0.6034512 0.038240954 -0.40277645 -0.2330324 0.3392336 -0.2749334 -0.17406292 -0.303992 -0.26873437 -0.07881306 -0.6146449 0.031062925 -0.38021985 0.69729733 -0.10085302 0.1716057 0.29267552 0.0038641703 -0.26228368 0.60660875 -0.32450256 0.24783863 0.25438356 0.083996385 0.15642262 0.15690523 -0.071407735 0.06253964 -0.019701255 0.17857109 -0.24440928 0.18026777 0.06302086 0.11802153 -0.3613604 0.10425597 -0.43620977 0.6609886 0.13476688 0.38111216 -0.4561083 0.30347052 -0.48929116 -0.15857337 -0.1957414 0.47959745 -0.063769706 -0.14238173 0.28416386 -0.25438198 0.09808329 -0.3090677 -0.50658745 0.32243934 -0.11125959 0.082898095 -0.583517 -0.7552649 -0.36062905 0.0065295435 -0.0667724 -0.19905658 -0.32545048 -0.3720102 0.27757347 0.06375541 0.3158497 0.5270812 -0.13862073 -0.2546536 -0.24232522 -0.19255532 -0.1365237 0.45604098 0.04385587 0.23263548 -0.59435314 -0.123572215 -0.23230623 0.569285
14 0.5198144 0.078009374 -0.08662499 -0.16143878 0.10664798 -0.02605298 -0.047803275 -0.024639275 0.37271258 -0.057517845 -0.42398807 -0.01586718 0.0022718695 0.33089754 -0.33312094 0.5474675 0.1032578 -0.023925042 -0.4509507 0.060853664 -0.19035655 0.80527663 -0.17572787 -0.36035955 -0.1249367 0.36798483 0.17799829 0.03076356 0.0067879106 0.055057112 -0.5100778 0.02097344 0.46752867 0.5497906 -0.10352674 0.41151115 -0.13832055 0.10266241 0.35526276 0.43757305 -0.1666699 0.28967056 0.3666508 0.44824734 -0.036187477 -0.3731961 0.6317286 -0.52057195 0.60192937 0.041104462 -0.4025693 -0.23646396 0.34077224 -0.27634612 -0.17511047 -0.3045215 -0.26744664 -0.07588298 -0.61049366 0.030088397 -0.3852439 0.69280857 -0.1056148 0.16527034 0.29309273 -6.005635E-4 -0.2621272 0.61214346 -0.32356668 0.24125089 0.2560964 0.08421934 0.1602129 0.15617682 -0.071829535 0.06246788 -0.021028364 0.1789525 -0.23895085 0.18196821 0.06775462 0.11439556 -0.35976288 0.10908148 -0.43694147 0.66314334 0.13736266 0.38113126 -0.4568298 0.3026789 -0.4885631 -0.1573288 -0.19182205 0.47837186 -0.06702299 -0.13657908 0.28593126 -0.25395632 0.0956357 -0.30612332 -0.5091956 0.32420686 -0.11322134 0.077416524 -0.58636713 -0.75943214 -0.36440873 0.0076608686 -0.0706473 -0.19864044 -0.32340798 -0.37540993 0.2701327 0.06527004 0.3166919 0.5265251 -0.14406608 -0.25261918 -0.2467093 -0.19751911 -0.13536666 0.45849764 0.043709908 0.23339775 -0.59610116 -0.12045595 -0.22895373 0.57296187
24 0.5252312 0.07686062 -0.08511055 -0.1664177 0.10510184 -0.025964186 -0.04831362 -0.0291236 0.376353 -0.05899387 -0.42604443 -0.018231828 0.0049108313 0.33159897 -0.33220437 0.55270815 0.10238449 -0.023423458 -0.45194605 0.057497397 -0.18830304 0.7999351 -0.18038215 -0.35941982 -0.12031527 0.36378518 0.18190056 0.025169995 0.0029267299 0.057370894 -0.511088 0.021774702 0.46321106 0.54580903 -0.0974502 0.4130771 -0.1439139 0.10376739 0.35565147 0.4380882 -0.16637808 0.29076335 0.36616918 0.44462755 -0.040941622 -0.3694837 0.63073224 -0.52514863 0.5998019 0.042292517 -0.39815912 -0.23676786 0.33974323 -0.27728465 -0.17672655 -0.30216667 -0.26201022 -0.07336037 -0.611164 0.03194584 -0.3850013 0.6926806 -0.102931745 0.17167582 0.29207096 -0.0022649379 -0.26346213 0.61233395 -0.32843512 0.24489179 0.25230998 0.083165035 0.16155286 0.15655494 -0.06806149 0.061756406 -0.023398485 0.18202588 -0.23975861 0.18138377 0.06789034 0.12088373 -0.36181313 0.10691782 -0.43595493 0.66648656 0.14093257 0.38099864 -0.45785016 0.30467033 -0.4874495 -0.15784784 -0.1933408 0.48605186 -0.06328816 -0.13928922 0.28109384 -0.25350475 0.09751658 -0.30588913 -0.50872564 0.32361507 -0.11497028 0.07942834 -0.5858313 -0.7591573 -0.3583385 0.011266186 -0.07228191 -0.20305827 -0.32701713 -0.37491447 0.27333498 0.06361415 0.30935448 0.52551866 -0.13960081 -0.25096595 -0.24711512 -0.19172807 -0.1343939 0.45791784 0.039706714 0.23102519 -0.59808093 -0.11882354 -0.2320536 0.5719662
4 0.5217706 0.078401506 -0.08385418 -0.16379179 0.10776776 -0.029851386 -0.04347156 -0.02648004 0.37623376 -0.05738372 -0.42727306 -0.012384312 0.005210284 0.33556214 -0.33647138 0.55129755 0.1087164 -0.023675447 -0.45140374 0.05841044 -0.19235553 0.8040314 -0.1791195 -0.36548105 -0.11850337 0.36840302 0.1790182 0.030173304 0.0045641284 0.05788624 -0.5136308 0.017361926 0.46459547 0.54643273 -0.10257203 0.40855056 -0.14135978 0.10440816 0.35291967 0.43840098 -0.16889092 0.29346973 0.36847967 0.45100534 -0.039168883 -0.3701624 0.62452245 -0.5245185 0.5978977 0.038858365 -0.40119308 -0.23769172 0.3402115 -0.2781053 -0.1749992 -0.30534598 -0.26670673 -0.078403704 -0.6133028 0.03476598 -0.38105524 0.6950154 -0.1076061 0.17066376 0.28877005 0.0020833712 -0.25770372 0.6128745 -0.32831872 0.24438128 0.25727215 0.08729276 0.15650418 0.15952253 -0.07246594 0.05723123 -0.021481331 0.18076207 -0.24379477 0.17623731 0.069733545 0.11680151 -0.36165616 0.110233076 -0.43281394 0.6643795 0.13790025 0.3758596 -0.45260626 0.30714706 -0.48410082 -0.15462974 -0.19502947 0.47960645 -0.062110063 -0.13871758 0.28904146 -0.25401506 0.0988908 -0.3013288 -0.5085076 0.32147667 -0.116981015 0.080013365 -0.5835884 -0.75814486 -0.36595818 0.0051247184 -0.072446026 -0.19927633 -0.32378092 -0.37541866 0.2729978 0.059729535 0.31584337 0.522931 -0.1409475 -0.2554043 -0.24384964 -0.19810258 -0.1312741 0.45544308 0.040753603 0.23547764 -0.5968104 -0.12613213 -0.22873473 0.570887
32 0.5202375 0.07816783 -0.08394282 -0.16792585 0.09985946 -0.025200523 -0.050668404 -0.030472632 0.37409464 -0.057443533 -0.42557505 -0.017390236 0.0031467937 0.33483642 -0.33436185 0.5533859 0.10594901 -0.027560536 -0.45178935 0.058221944 -0.19274932 0.8016855 -0.18028039 -0.3616938 -0.12389665 0.36591086 0.17748275 0.02900367 0.006985232 0.057198323 -0.50932854 0.023774037 0.46418867 0.5497174 -0.098689444 0.4141794 -0.14124715 0.106422946 0.3554609 0.4406424 -0.17099035 0.28856412 0.36460784 0.447436 -0.03849 -0.37123847 0.6338712 -0.5264671 0.60211533 0.041474167 -0.40029585 -0.23211262 0.34263793 -0.2795148 -0.17339736 -0.29966715 -0.26547197 -0.0793381 -0.6077294 0.032203905 -0.381653 0.6938874 -0.104106 0.17198025 0.29340246 0.0019271577 -0.26302397 0.61013967 -0.32542264 0.24588825 0.25348276 0.081867136 0.1609478 0.15794767 -0.07322157 0.060453728 -0.022777025 0.17940415 -0.24071614 0.17614798 0.0708635 0.117881246 -0.36146107 0.10782219 -0.43637845 0.6642802 0.14010864 0.38254124 -0.45346048 0.3054249 -0.48553705 -0.15612748 -0.1959579 0.4855038 -0.06807817 -0.13837768 0.28437746 -0.25560117 0.09479036 -0.30428967 -0.5063711 0.3249262 -0.10961421 0.074985705 -0.5843392 -0.75987375 -0.36464998 0.012255835 -0.069452584 -0.1977266 -0.32456076 -0.3771176 0.27028066 0.061194766 0.3116495 0.52942216 -0.1415584 -0.25127593 -0.24409606 -0.19093117 -0.13359441 0.45608887 0.04101013 0.23434189 -0.5920545 -0.11955118 -0.23027308 0.5704148
2 0.5250298 0.08247247 -0.07814024 -0.16335642 0.10697706 -0.024877777 -0.044061523 -0.024895927 0.37291363 -0.05899287 -0.42554238 -0.0137682995 0.0079251025 0.33607242 -0.33820125 0.549258 0.10779699 -0.02077849 -0.44950086 0.058043372 -0.189771 0.8034512 -0.17737937 -0.36484787 -0.12119836 0.36683622 0.1729389 0.026497848 1.0092978E-4 0.052897852 -0.5120494 0.014295193 0.4696571 0.5496836 -0.100557126 0.40655237 -0.13583644 0.104602925 0.3494043 0.44181016 -0.17077234 0.29374322 0.36956215 0.44878143 -0.03783969 -0.37264252 0.6305862 -0.5246182 0.6023987 0.03832327 -0.40192148 -0.23733924 0.3424376 -0.27805912 -0.1768673 -0.30441207 -0.27049556 -0.08165668 -0.60853916 0.03346837 -0.3833591 0.6908513 -0.10673876 0.16701531 0.2922091 0.0013151643 -0.2586149 0.60934925 -0.32655922 0.24694197 0.25442642 0.08517877 0.15950604 0.1641039 -0.067124665 0.05794879 -0.022169923 0.17997923 -0.23914553 0.17695579 0.068492785 0.11990301 -0.3605341 0.10264865 -0.43547145 0.6607194 0.1342078 0.3748255 -0.45763296 0.30378214 -0.4876664 -0.15638351 -0.19163726 0.48326546 -0.06742125 -0.14319746 0.28823987 -0.25531426 0.09917282 -0.30437595 -0.51000655 0.31992337 -0.11360433 0.080948114 -0.5870023 -0.7559122 -0.3613951 0.012075841 -0.07226424 -0.1995931 -0.32278505 -0.37581816 0.27396786 0.064666726 0.31524715 0.5223513 -0.13885689 -0.25170588 -0.24208097 -0.19805574 -0.1365393 0.46001568 0.037554663 0.22898634 -0.5966762 -0.12554735 -0.23307544 0.570113
3 0.52550346 0.0770603 -0.08329461 -0.1620268 0.105779655 -0.025950544 -0.04173653 -0.025248101 0.37437692 -0.058256667 -0.42307073 -0.015718458 0.005881682 0.33494344 -0.33862716 0.5506885 0.10532639 -0.023683734 -0.45356745 0.05867057 -0.19047686 0.8030895 -0.17759316 -0.36310086 -0.12388011 0.36532602 0.17408074 0.031136503 0.0020769201 0.05244553 -0.50700873 0.016901854 0.46737692 0.54485047 -0.097951494 0.41369367 -0.14066729 0.10089544 0.3561241 0.44050992 -0.16760321 0.29356745 0.36397803 0.44907665 -0.041104913 -0.3678686 0.62985003 -0.5256254 0.60182196 0.036933407 -0.40215543 -0.23646349 0.33757532 -0.27406722 -0.1759173 -0.3024384 -0.26815552 -0.07798355 -0.6120047 0.03481845 -0.382661 0.69629896 -0.106706135 0.16928515 0.28869128 6.68999E-4 -0.25776348 0.6111774 -0.3259545 0.24181676 0.25639352 0.082271926 0.15605186 0.16152555 -0.068207346 0.059066102 -0.017682131 0.17548154 -0.24080062 0.1811913 0.06334592 0.11974671 -0.36492863 0.11057109 -0.43826818 0.66480416 0.13850343 0.37709197 -0.4517751 0.30308738 -0.48346302 -0.15411086 -0.19238889 0.48013163 -0.06731398 -0.1359006 0.28758326 -0.25663424 0.095139466 -0.30692497 -0.50479656 0.32384646 -0.11182657 0.07832006 -0.584773 -0.7559545 -0.36290342 0.012587705 -0.07067405 -0.2035865 -0.32747155 -0.3703877 0.27421197 0.064143114 0.3179463 0.526831 -0.14259773 -0.2545761 -0.2455637 -0.19608848 -0.13609107 0.46088713 0.042178083 0.23695542 -0.5923681 -0.12601091 -0.2338414 0.5741413
33 0.52168083 0.07513078 -0.08358159 -0.16646072 0.10221901 -0.023450186 -0.044339217 -0.02465403 0.37081507 -0.060266823 -0.42156297 -0.018644249 0.0017266453 0.32930073 -0.33799085 0.550888 0.10331623 -0.025240082 -0.453019 0.05932661 -0.19208378 0.7982418 -0.18017673 -0.36320105 -0.12407929 0.3625546 0.1780467 0.03023824 0.0061055194 0.053963445 -0.5104878 0.021939686 0.46659914 0.5474957 -0.09760473 0.41233176 -0.14221105 0.09982312 0.3545922 0.43922862 -0.17057984 0.28972438 0.36583057 0.4472501 -0.03594879 -0.3715567 0.63188756 -0.52303886 0.59929746 0.039651994 -0.4024284 -0.23476508 0.34148923 -0.2769881 -0.17922331 -0.30143976 -0.265034 -0.0796071 -0.61181575 0.032915905 -0.3858753 0.6945888 -0.10016886 0.17011097 0.2878693 5.3198414E-4 -0.2603323 0.6111234 -0.32330418 0.24718411 0.25672358 0.08156562 0.15954404 0.15886596 -0.07016328 0.062738374 -0.022137009 0.17964421 -0.23952685 0.1819503 0.06476073 0.11797865 -0.36442024 0.110252455 -0.4384027 0.6613291 0.13745384 0.38073182 -0.45607445 0.30323127 -0.48971146 -0.15694705 -0.19215746 0.48603138 -0.06962316 -0.13948156 0.28451684 -0.25309289 0.099667646 -0.30769363 -0.50934136 0.32270584 -0.11416709 0.078384206 -0.5831294 -0.758058 -0.3590464 0.009094532 -0.07040001 -0.20182997 -0.32796493 -0.3737407 0.27179068 0.06570884 0.31559095 0.52773917 -0.13703199 -0.2518407 -0.24563278 -0.19646317 -0.13351727 0.45951977 0.039570555 0.23557888 -0.59649056 -0.12216629 -0.2310207 0.57326925
1 0.5253187 0.08238473 -0.08081728 -0.16683325 0.1007705 -0.028549796 -0.041094165 -0.026638864 0.37171924 -0.055714265 -0.42706254 -0.012906613 0.004949572 0.33344242 -0.33307835 0.5502792 0.10931386 -0.024900809 -0.44836158 0.06160315 -0.1930439 0.80322033 -0.17291315 -0.36414275 -0.120478556 0.36962363 0.17730261 0.031904176 0.0046390444 0.054941304 -0.5048465 0.016949337 0.4679729 0.5495888 -0.10130814 0.4126646 -0.1399965 0.102354094 0.35620216 0.43980142 -0.17082286 0.29234314 0.3681582 0.4495457 -0.036260612 -0.37004304 0.6274573 -0.52653646 0.5999405 0.039556354 -0.40571013 -0.23146299 0.33714998 -0.27954486 -0.17793651 -0.30029434 -0.2713913 -0.07768364 -0.60900426 0.036445327 -0.3795592 0.6935561 -0.105526134 0.16811301 0.29177693 -6.160091E-4 -0.25604826 0.6126642 -0.32644263 0.24431066 0.25038576 0.08684045 0.16094646 0.16253607 -0.06903201 0.058542978 -0.018526858 0.17400602 -0.2365319 0.17984432 0.06975275 0.115774855 -0.36486998 0.107315205 -0.43858343 0.66274506 0.13835217 0.3775884 -0.4565317 0.3034628 -0.48461178 -0.1603833 -0.19229288 0.48557273 -0.06832973 -0.1378353 0.28720507 -0.25571167 0.09775213 -0.30395094 -0.5047693 0.3219823 -0.10897935 0.078856245 -0.58768713 -0.7569723 -0.36160147 0.010663071 -0.06772439 -0.20249604 -0.32701498 -0.37608558 0.27419028 0.065111354 0.3145574 0.52725494 -0.14148533 -0.2567199 -0.24133445 -0.19186635 -0.1355301 0.45939487 0.037880443 0.23349203 -0.5932014 -0.118971 -0.23251161 0.5737631
34 0.52202374 0.07978868 -0.080299355 -0.16253707 0.101787865 -0.02532175 -0.04816983 -0.02949202 0.3724816 -0.059722625 -0.42648742 -0.017440788 0.0053987037 0.33222106 -0.33909893 0.55072284 0.10125158 -0.02096815 -0.4531988 0.058168467 -0.18891665 0.80296546 -0.17440104 -0.36372668 -0.12256767 0.36661693 0.17985494 0.024937248 -4.2373905E-4 0.052199345 -0.5124961 0.020535192 0.46840027 0.54884964 -0.09622543 0.4078404 -0.14208591 0.104378715 0.34972733 0.44068488 -0.16645834 0.2911578 0.36946693 0.44870332 -0.04031881 -0.36914718 0.62973714 -0.52516323 0.60160345 0.040365104 -0.404084 -0.23197484 0.3371619 -0.27339354 -0.17844559 -0.30152044 -0.26583338 -0.0731544 -0.6108785 0.03511191 -0.38315293 0.6944913 -0.10081275 0.17308219 0.28978252 0.0014875635 -0.25824583 0.6072433 -0.32402122 0.24463025 0.25785065 0.084738255 0.15825811 0.15633617 -0.07065825 0.06332105 -0.016253272 0.17606415 -0.24084872 0.17742288 0.06619598 0.120970756 -0.36204436 0.10992949 -0.43368578 0.6634045 0.13628273 0.38100335 -0.4564867 0.3051708 -0.49048188 -0.16146387 -0.19465373 0.48628196 -0.07007566 -0.1413607 0.28320968 -0.25083238 0.10157901 -0.30386096 -0.50772834 0.32349482 -0.11334365 0.07698703 -0.58329344 -0.7560659 -0.36348653 0.012061125 -0.067314476 -0.20319372 -0.3239914 -0.37403727 0.27515653 0.06528533 0.31354666 0.5263045 -0.14276312 -0.25496623 -0.24376015 -0.19392298 -0.13682951 0.45941272 0.04181981 0.23526034 -0.5975686 -0.12500037 -0.23185162 0.57127905